Language model created by QuickLM on Wed Nov  9 12:35:52 EST 2016
Copyright (c) 1996-2010 Carnegie Mellon University and Alexander I. Rudnicky

The model is in standard ARPA format, designed by Doug Paul while he was at MITRE.

The code that was used to produce this language model is available in Open Source.
Please visit http://www.speech.cs.cmu.edu/tools/ for more information

The (fixed) discount mass is 0.5. The backoffs are computed using the ratio method.
This model based on a corpus of 3 sentences and 37 words

\data\
ngram 1=37
ngram 2=38
ngram 3=36

\1-grams:
-1.4472 </s> -0.3010
-1.4472 <s> -0.2852
-1.9243 AND -0.2852
-1.9243 BILLION -0.2958
-1.9243 EIGHT -0.2958
-1.9243 EIGHTEEN -0.2958
-1.9243 EIGHTY -0.2958
-1.9243 ELEVEN -0.2958
-1.9243 FIFTEEN -0.2958
-1.9243 FIFTY -0.2958
-1.9243 FIVE -0.2958
-1.9243 FORTY -0.2958
-1.9243 FOUR -0.2958
-1.9243 FOURTEEN -0.2958
-1.6232 HELLO -0.2798
-1.9243 HUNDRED -0.2958
-1.9243 MILLION -0.2958
-1.9243 NINE -0.2958
-1.9243 NINTEEN -0.2958
-1.9243 NINTY -0.2958
-1.9243 ONE -0.2958
-1.9243 SEVEN -0.2958
-1.9243 SEVENTEEN -0.2958
-1.9243 SEVENTY -0.2958
-1.9243 SIX -0.2958
-1.9243 SIXTEEN -0.2958
-1.9243 SIXTY -0.2958
-1.9243 TEN -0.2958
-1.9243 THIRTEEN -0.2958
-1.9243 THIRTY -0.2958
-1.9243 THOUSAND -0.2958
-1.9243 THREE -0.2958
-1.9243 TWELVE -0.2958
-1.9243 TWENTY -0.2958
-1.9243 TWO -0.2958
-1.9243 WORLD -0.2852
-1.9243 ZERO -0.2958

\2-grams:
-0.4771 <s> HELLO 0.0000
-0.7782 <s> ZERO 0.0000
-0.3010 AND </s> -0.3010
-0.3010 BILLION MILLION 0.0000
-0.3010 EIGHT FIVE 0.0000
-0.3010 EIGHTEEN ELEVEN 0.0000
-0.3010 EIGHTY FIFTY 0.0000
-0.3010 ELEVEN FIFTEEN 0.0000
-0.3010 FIFTEEN FOURTEEN 0.0000
-0.3010 FIFTY FORTY 0.0000
-0.3010 FIVE FOUR 0.0000
-0.3010 FORTY NINTY 0.0000
-0.3010 FOUR NINE 0.0000
-0.3010 FOURTEEN NINTEEN 0.0000
-0.6021 HELLO </s> -0.3010
-0.6021 HELLO WORLD 0.0000
-0.3010 HUNDRED BILLION 0.0000
-0.3010 MILLION THOUSAND 0.0000
-0.3010 NINE ONE 0.0000
-0.3010 NINTEEN SEVENTEEN 0.0000
-0.3010 NINTY SEVENTY 0.0000
-0.3010 ONE SEVEN 0.0000
-0.3010 SEVEN SIX 0.0000
-0.3010 SEVENTEEN SIXTEEN 0.0000
-0.3010 SEVENTY SIXTY 0.0000
-0.3010 SIX THREE 0.0000
-0.3010 SIXTEEN TEN 0.0000
-0.3010 SIXTY THIRTY 0.0000
-0.3010 TEN THIRTEEN 0.0000
-0.3010 THIRTEEN TWELVE 0.0000
-0.3010 THIRTY TWENTY 0.0000
-0.3010 THOUSAND AND 0.0000
-0.3010 THREE TWO 0.0000
-0.3010 TWELVE EIGHTY 0.0000
-0.3010 TWENTY HUNDRED 0.0000
-0.3010 TWO EIGHTEEN 0.0000
-0.3010 WORLD </s> -0.3010
-0.3010 ZERO EIGHT 0.0000

\3-grams:
-0.6021 <s> HELLO </s>
-0.6021 <s> HELLO WORLD
-0.3010 <s> ZERO EIGHT
-0.3010 BILLION MILLION THOUSAND
-0.3010 EIGHT FIVE FOUR
-0.3010 EIGHTEEN ELEVEN FIFTEEN
-0.3010 EIGHTY FIFTY FORTY
-0.3010 ELEVEN FIFTEEN FOURTEEN
-0.3010 FIFTEEN FOURTEEN NINTEEN
-0.3010 FIFTY FORTY NINTY
-0.3010 FIVE FOUR NINE
-0.3010 FORTY NINTY SEVENTY
-0.3010 FOUR NINE ONE
-0.3010 FOURTEEN NINTEEN SEVENTEEN
-0.3010 HELLO WORLD </s>
-0.3010 HUNDRED BILLION MILLION
-0.3010 MILLION THOUSAND AND
-0.3010 NINE ONE SEVEN
-0.3010 NINTEEN SEVENTEEN SIXTEEN
-0.3010 NINTY SEVENTY SIXTY
-0.3010 ONE SEVEN SIX
-0.3010 SEVEN SIX THREE
-0.3010 SEVENTEEN SIXTEEN TEN
-0.3010 SEVENTY SIXTY THIRTY
-0.3010 SIX THREE TWO
-0.3010 SIXTEEN TEN THIRTEEN
-0.3010 SIXTY THIRTY TWENTY
-0.3010 TEN THIRTEEN TWELVE
-0.3010 THIRTEEN TWELVE EIGHTY
-0.3010 THIRTY TWENTY HUNDRED
-0.3010 THOUSAND AND </s>
-0.3010 THREE TWO EIGHTEEN
-0.3010 TWELVE EIGHTY FIFTY
-0.3010 TWENTY HUNDRED BILLION
-0.3010 TWO EIGHTEEN ELEVEN
-0.3010 ZERO EIGHT FIVE

\end\
