Language model created by QuickLM on Thu Jan  5 18:55:24 EST 2017
Copyright (c) 1996-2010 Carnegie Mellon University and Alexander I. Rudnicky

The model is in standard ARPA format, designed by Doug Paul while he was at MITRE.

The code that was used to produce this language model is available in Open Source.
Please visit http://www.speech.cs.cmu.edu/tools/ for more information

The (fixed) discount mass is 0.5. The backoffs are computed using the ratio method.
This model based on a corpus of 118 sentences and 136 words

\data\
ngram 1=136
ngram 2=259
ngram 3=245

\1-grams:
-0.9307 </s> -0.3010
-0.9307 <s> -0.2414
-2.7016 A -0.3002
-3.0026 ABOUT -0.3006
-3.0026 ACCESS -0.3006
-3.0026 ADDRESS -0.2468
-3.0026 ALL -0.2468
-3.0026 ARCH -0.3006
-2.5255 ASSISTANT -0.2464
-3.0026 BACK -0.3006
-3.0026 BAY -0.3006
-2.7016 BE -0.3002
-3.0026 BEGINNING -0.3002
-3.0026 BLOCK -0.3002
-3.0026 C -0.2468
-3.0026 CHECK -0.3002
-3.0026 CLEAR -0.2468
-2.0484 CLOSE -0.2879
-2.5255 COMMANDS -0.2444
-3.0026 COMPUTER -0.2468
-3.0026 CONTROL -0.3006
-3.0026 COPY -0.2468
-3.0026 CUT -0.2468
-2.5255 DAY -0.2971
-3.0026 DAY? -0.2468
-2.7016 DEVICES -0.2468
-3.0026 DIAGNOSTICS -0.2468
-2.7016 DIRECTORY -0.2468
-3.0026 DOCUMENT -0.2468
-3.0026 DOORS -0.2468
-2.4005 DOWN -0.2468
-2.5255 ECHO -0.2997
-3.0026 EDITOR -0.2468
-3.0026 EM -0.2468
-2.7016 EMAIL -0.2468
-2.7016 END -0.2459
-3.0026 ENTER -0.2468
-3.0026 ESCAPE -0.2468
-3.0026 EVERYONE -0.2468
-3.0026 FACEBOOK -0.2468
-2.3036 FILE -0.2468
-3.0026 FIND -0.2468
-2.4005 FIREFOX -0.2468
-3.0026 FLIP -0.2468
-3.0026 FOR -0.2993
-3.0026 FORUM -0.2468
-3.0026 FULLSCREEN -0.2468
-2.5255 GO -0.2984
-3.0026 HELLO -0.2993
-3.0026 HOME -0.2468
-3.0026 HOSTNAME -0.2468
-3.0026 INVITE -0.3006
-2.1575 IS -0.2963
-2.7016 IS? -0.2468
-3.0026 IT -0.3002
-2.5255 IT? -0.2468
-2.2244 LIST -0.2444
-3.0026 M -0.2468
-3.0026 MACHINE -0.2468
-3.0026 MATRIX -0.2468
-3.0026 MAXIMIZE -0.2997
-2.4005 ME -0.2454
-2.7016 MIND -0.2459
-3.0026 MINIMIZE -0.2997
-3.0026 MODULES -0.2468
-3.0026 MUTE -0.2468
-3.0026 NETWORK -0.3002
-2.7016 NEW -0.2967
-3.0026 NEXT -0.2989
-3.0026 NOTE -0.2468
-2.7016 OF -0.2989
-3.0026 OK -0.3006
-3.0026 ON -0.3006
-1.7985 OPEN -0.2812
-3.0026 OTHER -0.3006
-2.7016 PAGE -0.2980
-3.0026 PASTE -0.2468
-3.0026 PILL -0.2468
-3.0026 PLAY -0.2468
-3.0026 POD -0.3006
-3.0026 POINTS -0.2468
-3.0026 PREVIOUS -0.2989
-2.7016 PRINT -0.2997
-3.0026 PROCESSES -0.2468
-3.0026 PROGRAM -0.2468
-2.7016 PROJECT -0.3002
-3.0026 QUIET -0.2468
-2.3036 QUIT -0.2923
-3.0026 REBOOT -0.2997
-3.0026 RECORD -0.2468
-3.0026 RED -0.3006
-3.0026 REWIND -0.2468
-2.4005 ROOT -0.2459
-3.0026 RUN -0.3006
-2.7016 SAVE -0.2984
-2.7016 SCROLL -0.2980
-3.0026 SEARCH -0.2984
-3.0026 SELECT -0.3006
-2.7016 SHOW -0.2984
-3.0026 SILENT -0.2468
-2.5255 SING -0.2980
-2.7016 SONG -0.2468
-2.3036 STATUS -0.2468
-3.0026 STELLA -0.2468
-3.0026 SUSPEND -0.3006
-2.7016 SWITCH -0.2984
-3.0026 SYSTEM -0.2989
-2.3036 TAB -0.2468
-3.0026 TABS -0.2468
-3.0026 TALK -0.2984
-3.0026 TELL -0.2993
-2.3036 TERMINAL -0.2468
-3.0026 THANKS -0.2993
-2.1575 THE -0.2963
-3.0026 THUNDERBIRD -0.2468
-2.5255 TIME -0.2971
-2.7016 TIME? -0.2468
-2.2244 TO -0.2923
-2.7016 TODAY? -0.2468
-3.0026 TURN -0.3006
-3.0026 UNDO -0.2468
-2.5255 UP -0.2468
-3.0026 USEFUL -0.2997
-3.0026 USERNAME -0.2468
-3.0026 VOICE -0.3006
-2.5255 VOLUME -0.2976
-3.0026 WEATHER -0.3002
-3.0026 WEATHER? -0.2468
-2.2244 WEB -0.2468
-2.0026 WHAT -0.2941
-3.0026 WIKI -0.2468
-2.5255 WINDOW -0.2468
-3.0026 WIRELESS -0.2468
-3.0026 WORKING -0.3002
-3.0026 YOU -0.2468
-3.0026 YOUTUBE -0.2468

\2-grams:
-2.3729 <s> BACK 0.0000
-2.0719 <s> BE 0.0000
-2.3729 <s> BEGINNING 0.0000
-2.3729 <s> CHECK 0.0000
-2.3729 <s> CLEAR 0.0000
-1.4187 <s> CLOSE 0.0000
-2.3729 <s> CONTROL 0.0000
-2.3729 <s> COPY 0.0000
-2.3729 <s> CUT 0.0000
-2.3729 <s> DOWN 0.0000
-1.8958 <s> ECHO 0.0000
-2.0719 <s> END 0.0000
-2.3729 <s> ENTER 0.0000
-2.3729 <s> ESCAPE 0.0000
-2.3729 <s> FIND 0.0000
-2.3729 <s> FULLSCREEN 0.0000
-1.8958 <s> GO 0.0000
-2.3729 <s> HELLO 0.0000
-2.3729 <s> HOME 0.0000
-2.3729 <s> INVITE 0.0000
-1.5948 <s> LIST 0.0000
-2.3729 <s> MATRIX 0.0000
-2.3729 <s> MAXIMIZE 0.0000
-2.3729 <s> MINIMIZE 0.0000
-2.0719 <s> NEW 0.0000
-2.3729 <s> NEXT 0.0000
-2.3729 <s> OK 0.0000
-1.1688 <s> OPEN 0.0000
-2.0719 <s> PAGE 0.0000
-2.3729 <s> PASTE 0.0000
-2.3729 <s> PLAY 0.0000
-2.3729 <s> PREVIOUS 0.0000
-2.0719 <s> PRINT 0.0000
-1.6739 <s> QUIT 0.0000
-2.3729 <s> REBOOT 0.0000
-2.3729 <s> RECORD 0.0000
-2.3729 <s> RED 0.0000
-2.3729 <s> REWIND 0.0000
-2.0719 <s> ROOT 0.0000
-2.3729 <s> RUN 0.0000
-2.0719 <s> SAVE 0.0000
-2.0719 <s> SCROLL 0.0000
-2.3729 <s> SEARCH 0.0000
-2.3729 <s> SELECT 0.0000
-2.0719 <s> SHOW 0.0000
-1.8958 <s> SING 0.0000
-2.3729 <s> SUSPEND 0.0000
-2.0719 <s> SWITCH 0.0000
-2.3729 <s> SYSTEM 0.0000
-2.3729 <s> TALK 0.0000
-2.3729 <s> TELL 0.0000
-2.3729 <s> TERMINAL 0.0000
-2.3729 <s> THANKS 0.0000
-2.3729 <s> TIME -0.1249
-2.3729 <s> TURN 0.0000
-2.3729 <s> UNDO 0.0000
-2.3729 <s> VOICE 0.0000
-1.8958 <s> VOLUME 0.0000
-1.3729 <s> WHAT 0.0000
-0.3010 A SONG 0.0000
-0.3010 ABOUT YOU 0.0000
-0.3010 ACCESS POINTS 0.0000
-0.3010 ADDRESS </s> -0.3010
-0.3010 ALL </s> -0.3010
-0.3010 ARCH WIKI 0.0000
-0.4771 ASSISTANT </s> -0.3010
-0.7782 ASSISTANT FORUM 0.0000
-0.3010 BACK FLIP 0.0000
-0.3010 BAY DOORS 0.0000
-0.6021 BE QUIET 0.0000
-0.6021 BE SILENT 0.0000
-0.3010 BEGINNING OF 0.0000
-0.3010 BLOCK DEVICES 0.0000
-0.3010 C </s> -0.3010
-0.3010 CHECK EMAIL 0.0000
-0.3010 CLEAR </s> -0.3010
-1.2553 CLOSE ASSISTANT -0.1249
-1.2553 CLOSE EMAIL 0.0000
-1.2553 CLOSE FIREFOX 0.0000
-1.2553 CLOSE OTHER 0.0000
-1.2553 CLOSE PROJECT -0.1761
-1.2553 CLOSE STATUS 0.0000
-1.2553 CLOSE TAB 0.0000
-1.2553 CLOSE TERMINAL 0.0000
-1.2553 CLOSE WINDOW 0.0000
-0.4771 COMMANDS </s> -0.3010
-0.7782 COMMANDS FILE 0.0000
-0.3010 COMPUTER </s> -0.3010
-0.3010 CONTROL C 0.0000
-0.3010 COPY </s> -0.3010
-0.3010 CUT </s> -0.3010
-0.4771 DAY IS -0.1549
-0.7782 DAY IS? 0.0000
-0.3010 DAY? </s> -0.3010
-0.3010 DEVICES </s> -0.3010
-0.3010 DIAGNOSTICS </s> -0.3010
-0.3010 DIRECTORY </s> -0.3010
-0.3010 DOCUMENT </s> -0.3010
-0.3010 DOORS </s> -0.3010
-0.3010 DOWN </s> -0.3010
-0.7782 ECHO ADDRESS 0.0000
-0.7782 ECHO HOSTNAME 0.0000
-0.7782 ECHO USERNAME 0.0000
-0.3010 EDITOR </s> -0.3010
-0.3010 EM </s> -0.3010
-0.3010 EMAIL </s> -0.3010
-0.6021 END </s> -0.3010
-0.6021 END OF 0.0000
-0.3010 ENTER </s> -0.3010
-0.3010 ESCAPE </s> -0.3010
-0.3010 EVERYONE </s> -0.3010
-0.3010 FACEBOOK </s> -0.3010
-0.3010 FILE </s> -0.3010
-0.3010 FIND </s> -0.3010
-0.3010 FIREFOX </s> -0.3010
-0.3010 FLIP </s> -0.3010
-0.3010 FOR ME -0.1761
-0.3010 FORUM </s> -0.3010
-0.3010 FULLSCREEN </s> -0.3010
-0.3010 GO TO -0.0669
-0.3010 HELLO ROOT -0.0969
-0.3010 HOME </s> -0.3010
-0.3010 HOSTNAME </s> -0.3010
-0.3010 INVITE EVERYONE 0.0000
-1.1461 IS IT 0.0000
-0.6690 IS IT? 0.0000
-0.6690 IS THE -0.1963
-0.3010 IS? </s> -0.3010
-0.3010 IT TODAY? 0.0000
-0.3010 IT? </s> -0.3010
-1.0792 LIST </s> -0.3010
-1.0792 LIST ACCESS 0.0000
-1.0792 LIST BLOCK 0.0000
-1.0792 LIST MODULES 0.0000
-1.0792 LIST NETWORK 0.0000
-1.0792 LIST PROCESSES 0.0000
-0.3010 M </s> -0.3010
-0.3010 MACHINE </s> -0.3010
-0.3010 MATRIX </s> -0.3010
-0.3010 MAXIMIZE WINDOW 0.0000
-0.6021 ME </s> -0.3010
-0.9031 ME A 0.0000
-0.9031 ME ABOUT 0.0000
-0.6021 MIND </s> -0.3010
-0.6021 MIND DIRECTORY 0.0000
-0.3010 MINIMIZE WINDOW 0.0000
-0.3010 MODULES </s> -0.3010
-0.3010 MUTE </s> -0.3010
-0.3010 NETWORK DEVICES 0.0000
-0.6021 NEW FILE 0.0000
-0.6021 NEW TAB 0.0000
-0.3010 NEXT TAB 0.0000
-0.3010 NOTE </s> -0.3010
-0.3010 OF FILE 0.0000
-0.3010 OK COMPUTER 0.0000
-0.3010 ON WIRELESS 0.0000
-1.5051 OPEN ARCH 0.0000
-1.5051 OPEN ASSISTANT -0.2218
-1.2041 OPEN COMMANDS 0.0000
-1.5051 OPEN EDITOR 0.0000
-1.5051 OPEN FACEBOOK 0.0000
-1.5051 OPEN FIREFOX 0.0000
-1.5051 OPEN PROJECT -0.1761
-1.5051 OPEN STATUS 0.0000
-1.5051 OPEN STELLA 0.0000
-1.5051 OPEN TAB 0.0000
-1.5051 OPEN TERMINAL 0.0000
-1.2041 OPEN THE -0.1549
-1.5051 OPEN WEB 0.0000
-1.5051 OPEN YOUTUBE 0.0000
-0.3010 OTHER TABS 0.0000
-0.6021 PAGE DOWN 0.0000
-0.6021 PAGE UP 0.0000
-0.3010 PASTE </s> -0.3010
-0.3010 PILL </s> -0.3010
-0.3010 PLAY </s> -0.3010
-0.3010 POD BAY 0.0000
-0.3010 POINTS </s> -0.3010
-0.3010 PREVIOUS TAB 0.0000
-0.6021 PRINT MIND -0.1761
-0.6021 PRINT WORKING 0.0000
-0.3010 PROCESSES </s> -0.3010
-0.3010 PROGRAM </s> -0.3010
-0.6021 PROJECT EM 0.0000
-0.6021 PROJECT M 0.0000
-0.3010 QUIET </s> -0.3010
-1.0000 QUIT PROGRAM 0.0000
-1.0000 QUIT STATUS 0.0000
-1.0000 QUIT THE -0.1963
-1.0000 QUIT THUNDERBIRD 0.0000
-1.0000 QUIT WEB 0.0000
-0.3010 REBOOT ASSISTANT -0.1249
-0.3010 RECORD </s> -0.3010
-0.3010 RED PILL 0.0000
-0.3010 REWIND </s> -0.3010
-0.4260 ROOT </s> -0.3010
-0.9031 ROOT MIND -0.1761
-0.3010 RUN DIAGNOSTICS 0.0000
-0.6021 SAVE DOCUMENT 0.0000
-0.6021 SAVE FILE 0.0000
-0.6021 SCROLL DOWN 0.0000
-0.6021 SCROLL UP 0.0000
-0.3010 SEARCH WEB 0.0000
-0.3010 SELECT ALL 0.0000
-0.6021 SHOW STATUS 0.0000
-0.6021 SHOW USEFUL 0.0000
-0.3010 SILENT </s> -0.3010
-0.7782 SING A 0.0000
-0.7782 SING FOR 0.0000
-0.7782 SING ME -0.2430
-0.3010 SONG </s> -0.3010
-0.3010 STATUS </s> -0.3010
-0.3010 STELLA </s> -0.3010
-0.3010 SUSPEND MACHINE 0.0000
-0.3010 SWITCH TO -0.1249
-0.3010 SYSTEM STATUS 0.0000
-0.3010 TAB </s> -0.3010
-0.3010 TABS </s> -0.3010
-0.3010 TALK TO -0.2632
-0.3010 TELL ME -0.2430
-0.3010 TERMINAL </s> -0.3010
-0.3010 THANKS ROOT -0.0969
-1.1461 THE POD 0.0000
-1.1461 THE TIME? 0.0000
-1.1461 THE WEATHER 0.0000
-1.1461 THE WEATHER? 0.0000
-0.6690 THE WEB 0.0000
-0.3010 THUNDERBIRD </s> -0.3010
-0.4771 TIME IS -0.1963
-0.7782 TIME IS? 0.0000
-0.3010 TIME? </s> -0.3010
-0.7782 TO FIREFOX 0.0000
-1.0792 TO ME -0.1761
-0.7782 TO TERMINAL 0.0000
-1.0792 TO THE -0.1963
-0.3010 TODAY? </s> -0.3010
-0.3010 TURN ON 0.0000
-0.3010 UNDO </s> -0.3010
-0.3010 UP </s> -0.3010
-0.3010 USEFUL COMMANDS -0.1249
-0.3010 USERNAME </s> -0.3010
-0.3010 VOICE NOTE 0.0000
-0.7782 VOLUME DOWN 0.0000
-0.7782 VOLUME MUTE 0.0000
-0.7782 VOLUME UP 0.0000
-0.3010 WEATHER TODAY? 0.0000
-0.3010 WEATHER? </s> -0.3010
-0.3010 WEB </s> -0.3010
-0.8239 WHAT DAY 0.0000
-1.3010 WHAT DAY? 0.0000
-0.8239 WHAT IS -0.1963
-1.0000 WHAT TIME 0.0000
-1.3010 WHAT TIME? 0.0000
-0.3010 WIKI </s> -0.3010
-0.3010 WINDOW </s> -0.3010
-0.3010 WIRELESS </s> -0.3010
-0.3010 WORKING DIRECTORY 0.0000
-0.3010 YOU </s> -0.3010
-0.3010 YOUTUBE </s> -0.3010

\3-grams:
-0.3010 <s> BACK FLIP
-0.6021 <s> BE QUIET
-0.6021 <s> BE SILENT
-0.3010 <s> BEGINNING OF
-0.3010 <s> CHECK EMAIL
-0.3010 <s> CLEAR </s>
-1.2553 <s> CLOSE ASSISTANT
-1.2553 <s> CLOSE EMAIL
-1.2553 <s> CLOSE FIREFOX
-1.2553 <s> CLOSE OTHER
-1.2553 <s> CLOSE PROJECT
-1.2553 <s> CLOSE STATUS
-1.2553 <s> CLOSE TAB
-1.2553 <s> CLOSE TERMINAL
-1.2553 <s> CLOSE WINDOW
-0.3010 <s> CONTROL C
-0.3010 <s> COPY </s>
-0.3010 <s> CUT </s>
-0.3010 <s> DOWN </s>
-0.7782 <s> ECHO ADDRESS
-0.7782 <s> ECHO HOSTNAME
-0.7782 <s> ECHO USERNAME
-0.6021 <s> END </s>
-0.6021 <s> END OF
-0.3010 <s> ENTER </s>
-0.3010 <s> ESCAPE </s>
-0.3010 <s> FIND </s>
-0.3010 <s> FULLSCREEN </s>
-0.3010 <s> GO TO
-0.3010 <s> HELLO ROOT
-0.3010 <s> HOME </s>
-0.3010 <s> INVITE EVERYONE
-1.0792 <s> LIST </s>
-1.0792 <s> LIST ACCESS
-1.0792 <s> LIST BLOCK
-1.0792 <s> LIST MODULES
-1.0792 <s> LIST NETWORK
-1.0792 <s> LIST PROCESSES
-0.3010 <s> MATRIX </s>
-0.3010 <s> MAXIMIZE WINDOW
-0.3010 <s> MINIMIZE WINDOW
-0.6021 <s> NEW FILE
-0.6021 <s> NEW TAB
-0.3010 <s> NEXT TAB
-0.3010 <s> OK COMPUTER
-1.5051 <s> OPEN ARCH
-1.5051 <s> OPEN ASSISTANT
-1.2041 <s> OPEN COMMANDS
-1.5051 <s> OPEN EDITOR
-1.5051 <s> OPEN FACEBOOK
-1.5051 <s> OPEN FIREFOX
-1.5051 <s> OPEN PROJECT
-1.5051 <s> OPEN STATUS
-1.5051 <s> OPEN STELLA
-1.5051 <s> OPEN TAB
-1.5051 <s> OPEN TERMINAL
-1.2041 <s> OPEN THE
-1.5051 <s> OPEN WEB
-1.5051 <s> OPEN YOUTUBE
-0.6021 <s> PAGE DOWN
-0.6021 <s> PAGE UP
-0.3010 <s> PASTE </s>
-0.3010 <s> PLAY </s>
-0.3010 <s> PREVIOUS TAB
-0.6021 <s> PRINT MIND
-0.6021 <s> PRINT WORKING
-1.0000 <s> QUIT PROGRAM
-1.0000 <s> QUIT STATUS
-1.0000 <s> QUIT THE
-1.0000 <s> QUIT THUNDERBIRD
-1.0000 <s> QUIT WEB
-0.3010 <s> REBOOT ASSISTANT
-0.3010 <s> RECORD </s>
-0.3010 <s> RED PILL
-0.3010 <s> REWIND </s>
-0.6021 <s> ROOT </s>
-0.6021 <s> ROOT MIND
-0.3010 <s> RUN DIAGNOSTICS
-0.6021 <s> SAVE DOCUMENT
-0.6021 <s> SAVE FILE
-0.6021 <s> SCROLL DOWN
-0.6021 <s> SCROLL UP
-0.3010 <s> SEARCH WEB
-0.3010 <s> SELECT ALL
-0.6021 <s> SHOW STATUS
-0.6021 <s> SHOW USEFUL
-0.7782 <s> SING A
-0.7782 <s> SING FOR
-0.7782 <s> SING ME
-0.3010 <s> SUSPEND MACHINE
-0.3010 <s> SWITCH TO
-0.3010 <s> SYSTEM STATUS
-0.3010 <s> TALK TO
-0.3010 <s> TELL ME
-0.3010 <s> TERMINAL </s>
-0.3010 <s> THANKS ROOT
-0.3010 <s> TIME IS
-0.3010 <s> TURN ON
-0.3010 <s> UNDO </s>
-0.3010 <s> VOICE NOTE
-0.7782 <s> VOLUME DOWN
-0.7782 <s> VOLUME MUTE
-0.7782 <s> VOLUME UP
-0.8239 <s> WHAT DAY
-1.3010 <s> WHAT DAY?
-0.8239 <s> WHAT IS
-1.0000 <s> WHAT TIME
-1.3010 <s> WHAT TIME?
-0.3010 A SONG </s>
-0.3010 ABOUT YOU </s>
-0.3010 ACCESS POINTS </s>
-0.3010 ARCH WIKI </s>
-0.3010 ASSISTANT FORUM </s>
-0.3010 BACK FLIP </s>
-0.3010 BAY DOORS </s>
-0.3010 BE QUIET </s>
-0.3010 BE SILENT </s>
-0.3010 BEGINNING OF FILE
-0.3010 BLOCK DEVICES </s>
-0.3010 CHECK EMAIL </s>
-0.3010 CLOSE ASSISTANT </s>
-0.3010 CLOSE EMAIL </s>
-0.3010 CLOSE FIREFOX </s>
-0.3010 CLOSE OTHER TABS
-0.3010 CLOSE PROJECT M
-0.3010 CLOSE STATUS </s>
-0.3010 CLOSE TAB </s>
-0.3010 CLOSE TERMINAL </s>
-0.3010 CLOSE WINDOW </s>
-0.3010 COMMANDS FILE </s>
-0.3010 CONTROL C </s>
-0.6021 DAY IS IT
-0.6021 DAY IS IT?
-0.3010 DAY IS? </s>
-0.3010 ECHO ADDRESS </s>
-0.3010 ECHO HOSTNAME </s>
-0.3010 ECHO USERNAME </s>
-0.3010 END OF FILE
-0.3010 FOR ME </s>
-0.7782 GO TO FIREFOX
-0.7782 GO TO TERMINAL
-0.7782 GO TO THE
-0.3010 HELLO ROOT </s>
-0.3010 INVITE EVERYONE </s>
-0.3010 IS IT TODAY?
-0.3010 IS IT? </s>
-0.7782 IS THE TIME?
-0.7782 IS THE WEATHER
-0.7782 IS THE WEATHER?
-0.3010 IT TODAY? </s>
-0.3010 LIST ACCESS POINTS
-0.3010 LIST BLOCK DEVICES
-0.3010 LIST MODULES </s>
-0.3010 LIST NETWORK DEVICES
-0.3010 LIST PROCESSES </s>
-0.3010 MAXIMIZE WINDOW </s>
-0.3010 ME A SONG
-0.3010 ME ABOUT YOU
-0.3010 MIND DIRECTORY </s>
-0.3010 MINIMIZE WINDOW </s>
-0.3010 NETWORK DEVICES </s>
-0.3010 NEW FILE </s>
-0.3010 NEW TAB </s>
-0.3010 NEXT TAB </s>
-0.3010 OF FILE </s>
-0.3010 OK COMPUTER </s>
-0.3010 ON WIRELESS </s>
-0.3010 OPEN ARCH WIKI
-0.3010 OPEN ASSISTANT FORUM
-0.6021 OPEN COMMANDS </s>
-0.6021 OPEN COMMANDS FILE
-0.3010 OPEN EDITOR </s>
-0.3010 OPEN FACEBOOK </s>
-0.3010 OPEN FIREFOX </s>
-0.3010 OPEN PROJECT EM
-0.3010 OPEN STATUS </s>
-0.3010 OPEN STELLA </s>
-0.3010 OPEN TAB </s>
-0.3010 OPEN TERMINAL </s>
-0.6021 OPEN THE POD
-0.6021 OPEN THE WEB
-0.3010 OPEN WEB </s>
-0.3010 OPEN YOUTUBE </s>
-0.3010 OTHER TABS </s>
-0.3010 PAGE DOWN </s>
-0.3010 PAGE UP </s>
-0.3010 POD BAY DOORS
-0.3010 PREVIOUS TAB </s>
-0.3010 PRINT MIND DIRECTORY
-0.3010 PRINT WORKING DIRECTORY
-0.3010 PROJECT EM </s>
-0.3010 PROJECT M </s>
-0.3010 QUIT PROGRAM </s>
-0.3010 QUIT STATUS </s>
-0.3010 QUIT THE WEB
-0.3010 QUIT THUNDERBIRD </s>
-0.3010 QUIT WEB </s>
-0.3010 REBOOT ASSISTANT </s>
-0.3010 RED PILL </s>
-0.3010 ROOT MIND </s>
-0.3010 RUN DIAGNOSTICS </s>
-0.3010 SAVE DOCUMENT </s>
-0.3010 SAVE FILE </s>
-0.3010 SCROLL DOWN </s>
-0.3010 SCROLL UP </s>
-0.3010 SEARCH WEB </s>
-0.3010 SELECT ALL </s>
-0.3010 SHOW STATUS </s>
-0.3010 SHOW USEFUL COMMANDS
-0.3010 SING A SONG
-0.3010 SING FOR ME
-0.3010 SING ME A
-0.3010 SUSPEND MACHINE </s>
-0.6021 SWITCH TO FIREFOX
-0.6021 SWITCH TO TERMINAL
-0.3010 SYSTEM STATUS </s>
-0.3010 TALK TO ME
-0.3010 TELL ME ABOUT
-0.3010 THANKS ROOT </s>
-0.3010 THE POD BAY
-0.3010 THE TIME? </s>
-0.3010 THE WEATHER TODAY?
-0.3010 THE WEATHER? </s>
-0.3010 THE WEB </s>
-0.3010 TIME IS IT?
-0.3010 TIME IS? </s>
-0.3010 TO FIREFOX </s>
-0.3010 TO ME </s>
-0.3010 TO TERMINAL </s>
-0.3010 TO THE WEB
-0.3010 TURN ON WIRELESS
-0.3010 USEFUL COMMANDS </s>
-0.3010 VOICE NOTE </s>
-0.3010 VOLUME DOWN </s>
-0.3010 VOLUME MUTE </s>
-0.3010 VOLUME UP </s>
-0.3010 WEATHER TODAY? </s>
-0.4771 WHAT DAY IS
-0.7782 WHAT DAY IS?
-0.3010 WHAT DAY? </s>
-0.3010 WHAT IS THE
-0.6021 WHAT TIME IS
-0.6021 WHAT TIME IS?
-0.3010 WHAT TIME? </s>
-0.3010 WORKING DIRECTORY </s>

\end\
