Language model created by QuickLM on Tue Oct 27 19:45:10 EDT 2020
Copyright (c) 1996-2010 Carnegie Mellon University and Alexander I. Rudnicky

The model is in standard ARPA format, designed by Doug Paul while he was at MITRE.

The code that was used to produce this language model is available in Open Source.
Please visit http://www.speech.cs.cmu.edu/tools/ for more information

The (fixed) discount mass is 0.5. The backoffs are computed using the ratio method.
This model based on a corpus of 216 sentences and 206 words

\data\
ngram 1=206
ngram 2=438
ngram 3=458

\1-grams:
-0.9332 </s> -0.3010
-0.9332 <s> -0.2370
-2.7905 A -0.2466
-2.9666 ADDRESS -0.2472
-3.2676 ALL -0.2472
-3.2676 APP -0.2472
-3.2676 ARE -0.3008
-2.9666 AUDIO -0.2472
-3.2676 B -0.2472
-2.9666 BACK -0.2469
-3.2676 BACKSPACE -0.2472
-3.2676 BASH -0.2472
-2.7905 BEGINNING -0.2989
-3.2676 BOOKMARKS -0.2472
-2.9666 BOTTOM -0.2448
-3.2676 BREAK -0.2472
-2.9666 BRIGHTNESS -0.2982
-3.2676 BROWSE -0.3006
-2.7905 BROWSER -0.2472
-3.2676 BYE -0.3001
-3.2676 C -0.2472
-3.2676 CANCEL -0.2472
-2.9666 CHAT -0.2472
-3.2676 CHECK -0.2999
-3.2676 CLEAR -0.3006
-2.7905 CLICK -0.2472
-2.3646 CLOSE -0.2911
-3.2676 CLOSED -0.2968
-2.9666 COMMANDS -0.2437
-3.2676 CONNECTION -0.2472
-3.2676 COPY -0.2472
-3.2676 CUT -0.2472
-3.2676 DATE -0.2472
-2.9666 DAY -0.2994
-3.2676 DEE -0.2472
-3.2676 DELETE -0.2472
-3.2676 DESKTOP -0.2472
-3.2676 DIAGNOSTICS -0.2472
-3.2676 DIRECTORY -0.2472
-2.4895 DOWN -0.2472
-3.2676 DOWNLOAD -0.3006
-2.9666 EDIT -0.2472
-3.2676 EEE -0.2472
-3.2676 EIGHT -0.2472
-2.5687 EMAIL -0.2466
-2.5687 END -0.2448
-2.9666 ENTER -0.2469
-3.2676 ESCAPE -0.2472
-3.2676 EXIT -0.2999
-3.2676 EYE -0.3008
-3.2676 F -0.2472
-2.1537 FILE -0.2469
-2.9666 FILES -0.2472
-3.2676 FILEZILLA -0.2472
-3.2676 FIND -0.2999
-2.7905 FIREFOX -0.2472
-3.2676 FIVE -0.2472
-3.2676 FLIP -0.2472
-3.2676 FOUR -0.2472
-3.2676 FULL -0.3006
-3.2676 FUTURE -0.3001
-3.2676 G -0.2472
-3.2676 GIMP -0.2472
-3.2676 GOOD -0.3008
-1.9889 GOTO -0.2855
-2.9666 GRAPHICS -0.2472
-3.2676 H -0.2472
-3.2676 HACKER -0.3001
-3.2676 HELLO -0.3001
-3.2676 HOME -0.2472
-2.9666 HOW -0.3006
-3.2676 I -0.2472
-2.5687 IN -0.2426
-3.2676 INSPECTOR -0.2472
-2.4225 IS -0.2456
-2.6656 IT -0.2472
-3.2676 J -0.2472
-3.2676 JOKE -0.2472
-3.2676 K -0.2472
-3.2676 L -0.2472
-3.2676 LANGUAGE -0.2472
-3.2676 LAUNCHER -0.2472
-2.9666 LEFT -0.2464
-2.7905 LINE -0.2472
-3.2676 LINK -0.3008
-3.2676 LOGIN -0.2472
-3.2676 M -0.2472
-2.9666 MACHINE -0.2458
-3.2676 MAP -0.2472
-3.2676 MASTER -0.3006
-3.2676 MAXIMIZE -0.2996
-3.2676 ME -0.3003
-3.2676 MENU -0.2472
-2.9666 MESSENGER -0.2472
-3.2676 MICROPHONE -0.2472
-3.2676 MIDDLE -0.3003
-3.2676 MINIMIZE -0.2996
-3.2676 MINUTES -0.2472
-2.3134 MOVE -0.2977
-3.2676 MUCH -0.3008
-2.5687 MUSIC -0.2472
-2.9666 MUTE -0.3003
-3.2676 MY -0.3008
-3.2676 N -0.2472
-2.9666 NETWORK -0.3003
-2.6656 NEW -0.2925
-2.6656 NEWS -0.2472
-2.9666 NEXT -0.2954
-3.2676 O -0.2472
-2.3134 OF -0.2949
-3.2676 OLD -0.3008
-3.2676 ONE -0.2472
-1.9059 OPEN -0.2838
-3.2676 OTHER -0.3008
-3.2676 OUT -0.2472
-3.2676 P -0.2472
-2.2676 PAGE -0.2424
-2.9666 PASSWORD -0.2472
-2.9666 PASTE -0.2472
-3.2676 PATHWAY -0.2472
-3.2676 PAUSE -0.2999
-3.2676 PEE -0.3006
-3.2676 PING -0.3008
-2.7905 PLAY -0.2458
-1.6144 PRESS -0.2811
-2.9666 PREVIOUS -0.2954
-3.2676 PRINT -0.3008
-3.2676 PROGRAM -0.2472
-3.2676 Q -0.2472
-2.6656 QUIT -0.2984
-3.2676 R -0.2472
-3.2676 RAW -0.3006
-2.5687 READ -0.2999
-3.2676 REDO -0.2472
-3.2676 RELOAD -0.2987
-3.2676 RENAME -0.2980
-3.2676 REPLACE -0.2999
-3.2676 RESET -0.3001
-3.2676 RETURN -0.2472
-2.9666 RIGHT -0.2464
-2.9666 RUN -0.3003
-3.2676 S -0.2472
-3.2676 SAVE -0.2980
-2.9666 SCREEN -0.2472
-2.9666 SCROLL -0.2982
-2.9666 SEARCH -0.2996
-2.9666 SELECT -0.3001
-3.2676 SEVEN -0.2472
-2.7905 SHOW -0.2996
-3.2676 SHUFFLE -0.2999
-3.2676 SING -0.3003
-3.2676 SIX -0.2472
-3.2676 SKIP -0.3006
-3.2676 SONG -0.2472
-2.9666 SPEED -0.2464
-2.6656 STATUS -0.2472
-2.6656 STELLA -0.2472
-3.2676 SUBLIME -0.2472
-2.9666 SUSPEND -0.3006
-3.2676 SWITCH -0.2968
-3.2676 SYS -0.2472
-2.7905 SYSTEM -0.2461
-3.2676 T -0.2472
-2.0124 TAB -0.2450
-3.2676 TABS -0.2472
-3.2676 TECHNOLOGY -0.3001
-3.2676 TELL -0.3008
-2.5687 TERMINAL -0.2472
-2.7905 TEST -0.2466
-3.2676 TEXT -0.2472
-2.9666 THE -0.2996
-3.2676 THIRTY -0.3008
-2.9666 THIS -0.2984
-3.2676 THREE -0.2472
-2.9666 THUNDERBIRD -0.2472
-2.5687 TIME -0.2453
-2.3646 TO -0.2930
-2.6656 TOP -0.2448
-2.9666 TRACK -0.2472
-3.2676 TWO -0.2472
-2.7905 TYPE -0.2991
-3.2676 U -0.2472
-2.9666 UNDO -0.2450
-3.2676 UNMUTE -0.3006
-2.4895 UP -0.2472
-3.2676 UPDATE -0.3008
-3.2676 V -0.2472
-3.2676 VIEW -0.2999
-2.9666 VOLUME -0.2982
-3.2676 W -0.2472
-2.6656 WEB -0.2472
-3.2676 WEBLIFE -0.2472
-2.4895 WHAT -0.2977
-2.9666 WHEEL -0.2982
-3.2676 WIFI -0.3008
-2.4895 WINDOW -0.2472
-3.2676 WOOD -0.2472
-3.2676 WORKING -0.3008
-3.2676 WORLD -0.3001
-3.2676 X -0.2472
-3.2676 Y -0.2472
-3.2676 YOU? -0.2472
-3.2676 YOUTUBE -0.2472
-3.2676 Z -0.2472
-3.2676 ZILLA -0.2472
-2.9666 ZOOM -0.2996

\2-grams:
-2.6355 <s> BACK -0.1761
-2.1584 <s> BEGINNING 0.0000
-2.6355 <s> BOTTOM -0.1761
-2.3345 <s> BRIGHTNESS 0.0000
-2.6355 <s> BROWSE 0.0000
-2.6355 <s> CHECK 0.0000
-2.6355 <s> CLEAR 0.0000
-1.7904 <s> CLOSE 0.0000
-2.6355 <s> DAY 0.0000
-2.6355 <s> DOWNLOAD 0.0000
-2.1584 <s> END -0.1461
-2.6355 <s> ENTER -0.1761
-2.6355 <s> EXIT 0.0000
-2.6355 <s> EYE 0.0000
-2.6355 <s> FIND 0.0000
-2.6355 <s> FULL 0.0000
-2.6355 <s> GOOD 0.0000
-1.3567 <s> GOTO -0.0000
-2.6355 <s> HELLO 0.0000
-2.3345 <s> HOW 0.0000
-2.6355 <s> LEFT -0.1761
-2.6355 <s> MAXIMIZE 0.0000
-2.6355 <s> MIDDLE 0.0000
-2.6355 <s> MINIMIZE 0.0000
-1.6812 <s> MOVE 0.0000
-2.3345 <s> MUTE 0.0000
-2.1584 <s> NEW 0.0000
-2.3345 <s> NEXT 0.0000
-1.2738 <s> OPEN -0.0000
-2.0334 <s> PAGE -0.2041
-2.6355 <s> PAUSE 0.0000
-2.6355 <s> PING 0.0000
-2.6355 <s> PLAY -0.2218
-0.9823 <s> PRESS 0.0000
-2.3345 <s> PREVIOUS 0.0000
-2.6355 <s> PRINT 0.0000
-2.0334 <s> QUIT 0.0000
-2.6355 <s> RAW 0.0000
-1.9365 <s> READ 0.0000
-2.6355 <s> RELOAD 0.0000
-2.6355 <s> RENAME 0.0000
-2.6355 <s> REPLACE 0.0000
-2.6355 <s> RESET 0.0000
-2.6355 <s> RIGHT -0.1761
-2.3345 <s> RUN 0.0000
-2.6355 <s> SAVE 0.0000
-2.3345 <s> SCROLL 0.0000
-2.3345 <s> SEARCH 0.0000
-2.3345 <s> SELECT 0.0000
-2.1584 <s> SHOW 0.0000
-2.6355 <s> SHUFFLE 0.0000
-2.6355 <s> SING 0.0000
-2.6355 <s> SKIP 0.0000
-2.3345 <s> SUSPEND 0.0000
-2.6355 <s> SWITCH 0.0000
-2.6355 <s> SYSTEM -0.2218
-1.7324 <s> TAB -0.1919
-2.6355 <s> TELL 0.0000
-2.3345 <s> TEST -0.1249
-2.6355 <s> TIME -0.1461
-2.3345 <s> TOP -0.1761
-2.1584 <s> TYPE 0.0000
-2.6355 <s> UNDO -0.1761
-2.6355 <s> UNMUTE 0.0000
-2.6355 <s> UPDATE 0.0000
-2.6355 <s> VIEW 0.0000
-2.3345 <s> VOLUME 0.0000
-1.8573 <s> WHAT 0.0000
-2.3345 <s> WHEEL 0.0000
-2.6355 <s> WIFI 0.0000
-2.3345 <s> ZOOM 0.0000
-0.7782 A </s> -0.3010
-0.7782 A JOKE 0.0000
-0.7782 A SONG 0.0000
-0.3010 ADDRESS </s> -0.3010
-0.3010 ALL </s> -0.3010
-0.3010 APP </s> -0.3010
-0.3010 ARE YOU? 0.0000
-0.3010 AUDIO </s> -0.3010
-0.3010 B </s> -0.3010
-0.6021 BACK </s> -0.3010
-0.6021 BACK FLIP 0.0000
-0.3010 BACKSPACE </s> -0.3010
-0.3010 BASH </s> -0.3010
-0.3010 BEGINNING OF 0.0000
-0.3010 BOOKMARKS </s> -0.3010
-0.6021 BOTTOM </s> -0.3010
-0.6021 BOTTOM OF -0.1919
-0.3010 BREAK </s> -0.3010
-0.6021 BRIGHTNESS DOWN 0.0000
-0.6021 BRIGHTNESS UP 0.0000
-0.3010 BROWSE FILES 0.0000
-0.3010 BROWSER </s> -0.3010
-0.3010 BYE STELLA 0.0000
-0.3010 C </s> -0.3010
-0.3010 CANCEL </s> -0.3010
-0.3010 CHAT </s> -0.3010
-0.3010 CHECK EMAIL -0.0792
-0.3010 CLEAR SCREEN 0.0000
-0.3010 CLICK </s> -0.3010
-1.2041 CLOSE EMAIL -0.0792
-1.2041 CLOSE FIREFOX 0.0000
-1.2041 CLOSE OTHER 0.0000
-1.2041 CLOSE STATUS 0.0000
-0.9031 CLOSE TAB -0.1597
-1.2041 CLOSE TERMINAL 0.0000
-1.2041 CLOSE WINDOW 0.0000
-0.3010 CLOSED TAB -0.1597
-0.6021 COMMANDS </s> -0.3010
-0.6021 COMMANDS FILE -0.0322
-0.3010 CONNECTION </s> -0.3010
-0.3010 COPY </s> -0.3010
-0.3010 CUT </s> -0.3010
-0.3010 DATE </s> -0.3010
-0.3010 DAY IS -0.1549
-0.3010 DEE </s> -0.3010
-0.3010 DELETE </s> -0.3010
-0.3010 DESKTOP </s> -0.3010
-0.3010 DIAGNOSTICS </s> -0.3010
-0.3010 DIRECTORY </s> -0.3010
-0.3010 DOWN </s> -0.3010
-0.3010 DOWNLOAD TRACK 0.0000
-0.3010 EDIT </s> -0.3010
-0.3010 EEE </s> -0.3010
-0.3010 EIGHT </s> -0.3010
-0.3979 EMAIL </s> -0.3010
-1.0000 EMAIL ADDRESS 0.0000
-0.6990 END </s> -0.3010
-0.5229 END OF 0.0000
-0.6021 ENTER </s> -0.3010
-0.6021 ENTER LOGIN 0.0000
-0.3010 ESCAPE </s> -0.3010
-0.3010 EXIT TERMINAL 0.0000
-0.3010 EYE PEE 0.0000
-0.3010 F </s> -0.3010
-0.3358 FILE </s> -0.3010
-1.4150 FILE ZILLA 0.0000
-0.3010 FILES </s> -0.3010
-0.3010 FILEZILLA </s> -0.3010
-0.3010 FIND IN -0.2041
-0.3010 FIREFOX </s> -0.3010
-0.3010 FIVE </s> -0.3010
-0.3010 FLIP </s> -0.3010
-0.3010 FOUR </s> -0.3010
-0.3010 FULL SCREEN 0.0000
-0.3010 FUTURE NEWS 0.0000
-0.3010 G </s> -0.3010
-0.3010 GIMP </s> -0.3010
-0.3010 GOOD BYE 0.0000
-1.5798 GOTO BASH 0.0000
-1.5798 GOTO BOTTOM -0.1761
-1.5798 GOTO BROWSER 0.0000
-1.5798 GOTO CHAT 0.0000
-1.5798 GOTO EDIT 0.0000
-1.5798 GOTO EMAIL -0.0792
-1.5798 GOTO END -0.2041
-1.2788 GOTO FILE 0.0000
-1.5798 GOTO FIREFOX 0.0000
-1.5798 GOTO GRAPHICS 0.0000
-1.5798 GOTO MESSENGER 0.0000
-1.5798 GOTO MUSIC 0.0000
-1.5798 GOTO PLAY -0.1249
-1.5798 GOTO SYS 0.0000
-1.5798 GOTO SYSTEM -0.1249
-1.5798 GOTO TERMINAL 0.0000
-1.5798 GOTO TOP -0.1761
-1.5798 GOTO WEB 0.0000
-0.3010 GRAPHICS </s> -0.3010
-0.3010 H </s> -0.3010
-0.3010 HACKER NEWS 0.0000
-0.3010 HELLO STELLA 0.0000
-0.3010 HOME </s> -0.3010
-0.6021 HOW MUCH 0.0000
-0.6021 HOW OLD 0.0000
-0.3010 I </s> -0.3010
-1.0000 IN </s> -0.3010
-1.0000 IN BROWSER 0.0000
-0.6990 IN FILE -0.0322
-1.0000 IN THIRTY 0.0000
-0.3010 INSPECTOR </s> -0.3010
-1.1461 IS </s> -0.3010
-0.5441 IS IT 0.0000
-0.8451 IS THE 0.0000
-0.3010 IT </s> -0.3010
-0.3010 J </s> -0.3010
-0.3010 JOKE </s> -0.3010
-0.3010 K </s> -0.3010
-0.3010 L </s> -0.3010
-0.3010 LANGUAGE </s> -0.3010
-0.3010 LAUNCHER </s> -0.3010
-0.6021 LEFT </s> -0.3010
-0.6021 LEFT CLICK 0.0000
-0.3010 LINE </s> -0.3010
-0.3010 LINK MAP 0.0000
-0.3010 LOGIN </s> -0.3010
-0.3010 M </s> -0.3010
-0.6021 MACHINE </s> -0.3010
-0.6021 MACHINE IN -0.2553
-0.3010 MAP </s> -0.3010
-0.3010 MASTER PASSWORD 0.0000
-0.3010 MAXIMIZE WINDOW 0.0000
-0.3010 ME A -0.2218
-0.3010 MENU </s> -0.3010
-0.3010 MESSENGER </s> -0.3010
-0.3010 MICROPHONE </s> -0.3010
-0.3010 MIDDLE CLICK 0.0000
-0.3010 MINIMIZE WINDOW 0.0000
-0.3010 MINUTES </s> -0.3010
-0.3522 MOVE TO 0.0000
-1.2553 MOVE WINDOW 0.0000
-0.3010 MUCH WOOD 0.0000
-0.3010 MUSIC </s> -0.3010
-0.6021 MUTE AUDIO 0.0000
-0.6021 MUTE MICROPHONE 0.0000
-0.3010 MY PATHWAY 0.0000
-0.3010 N </s> -0.3010
-0.6021 NETWORK CONNECTION 0.0000
-0.6021 NETWORK SPEED -0.1761
-0.9031 NEW FILE -0.0322
-0.6021 NEW TAB -0.1597
-0.9031 NEW TERMINAL 0.0000
-0.3010 NEWS </s> -0.3010
-0.6021 NEXT TAB -0.1597
-0.6021 NEXT WINDOW 0.0000
-0.3010 O </s> -0.3010
-0.7782 OF FILE -0.0322
-0.9542 OF LINE 0.0000
-0.6532 OF PAGE -0.1461
-0.3010 OLD ARE 0.0000
-0.3010 ONE </s> -0.3010
-1.6628 OPEN APP 0.0000
-1.6628 OPEN BOOKMARKS 0.0000
-1.6628 OPEN BROWSER 0.0000
-1.6628 OPEN CLOSED 0.0000
-1.3617 OPEN COMMANDS 0.0000
-1.6628 OPEN EMAIL -0.0792
-1.6628 OPEN FILE -0.0322
-1.6628 OPEN FILEZILLA 0.0000
-1.6628 OPEN FIREFOX 0.0000
-1.6628 OPEN GIMP 0.0000
-1.6628 OPEN HACKER 0.0000
-1.6628 OPEN INSPECTOR 0.0000
-1.6628 OPEN LAUNCHER 0.0000
-1.6628 OPEN MESSENGER 0.0000
-1.6628 OPEN MY 0.0000
-1.6628 OPEN NEW -0.1761
-1.6628 OPEN SUBLIME 0.0000
-1.6628 OPEN TAB -0.1597
-1.6628 OPEN TERMINAL 0.0000
-1.6628 OPEN THUNDERBIRD 0.0000
-1.6628 OPEN WEB 0.0000
-1.6628 OPEN YOUTUBE 0.0000
-0.3010 OTHER TABS 0.0000
-0.3010 OUT </s> -0.3010
-0.3010 P </s> -0.3010
-0.5229 PAGE </s> -0.3010
-1.3010 PAGE BACK -0.1761
-1.3010 PAGE DOWN 0.0000
-1.3010 PAGE TOP -0.1761
-1.3010 PAGE UP 0.0000
-0.3010 PASSWORD </s> -0.3010
-0.3010 PASTE </s> -0.3010
-0.3010 PATHWAY </s> -0.3010
-0.3010 PAUSE MUSIC 0.0000
-0.3010 PEE ADDRESS 0.0000
-0.3010 PING WEBLIFE 0.0000
-0.4771 PLAY </s> -0.3010
-0.7782 PLAY MUSIC 0.0000
-1.9542 PRESS A -0.2218
-1.9542 PRESS B 0.0000
-1.9542 PRESS BACKSPACE 0.0000
-1.9542 PRESS BREAK 0.0000
-1.9542 PRESS C 0.0000
-1.9542 PRESS CANCEL 0.0000
-1.9542 PRESS COPY 0.0000
-1.9542 PRESS CUT 0.0000
-1.9542 PRESS DEE 0.0000
-1.9542 PRESS DELETE 0.0000
-1.9542 PRESS DOWN 0.0000
-1.9542 PRESS EEE 0.0000
-1.9542 PRESS END -0.2041
-1.9542 PRESS ENTER -0.1761
-1.9542 PRESS ESCAPE 0.0000
-1.9542 PRESS F 0.0000
-1.9542 PRESS G 0.0000
-1.9542 PRESS H 0.0000
-1.9542 PRESS HOME 0.0000
-1.9542 PRESS I 0.0000
-1.9542 PRESS J 0.0000
-1.9542 PRESS K 0.0000
-1.9542 PRESS L 0.0000
-1.9542 PRESS LEFT -0.1761
-1.9542 PRESS M 0.0000
-1.9542 PRESS N 0.0000
-1.9542 PRESS O 0.0000
-1.9542 PRESS P 0.0000
-1.9542 PRESS PASTE 0.0000
-1.9542 PRESS Q 0.0000
-1.9542 PRESS R 0.0000
-1.9542 PRESS REDO 0.0000
-1.9542 PRESS RETURN 0.0000
-1.9542 PRESS RIGHT -0.1761
-1.9542 PRESS S 0.0000
-1.9542 PRESS T 0.0000
-1.9542 PRESS TAB -0.1597
-1.9542 PRESS U 0.0000
-1.9542 PRESS UNDO -0.1761
-1.9542 PRESS UP 0.0000
-1.9542 PRESS V 0.0000
-1.9542 PRESS W 0.0000
-1.9542 PRESS X 0.0000
-1.9542 PRESS Y 0.0000
-1.9542 PRESS Z 0.0000
-0.6021 PREVIOUS TAB -0.1597
-0.6021 PREVIOUS WINDOW 0.0000
-0.3010 PRINT WORKING 0.0000
-0.3010 PROGRAM </s> -0.3010
-0.3010 Q </s> -0.3010
-0.9031 QUIT PROGRAM 0.0000
-0.9031 QUIT STATUS 0.0000
-0.9031 QUIT STELLA 0.0000
-0.9031 QUIT THUNDERBIRD 0.0000
-0.3010 R </s> -0.3010
-0.3010 RAW PASTE 0.0000
-1.0000 READ FUTURE 0.0000
-1.0000 READ TECHNOLOGY 0.0000
-0.6990 READ THIS 0.0000
-1.0000 READ WORLD 0.0000
-0.3010 REDO </s> -0.3010
-0.3010 RELOAD PAGE -0.1461
-0.3010 RENAME FILE -0.0322
-0.3010 REPLACE IN -0.2041
-0.3010 RESET STELLA 0.0000
-0.3010 RETURN </s> -0.3010
-0.6021 RIGHT </s> -0.3010
-0.6021 RIGHT CLICK 0.0000
-0.6021 RUN DIAGNOSTICS 0.0000
-0.6021 RUN SPEED -0.1761
-0.3010 S </s> -0.3010
-0.3010 SAVE FILE -0.0322
-0.3010 SCREEN </s> -0.3010
-0.6021 SCROLL DOWN 0.0000
-0.6021 SCROLL UP 0.0000
-0.6021 SEARCH FILES 0.0000
-0.6021 SEARCH WEB 0.0000
-0.6021 SELECT ALL 0.0000
-0.6021 SELECT LINE 0.0000
-0.3010 SEVEN </s> -0.3010
-0.7782 SHOW DESKTOP 0.0000
-0.7782 SHOW LINK 0.0000
-0.7782 SHOW STATUS 0.0000
-0.3010 SHUFFLE MUSIC 0.0000
-0.3010 SING A -0.2218
-0.3010 SIX </s> -0.3010
-0.3010 SKIP TRACK 0.0000
-0.3010 SONG </s> -0.3010
-0.6021 SPEED </s> -0.3010
-0.6021 SPEED TEST -0.2218
-0.3010 STATUS </s> -0.3010
-0.3010 STELLA </s> -0.3010
-0.3010 SUBLIME </s> -0.3010
-0.3010 SUSPEND MACHINE 0.0000
-0.3010 SWITCH TAB -0.1597
-0.3010 SYS </s> -0.3010
-0.4771 SYSTEM </s> -0.3010
-0.7782 SYSTEM STATUS 0.0000
-0.3010 T </s> -0.3010
-0.5563 TAB </s> -0.3010
-1.5563 TAB EIGHT 0.0000
-1.5563 TAB FIVE 0.0000
-1.5563 TAB FOUR 0.0000
-1.5563 TAB ONE 0.0000
-1.5563 TAB SEVEN 0.0000
-1.5563 TAB SIX 0.0000
-1.5563 TAB THREE 0.0000
-1.5563 TAB TWO 0.0000
-0.3010 TABS </s> -0.3010
-0.3010 TECHNOLOGY NEWS 0.0000
-0.3010 TELL ME 0.0000
-0.3010 TERMINAL </s> -0.3010
-0.7782 TEST </s> -0.3010
-0.4771 TEST NETWORK 0.0000
-0.3010 TEXT </s> -0.3010
-0.6021 THE DATE 0.0000
-0.6021 THE TIME -0.2041
-0.3010 THIRTY MINUTES 0.0000
-0.6021 THIS PAGE -0.1461
-0.6021 THIS TEXT 0.0000
-0.3010 THREE </s> -0.3010
-0.3010 THUNDERBIRD </s> -0.3010
-0.6990 TIME </s> -0.3010
-0.5229 TIME IS -0.1091
-1.2041 TO CHAT 0.0000
-1.2041 TO EDIT 0.0000
-1.2041 TO FILE -0.0322
-1.2041 TO GRAPHICS 0.0000
-1.2041 TO MUSIC 0.0000
-1.2041 TO PLAY -0.1249
-1.2041 TO SYSTEM -0.1249
-1.2041 TO WEB 0.0000
-0.6021 TOP </s> -0.3010
-0.6021 TOP OF -0.0872
-0.3010 TRACK </s> -0.3010
-0.3010 TWO </s> -0.3010
-0.7782 TYPE EMAIL -0.2553
-0.7782 TYPE MASTER 0.0000
-0.7782 TYPE PASSWORD 0.0000
-0.3010 U </s> -0.3010
-0.6021 UNDO </s> -0.3010
-0.6021 UNDO CLOSE -0.2430
-0.3010 UNMUTE AUDIO 0.0000
-0.3010 UP </s> -0.3010
-0.3010 UPDATE LANGUAGE 0.0000
-0.3010 V </s> -0.3010
-0.3010 VIEW IN -0.2553
-0.6021 VOLUME DOWN 0.0000
-0.6021 VOLUME UP 0.0000
-0.3010 W </s> -0.3010
-0.3010 WEB </s> -0.3010
-0.3010 WEBLIFE </s> -0.3010
-1.0792 WHAT DAY 0.0000
-0.7782 WHAT IS -0.2341
-0.6021 WHAT TIME 0.0000
-0.6021 WHEEL DOWN 0.0000
-0.6021 WHEEL UP 0.0000
-0.3010 WIFI MENU 0.0000
-0.3010 WINDOW </s> -0.3010
-0.3010 WOOD </s> -0.3010
-0.3010 WORKING DIRECTORY 0.0000
-0.3010 WORLD NEWS 0.0000
-0.3010 X </s> -0.3010
-0.3010 Y </s> -0.3010
-0.3010 YOU? </s> -0.3010
-0.3010 YOUTUBE </s> -0.3010
-0.3010 Z </s> -0.3010
-0.3010 ZILLA </s> -0.3010
-0.6021 ZOOM IN -0.2553
-0.6021 ZOOM OUT 0.0000

\3-grams:
-0.3010 <s> BACK FLIP
-0.3010 <s> BEGINNING OF
-0.3010 <s> BOTTOM OF
-0.6021 <s> BRIGHTNESS DOWN
-0.6021 <s> BRIGHTNESS UP
-0.3010 <s> BROWSE FILES
-0.3010 <s> CHECK EMAIL
-0.3010 <s> CLEAR SCREEN
-1.1461 <s> CLOSE EMAIL
-1.1461 <s> CLOSE FIREFOX
-1.1461 <s> CLOSE OTHER
-1.1461 <s> CLOSE STATUS
-1.1461 <s> CLOSE TAB
-1.1461 <s> CLOSE TERMINAL
-1.1461 <s> CLOSE WINDOW
-0.3010 <s> DAY IS
-0.3010 <s> DOWNLOAD TRACK
-0.3010 <s> END OF
-0.3010 <s> ENTER LOGIN
-0.3010 <s> EXIT TERMINAL
-0.3010 <s> EYE PEE
-0.3010 <s> FIND IN
-0.3010 <s> FULL SCREEN
-0.3010 <s> GOOD BYE
-1.5798 <s> GOTO BASH
-1.5798 <s> GOTO BOTTOM
-1.5798 <s> GOTO BROWSER
-1.5798 <s> GOTO CHAT
-1.5798 <s> GOTO EDIT
-1.5798 <s> GOTO EMAIL
-1.5798 <s> GOTO END
-1.2788 <s> GOTO FILE
-1.5798 <s> GOTO FIREFOX
-1.5798 <s> GOTO GRAPHICS
-1.5798 <s> GOTO MESSENGER
-1.5798 <s> GOTO MUSIC
-1.5798 <s> GOTO PLAY
-1.5798 <s> GOTO SYS
-1.5798 <s> GOTO SYSTEM
-1.5798 <s> GOTO TERMINAL
-1.5798 <s> GOTO TOP
-1.5798 <s> GOTO WEB
-0.3010 <s> HELLO STELLA
-0.6021 <s> HOW MUCH
-0.6021 <s> HOW OLD
-0.3010 <s> LEFT CLICK
-0.3010 <s> MAXIMIZE WINDOW
-0.3010 <s> MIDDLE CLICK
-0.3010 <s> MINIMIZE WINDOW
-0.3522 <s> MOVE TO
-1.2553 <s> MOVE WINDOW
-0.6021 <s> MUTE AUDIO
-0.6021 <s> MUTE MICROPHONE
-0.7782 <s> NEW FILE
-0.7782 <s> NEW TAB
-0.7782 <s> NEW TERMINAL
-0.6021 <s> NEXT TAB
-0.6021 <s> NEXT WINDOW
-1.6628 <s> OPEN APP
-1.6628 <s> OPEN BOOKMARKS
-1.6628 <s> OPEN BROWSER
-1.6628 <s> OPEN CLOSED
-1.3617 <s> OPEN COMMANDS
-1.6628 <s> OPEN EMAIL
-1.6628 <s> OPEN FILE
-1.6628 <s> OPEN FILEZILLA
-1.6628 <s> OPEN FIREFOX
-1.6628 <s> OPEN GIMP
-1.6628 <s> OPEN HACKER
-1.6628 <s> OPEN INSPECTOR
-1.6628 <s> OPEN LAUNCHER
-1.6628 <s> OPEN MESSENGER
-1.6628 <s> OPEN MY
-1.6628 <s> OPEN NEW
-1.6628 <s> OPEN SUBLIME
-1.6628 <s> OPEN TAB
-1.6628 <s> OPEN TERMINAL
-1.6628 <s> OPEN THUNDERBIRD
-1.6628 <s> OPEN WEB
-1.6628 <s> OPEN YOUTUBE
-0.9031 <s> PAGE BACK
-0.9031 <s> PAGE DOWN
-0.9031 <s> PAGE TOP
-0.9031 <s> PAGE UP
-0.3010 <s> PAUSE MUSIC
-0.3010 <s> PING WEBLIFE
-0.3010 <s> PLAY MUSIC
-1.9542 <s> PRESS A
-1.9542 <s> PRESS B
-1.9542 <s> PRESS BACKSPACE
-1.9542 <s> PRESS BREAK
-1.9542 <s> PRESS C
-1.9542 <s> PRESS CANCEL
-1.9542 <s> PRESS COPY
-1.9542 <s> PRESS CUT
-1.9542 <s> PRESS DEE
-1.9542 <s> PRESS DELETE
-1.9542 <s> PRESS DOWN
-1.9542 <s> PRESS EEE
-1.9542 <s> PRESS END
-1.9542 <s> PRESS ENTER
-1.9542 <s> PRESS ESCAPE
-1.9542 <s> PRESS F
-1.9542 <s> PRESS G
-1.9542 <s> PRESS H
-1.9542 <s> PRESS HOME
-1.9542 <s> PRESS I
-1.9542 <s> PRESS J
-1.9542 <s> PRESS K
-1.9542 <s> PRESS L
-1.9542 <s> PRESS LEFT
-1.9542 <s> PRESS M
-1.9542 <s> PRESS N
-1.9542 <s> PRESS O
-1.9542 <s> PRESS P
-1.9542 <s> PRESS PASTE
-1.9542 <s> PRESS Q
-1.9542 <s> PRESS R
-1.9542 <s> PRESS REDO
-1.9542 <s> PRESS RETURN
-1.9542 <s> PRESS RIGHT
-1.9542 <s> PRESS S
-1.9542 <s> PRESS T
-1.9542 <s> PRESS TAB
-1.9542 <s> PRESS U
-1.9542 <s> PRESS UNDO
-1.9542 <s> PRESS UP
-1.9542 <s> PRESS V
-1.9542 <s> PRESS W
-1.9542 <s> PRESS X
-1.9542 <s> PRESS Y
-1.9542 <s> PRESS Z
-0.6021 <s> PREVIOUS TAB
-0.6021 <s> PREVIOUS WINDOW
-0.3010 <s> PRINT WORKING
-0.9031 <s> QUIT PROGRAM
-0.9031 <s> QUIT STATUS
-0.9031 <s> QUIT STELLA
-0.9031 <s> QUIT THUNDERBIRD
-0.3010 <s> RAW PASTE
-1.0000 <s> READ FUTURE
-1.0000 <s> READ TECHNOLOGY
-0.6990 <s> READ THIS
-1.0000 <s> READ WORLD
-0.3010 <s> RELOAD PAGE
-0.3010 <s> RENAME FILE
-0.3010 <s> REPLACE IN
-0.3010 <s> RESET STELLA
-0.3010 <s> RIGHT CLICK
-0.6021 <s> RUN DIAGNOSTICS
-0.6021 <s> RUN SPEED
-0.3010 <s> SAVE FILE
-0.6021 <s> SCROLL DOWN
-0.6021 <s> SCROLL UP
-0.6021 <s> SEARCH FILES
-0.6021 <s> SEARCH WEB
-0.6021 <s> SELECT ALL
-0.6021 <s> SELECT LINE
-0.7782 <s> SHOW DESKTOP
-0.7782 <s> SHOW LINK
-0.7782 <s> SHOW STATUS
-0.3010 <s> SHUFFLE MUSIC
-0.3010 <s> SING A
-0.3010 <s> SKIP TRACK
-0.3010 <s> SUSPEND MACHINE
-0.3010 <s> SWITCH TAB
-0.3010 <s> SYSTEM STATUS
-1.2041 <s> TAB EIGHT
-1.2041 <s> TAB FIVE
-1.2041 <s> TAB FOUR
-1.2041 <s> TAB ONE
-1.2041 <s> TAB SEVEN
-1.2041 <s> TAB SIX
-1.2041 <s> TAB THREE
-1.2041 <s> TAB TWO
-0.3010 <s> TELL ME
-0.3010 <s> TEST NETWORK
-0.3010 <s> TIME IS
-0.3010 <s> TOP OF
-0.7782 <s> TYPE EMAIL
-0.7782 <s> TYPE MASTER
-0.7782 <s> TYPE PASSWORD
-0.3010 <s> UNDO CLOSE
-0.3010 <s> UNMUTE AUDIO
-0.3010 <s> UPDATE LANGUAGE
-0.3010 <s> VIEW IN
-0.6021 <s> VOLUME DOWN
-0.6021 <s> VOLUME UP
-1.0792 <s> WHAT DAY
-0.7782 <s> WHAT IS
-0.6021 <s> WHAT TIME
-0.6021 <s> WHEEL DOWN
-0.6021 <s> WHEEL UP
-0.3010 <s> WIFI MENU
-0.6021 <s> ZOOM IN
-0.6021 <s> ZOOM OUT
-0.3010 A JOKE </s>
-0.3010 A SONG </s>
-0.3010 ARE YOU? </s>
-0.3010 BACK FLIP </s>
-0.7782 BEGINNING OF FILE
-0.7782 BEGINNING OF LINE
-0.7782 BEGINNING OF PAGE
-0.3010 BOTTOM OF PAGE
-0.3010 BRIGHTNESS DOWN </s>
-0.3010 BRIGHTNESS UP </s>
-0.3010 BROWSE FILES </s>
-0.3010 BYE STELLA </s>
-0.3010 CHECK EMAIL </s>
-0.3010 CLEAR SCREEN </s>
-0.3010 CLOSE EMAIL </s>
-0.3010 CLOSE FIREFOX </s>
-0.3010 CLOSE OTHER TABS
-0.3010 CLOSE STATUS </s>
-0.3010 CLOSE TAB </s>
-0.3010 CLOSE TERMINAL </s>
-0.3010 CLOSE WINDOW </s>
-0.3010 CLOSED TAB </s>
-0.3010 COMMANDS FILE </s>
-0.3010 DAY IS IT
-0.3010 DOWNLOAD TRACK </s>
-0.3010 EMAIL ADDRESS </s>
-0.7782 END OF FILE
-0.7782 END OF LINE
-0.7782 END OF PAGE
-0.3010 ENTER LOGIN </s>
-0.3010 EXIT TERMINAL </s>
-0.3010 EYE PEE ADDRESS
-0.3010 FILE ZILLA </s>
-0.3010 FIND IN FILE
-0.3010 FULL SCREEN </s>
-0.3010 FUTURE NEWS </s>
-0.3010 GOOD BYE STELLA
-0.3010 GOTO BASH </s>
-0.3010 GOTO BOTTOM </s>
-0.3010 GOTO BROWSER </s>
-0.3010 GOTO CHAT </s>
-0.3010 GOTO EDIT </s>
-0.3010 GOTO EMAIL </s>
-0.3010 GOTO END </s>
-0.6021 GOTO FILE </s>
-0.6021 GOTO FILE ZILLA
-0.3010 GOTO FIREFOX </s>
-0.3010 GOTO GRAPHICS </s>
-0.3010 GOTO MESSENGER </s>
-0.3010 GOTO MUSIC </s>
-0.3010 GOTO PLAY </s>
-0.3010 GOTO SYS </s>
-0.3010 GOTO SYSTEM </s>
-0.3010 GOTO TERMINAL </s>
-0.3010 GOTO TOP </s>
-0.3010 GOTO WEB </s>
-0.3010 HACKER NEWS </s>
-0.3010 HELLO STELLA </s>
-0.3010 HOW MUCH WOOD
-0.3010 HOW OLD ARE
-0.3010 IN BROWSER </s>
-0.3010 IN FILE </s>
-0.3010 IN THIRTY MINUTES
-0.3010 IS IT </s>
-0.6021 IS THE DATE
-0.6021 IS THE TIME
-0.3010 LEFT CLICK </s>
-0.3010 LINK MAP </s>
-0.3010 MACHINE IN THIRTY
-0.3010 MASTER PASSWORD </s>
-0.3010 MAXIMIZE WINDOW </s>
-0.3010 ME A JOKE
-0.3010 MIDDLE CLICK </s>
-0.3010 MINIMIZE WINDOW </s>
-1.2041 MOVE TO CHAT
-1.2041 MOVE TO EDIT
-1.2041 MOVE TO FILE
-1.2041 MOVE TO GRAPHICS
-1.2041 MOVE TO MUSIC
-1.2041 MOVE TO PLAY
-1.2041 MOVE TO SYSTEM
-1.2041 MOVE TO WEB
-0.3010 MOVE WINDOW </s>
-0.3010 MUCH WOOD </s>
-0.3010 MUTE AUDIO </s>
-0.3010 MUTE MICROPHONE </s>
-0.3010 MY PATHWAY </s>
-0.3010 NETWORK CONNECTION </s>
-0.3010 NETWORK SPEED </s>
-0.3010 NEW FILE </s>
-0.3010 NEW TAB </s>
-0.3010 NEW TERMINAL </s>
-0.3010 NEXT TAB </s>
-0.3010 NEXT WINDOW </s>
-0.3010 OF FILE </s>
-0.3010 OF LINE </s>
-0.3010 OF PAGE </s>
-0.3010 OLD ARE YOU?
-0.3010 OPEN APP </s>
-0.3010 OPEN BOOKMARKS </s>
-0.3010 OPEN BROWSER </s>
-0.3010 OPEN CLOSED TAB
-0.6021 OPEN COMMANDS </s>
-0.6021 OPEN COMMANDS FILE
-0.3010 OPEN EMAIL </s>
-0.3010 OPEN FILE </s>
-0.3010 OPEN FILEZILLA </s>
-0.3010 OPEN FIREFOX </s>
-0.3010 OPEN GIMP </s>
-0.3010 OPEN HACKER NEWS
-0.3010 OPEN INSPECTOR </s>
-0.3010 OPEN LAUNCHER </s>
-0.3010 OPEN MESSENGER </s>
-0.3010 OPEN MY PATHWAY
-0.3010 OPEN NEW TAB
-0.3010 OPEN SUBLIME </s>
-0.3010 OPEN TAB </s>
-0.3010 OPEN TERMINAL </s>
-0.3010 OPEN THUNDERBIRD </s>
-0.3010 OPEN WEB </s>
-0.3010 OPEN YOUTUBE </s>
-0.3010 OTHER TABS </s>
-0.3010 PAGE BACK </s>
-0.3010 PAGE DOWN </s>
-0.3010 PAGE TOP </s>
-0.3010 PAGE UP </s>
-0.3010 PAUSE MUSIC </s>
-0.3010 PEE ADDRESS </s>
-0.3010 PING WEBLIFE </s>
-0.3010 PLAY MUSIC </s>
-0.3010 PRESS A </s>
-0.3010 PRESS B </s>
-0.3010 PRESS BACKSPACE </s>
-0.3010 PRESS BREAK </s>
-0.3010 PRESS C </s>
-0.3010 PRESS CANCEL </s>
-0.3010 PRESS COPY </s>
-0.3010 PRESS CUT </s>
-0.3010 PRESS DEE </s>
-0.3010 PRESS DELETE </s>
-0.3010 PRESS DOWN </s>
-0.3010 PRESS EEE </s>
-0.3010 PRESS END </s>
-0.3010 PRESS ENTER </s>
-0.3010 PRESS ESCAPE </s>
-0.3010 PRESS F </s>
-0.3010 PRESS G </s>
-0.3010 PRESS H </s>
-0.3010 PRESS HOME </s>
-0.3010 PRESS I </s>
-0.3010 PRESS J </s>
-0.3010 PRESS K </s>
-0.3010 PRESS L </s>
-0.3010 PRESS LEFT </s>
-0.3010 PRESS M </s>
-0.3010 PRESS N </s>
-0.3010 PRESS O </s>
-0.3010 PRESS P </s>
-0.3010 PRESS PASTE </s>
-0.3010 PRESS Q </s>
-0.3010 PRESS R </s>
-0.3010 PRESS REDO </s>
-0.3010 PRESS RETURN </s>
-0.3010 PRESS RIGHT </s>
-0.3010 PRESS S </s>
-0.3010 PRESS T </s>
-0.3010 PRESS TAB </s>
-0.3010 PRESS U </s>
-0.3010 PRESS UNDO </s>
-0.3010 PRESS UP </s>
-0.3010 PRESS V </s>
-0.3010 PRESS W </s>
-0.3010 PRESS X </s>
-0.3010 PRESS Y </s>
-0.3010 PRESS Z </s>
-0.3010 PREVIOUS TAB </s>
-0.3010 PREVIOUS WINDOW </s>
-0.3010 PRINT WORKING DIRECTORY
-0.3010 QUIT PROGRAM </s>
-0.3010 QUIT STATUS </s>
-0.3010 QUIT STELLA </s>
-0.3010 QUIT THUNDERBIRD </s>
-0.3010 RAW PASTE </s>
-0.3010 READ FUTURE NEWS
-0.3010 READ TECHNOLOGY NEWS
-0.6021 READ THIS PAGE
-0.6021 READ THIS TEXT
-0.3010 READ WORLD NEWS
-0.3010 RELOAD PAGE </s>
-0.3010 RENAME FILE </s>
-0.3010 REPLACE IN FILE
-0.3010 RESET STELLA </s>
-0.3010 RIGHT CLICK </s>
-0.3010 RUN DIAGNOSTICS </s>
-0.3010 RUN SPEED TEST
-0.3010 SAVE FILE </s>
-0.3010 SCROLL DOWN </s>
-0.3010 SCROLL UP </s>
-0.3010 SEARCH FILES </s>
-0.3010 SEARCH WEB </s>
-0.3010 SELECT ALL </s>
-0.3010 SELECT LINE </s>
-0.3010 SHOW DESKTOP </s>
-0.3010 SHOW LINK MAP
-0.3010 SHOW STATUS </s>
-0.3010 SHUFFLE MUSIC </s>
-0.3010 SING A SONG
-0.3010 SKIP TRACK </s>
-0.3010 SPEED TEST </s>
-0.6021 SUSPEND MACHINE </s>
-0.6021 SUSPEND MACHINE IN
-0.3010 SWITCH TAB </s>
-0.3010 SYSTEM STATUS </s>
-0.3010 TAB EIGHT </s>
-0.3010 TAB FIVE </s>
-0.3010 TAB FOUR </s>
-0.3010 TAB ONE </s>
-0.3010 TAB SEVEN </s>
-0.3010 TAB SIX </s>
-0.3010 TAB THREE </s>
-0.3010 TAB TWO </s>
-0.3010 TECHNOLOGY NEWS </s>
-0.3010 TELL ME A
-0.6021 TEST NETWORK CONNECTION
-0.6021 TEST NETWORK SPEED
-0.3010 THE DATE </s>
-0.3010 THE TIME </s>
-0.3010 THIRTY MINUTES </s>
-0.3010 THIS PAGE </s>
-0.3010 THIS TEXT </s>
-0.7782 TIME IS </s>
-0.4771 TIME IS IT
-0.3010 TO CHAT </s>
-0.3010 TO EDIT </s>
-0.3010 TO FILE </s>
-0.3010 TO GRAPHICS </s>
-0.3010 TO MUSIC </s>
-0.3010 TO PLAY </s>
-0.3010 TO SYSTEM </s>
-0.3010 TO WEB </s>
-0.6021 TOP OF FILE
-0.6021 TOP OF PAGE
-0.3010 TYPE EMAIL ADDRESS
-0.3010 TYPE MASTER PASSWORD
-0.3010 TYPE PASSWORD </s>
-0.3010 UNDO CLOSE TAB
-0.3010 UNMUTE AUDIO </s>
-0.3010 UPDATE LANGUAGE </s>
-0.3010 VIEW IN BROWSER
-0.3010 VOLUME DOWN </s>
-0.3010 VOLUME UP </s>
-0.3010 WHAT DAY IS
-0.3010 WHAT IS THE
-0.7782 WHAT TIME </s>
-0.4771 WHAT TIME IS
-0.3010 WHEEL DOWN </s>
-0.3010 WHEEL UP </s>
-0.3010 WIFI MENU </s>
-0.3010 WORKING DIRECTORY </s>
-0.3010 WORLD NEWS </s>
-0.3010 ZOOM IN </s>
-0.3010 ZOOM OUT </s>

\end\
