Language model created by QuickLM on Mon Oct 17 15:35:43 EDT 2016
Copyright (c) 1996-2010 Carnegie Mellon University and Alexander I. Rudnicky

The model is in standard ARPA format, designed by Doug Paul while he was at MITRE.

The code that was used to produce this language model is available in Open Source.
Please visit http://www.speech.cs.cmu.edu/tools/ for more information

The (fixed) discount mass is 0.5. The backoffs are computed using the ratio method.
This model based on a corpus of 508 sentences and 407 words

\data\
ngram 1=407
ngram 2=974
ngram 3=1077

\1-grams:
-0.9706 </s> -0.3010
-0.9706 <s> -0.2082
-2.6765 A -0.3001
-3.0745 ABOUT -0.2915
-3.0745 ABOUT? -0.2519
-3.3755 ABSOLUTELY -0.2516
-3.6765 ACTUALLY -0.3006
-3.6765 AFFIRMATIVE -0.2519
-3.0745 AH -0.2997
-3.6765 ALERT -0.2519
-3.3755 ALL -0.3003
-3.6765 ALLRIGHT -0.2519
-3.6765 ALOT -0.2519
-3.3755 ALRIGHT -0.2519
-3.6765 ALRIGHT... -0.2519
-2.2141 AM -0.2916
-3.3755 AMAZING -0.2516
-3.6765 AMBIENT -0.3008
-3.6765 AND -0.2519
-3.3755 ANGRY -0.2519
-3.6765 ANYTHING -0.2519
-3.6765 ANYTHING? -0.2519
-3.6765 ARCH -0.3009
-1.9361 ARE -0.2787
-3.6765 ARTIFICIAL -0.3009
-3.6765 ASKED -0.3001
-3.3755 ASSIST -0.2519
-2.2786 ASSISTANT -0.2496
-3.6765 AWAY -0.2519
-2.9775 AWESOME -0.2506
-3.3755 BACK -0.2518
-2.8314 BE -0.3000
-3.6765 BED -0.2519
-3.6765 BEER -0.2519
-3.3755 BETTER -0.2519
-3.6765 BILLION -0.3009
-3.6765 BLOCK -0.3008
-3.6765 BROKEN -0.3008
-3.6765 BURPED -0.2519
-3.6765 C -0.2519
-3.3755 CALCULATE -0.3008
-2.9775 CAN -0.2915
-3.6765 CARE -0.3007
-3.3755 CHECK -0.3008
-3.6765 CHILL -0.3008
-3.6765 CLEAR -0.2519
-2.7734 CLOSE -0.2983
-3.1994 COFFEE -0.2519
-3.6765 COME -0.3008
-3.6765 COMMANDS -0.2519
-3.6765 COMP -0.2519
-3.6765 CONFUSED -0.2519
-3.6765 CONFUSED? -0.2519
-3.1994 CONNECTION -0.2519
-3.6765 CONTROL -0.3009
-3.1994 COOL -0.2519
-3.6765 CORPORATION -0.2519
-3.6765 COULD -0.3004
-3.6765 CRAZY -0.2519
-3.6765 CREEPY -0.2519
-3.6765 DADDY? -0.2519
-3.6765 DAMMIT -0.2519
-3.3755 DAMN -0.2509
-3.1994 DAY -0.2985
-3.3755 DEVICES -0.2519
-3.1994 DIDN'T -0.3005
-3.6765 DIRTY -0.2519
-2.4724 DO -0.2916
-2.9775 DO? -0.2519
-3.6765 DOCUMENT -0.2519
-3.1994 DOES -0.2993
-2.4461 DOING -0.2955
-3.6765 DOING? -0.2519
-2.8314 DON'T -0.2907
-3.3755 DONE -0.2519
-3.1994 DOWN -0.2519
-3.6765 DRINK -0.2519
-3.1994 DUDE -0.2519
-3.6765 ECHO -0.3009
-3.6765 EIGHT -0.3009
-3.6765 EIGHTEEN -0.3009
-3.6765 EIGHTY -0.3009
-3.6765 ELEVEN -0.3009
-3.6765 EM -0.2519
-3.1994 EMAIL -0.2513
-3.6765 END -0.2519
-3.3755 ENOUGH -0.2516
-3.3755 ENOUGH? -0.2519
-3.6765 ENTER -0.2519
-3.6765 ESCAPE -0.2519
-2.8314 EVERYTHING -0.2493
-3.6765 EXCELLENT -0.2519
-3.6765 FACEBOOK -0.2519
-3.3755 FAIRLY -0.3004
-3.6765 FANTASTIC -0.2519
-3.3755 FAREWELL -0.2493
-3.6765 FARTED -0.2519
-2.8984 FEEL -0.2973
-3.1994 FEEL? -0.2519
-2.8314 FEELING -0.2953
-3.6765 FEELING? -0.2519
-3.6765 FIFTEEN -0.3009
-3.6765 FIFTY -0.3009
-3.6765 FILE -0.2519
-3.6765 FINALLY -0.2519
-2.9775 FINE -0.2519
-3.6765 FIREFOX -0.2519
-3.6765 FIVE -0.3009
-3.6765 FLIP -0.2519
-3.6765 FOOD -0.2519
-3.0745 FOR -0.2996
-3.6765 FORGET -0.3001
-3.6765 FORTY -0.3009
-3.6765 FOUR -0.3009
-3.6765 FOURTEEN -0.3009
-3.6765 FREAK -0.3008
-3.6765 FULL -0.3009
-3.3755 FUNNY -0.2519
-3.6765 GEE -0.3006
-3.6765 GET -0.3000
-3.1994 GETTING -0.3002
-3.1994 GO -0.2986
-3.6765 GOD -0.2519
-2.9775 GOING -0.2487
-3.3755 GOING? -0.2519
-2.2294 GOOD -0.2479
-3.3755 GOODBYE -0.2493
-3.3755 GOODNIGHT -0.2493
-3.6765 GOT -0.3001
-2.6351 GREAT -0.2484
-3.3755 GREETINGS -0.2493
-3.6765 GROOVY -0.2519
-3.3755 HAD -0.3008
-3.6765 HAPPEN -0.3009
-3.6765 HAPPENED? -0.2519
-3.3755 HAPPENING? -0.2519
-3.6765 HAPPY -0.2519
-3.6765 HARDER -0.2519
-3.6765 HATE -0.2916
-3.6765 HAVE -0.2916
-3.6765 HEAR -0.2916
-3.6765 HELL -0.3004
-2.8314 HELLO -0.2467
-3.6765 HELP -0.3008
-3.6765 HELP? -0.2519
-3.6765 HERE -0.2519
-3.3755 HERE? -0.2519
-2.9775 HEY -0.2379
-3.0745 HI -0.2474
-3.6765 HILARIOUS -0.2519
-3.6765 HOME -0.2519
-2.5004 HOW -0.2413
-3.6765 HOW'S -0.3001
-3.6765 HUNDRED -0.3009
-3.6765 HUNGRY -0.2519
-1.9131 I -0.2891
-3.3755 INCREDIBLE -0.2519
-3.6765 INDEED -0.2519
-3.6765 INTELLIGENCE -0.2519
-3.3755 INTERNET -0.3005
-2.2963 IS -0.2457
-3.6765 ISN'T -0.3004
-2.6765 IT -0.2473
-3.3755 IT'S -0.3008
-3.0745 IT? -0.2519
-3.0745 JOB -0.2519
-3.1994 JUST -0.3007
-3.6765 KIND -0.2519
-3.0745 KNOW -0.2509
-3.3755 LATER -0.2519
-3.6765 LEARN -0.2519
-2.8984 LEARNING -0.2984
-3.6765 LEARNING? -0.2519
-3.3755 LET'S -0.2997
-2.3543 LIKE -0.2455
-3.1994 LIKE? -0.2519
-2.9775 LIST -0.2513
-3.1994 LISTEN -0.2493
-3.6765 LOVE -0.2916
-3.6765 M -0.2519
-3.1994 MACHINE -0.2519
-3.6765 MAD -0.2519
-3.6765 MAKE -0.3000
-3.6765 MATRIX -0.2519
-3.6765 MATTER -0.2519
-3.6765 MAXIMIZE -0.3008
-3.3755 MAYBE -0.2517
-2.6351 ME -0.2468
-3.1994 ME? -0.2519
-3.6765 MEAN? -0.2519
-3.6765 MILLION -0.3009
-3.6765 MIND? -0.2519
-3.6765 MINIMIZE -0.3008
-3.6765 MINUTE -0.3009
-3.6765 MODULES -0.2519
-3.1994 MORNING -0.2493
-3.6765 MOST -0.3008
-3.3755 MUCH -0.2518
-3.1994 MUSIC -0.2519
-3.3755 MY -0.3008
-3.3755 NAME? -0.2519
-3.0745 NEED -0.2407
-3.3755 NET -0.3005
-3.1994 NETWORK -0.3003
-3.6765 NEVER -0.2519
-3.6765 NEVERMIND -0.2519
-3.6765 NEW -0.3006
-3.6765 NEXT -0.3006
-3.0745 NICE -0.2510
-3.6765 NICELY -0.3008
-3.6765 NINE -0.3009
-3.6765 NINTEEN -0.3009
-3.6765 NINTY -0.3009
-2.8314 NO -0.2501
-3.1994 NOT -0.2514
-3.6765 NOTE -0.2519
-3.1994 NOTHING -0.2494
-3.6765 NUTS -0.2519
-3.1994 OH -0.2985
-2.7734 OK -0.2488
-3.6765 OK... -0.2519
-3.6765 OLD -0.2960
-3.3755 ON -0.2519
-3.1994 ON? -0.2519
-3.6765 ONE -0.3009
-3.6765 ONLINE? -0.2519
-3.6765 ONLY -0.3009
-2.6351 OPEN -0.2974
-3.6765 OPTIMISTIC -0.2519
-3.6765 OTHER -0.3009
-3.3755 OUT -0.2519
-3.3755 PAGE -0.2999
-3.6765 PILL -0.2519
-3.6765 PING -0.3009
-3.6765 PISSED -0.2519
-3.0745 PLAY -0.2496
-2.8984 PLEASE -0.2483
-3.6765 PLUS -0.2519
-3.6765 POINT -0.2519
-3.6765 POSITIVE -0.2519
-3.0745 PRETTY -0.2978
-3.6765 PREVIOUS -0.3006
-3.6765 PROCESSES -0.2519
-3.3755 PROJECT -0.3008
-3.6765 QUESTION -0.2519
-3.1994 QUIET -0.2519
-2.9775 QUIT -0.2493
-3.6765 RANDOM -0.2519
-3.6765 READ -0.3000
-3.6765 READING -0.2519
-3.6765 READY -0.3007
-3.6765 REAL? -0.2519
-3.6765 REALLY -0.2519
-3.6765 REBOOT -0.3008
-3.3755 RECORD -0.2519
-3.3755 RED -0.3008
-3.3755 REE -0.2519
-3.6765 RESET -0.2519
-3.6765 REWIND -0.2519
-2.7734 RIGHT -0.2491
-3.3755 RIGHTEOUS -0.2519
-2.8984 SAD -0.2519
-3.3755 SAID -0.3004
-3.6765 SANDWICH -0.2519
-3.6765 SAUCE -0.2519
-3.3755 SAVE -0.3008
-2.8984 SAY -0.2993
-3.6765 SAY? -0.2519
-3.6765 SCREEN -0.2519
-3.6765 SCREWED -0.3002
-3.3755 SEARCH -0.2512
-3.1994 SEE -0.2517
-3.6765 SEVEN -0.3009
-3.6765 SEVENTEEN -0.3009
-3.6765 SEVENTY -0.3009
-3.6765 SHIT -0.2519
-3.6765 SHOW -0.3006
-3.1994 SHUT -0.3002
-3.6765 SILENCE -0.2519
-3.1994 SILENT -0.2519
-3.1994 SING -0.2987
-3.6765 SINGING -0.2519
-3.6765 SIX -0.3009
-3.6765 SIXTEEN -0.3009
-3.6765 SIXTY -0.3009
-3.1994 SMART -0.2519
-3.6765 SMARTER -0.2519
-3.0745 SO -0.2513
-3.3755 SOME -0.3007
-3.1994 SOMETHING -0.2518
-3.0745 SONG -0.2519
-3.3755 SORRY -0.2519
-3.6765 SORRY? -0.2519
-3.6765 SOUND -0.2985
-3.6765 SOUNDS -0.2985
-3.0745 SPEAK -0.2519
-3.3755 SPEAK? -0.2519
-3.6765 SPEAKING -0.2519
-3.1994 SPEED -0.2519
-3.3755 START -0.3000
-2.9775 STATUS -0.2519
-3.0745 STELLA -0.2519
-2.8314 STOP -0.2490
-3.3755 STORY -0.2519
-3.3755 STUPID -0.2519
-3.3755 SUCK -0.2519
-3.6765 SUCKS -0.2519
-3.1994 SURE -0.2490
-3.6765 SURE? -0.2519
-3.6765 SUSPEND -0.3008
-3.6765 SWEET -0.2519
-3.6765 SYSTEM -0.3006
-2.9775 TAB -0.2519
-3.6765 TABS -0.2519
-2.5004 TALK -0.2482
-3.1994 TALKING -0.2493
-3.3755 TEACHING -0.2916
-3.3755 TELL -0.3000
-3.6765 TELLING -0.3000
-3.6765 TEN -0.3009
-3.0745 TERMINAL -0.2519
-3.6765 TERRIBLE -0.2519
-2.8984 TEST -0.3004
-3.1994 THANK -0.2413
-2.9775 THANKS -0.2387
-2.8314 THAT -0.2510
-2.7734 THAT'S -0.2976
-2.5973 THE -0.2991
-3.6765 THEN? -0.2519
-3.1994 THERE -0.2519
-3.3755 THERE? -0.2519
-3.0745 THINGS -0.2958
-3.3755 THINGS? -0.2519
-2.9775 THINK -0.2511
-3.1994 THINK? -0.2519
-3.6765 THIRTEEN -0.3009
-3.6765 THIRTY -0.3009
-3.3755 THIS -0.2516
-3.6765 THIS? -0.2519
-3.6765 THOUSAND -0.3009
-3.6765 THREE -0.3009
-3.6765 THUNDERBIRD -0.2519
-3.0745 TIME -0.2494
-3.3755 TIME? -0.2519
-3.6765 TIMER -0.2519
-3.6765 TIMES -0.2519
-2.9775 TIRED -0.2519
-2.2786 TO -0.2865
-3.0745 TODAY? -0.2519
-3.3755 TOPIC -0.2519
-3.6765 TOTALLY -0.2519
-3.1994 TRUE -0.2512
-3.6765 TRY -0.3009
-3.6765 TWELVE -0.3009
-3.6765 TWENTY -0.3009
-3.6765 TWO -0.3009
-3.6765 TYPING -0.2519
-3.6765 TYRELL -0.3009
-3.6765 UNDERSTAND -0.2519
-3.3755 UNDERSTAND? -0.2519
-2.7223 UP -0.2491
-3.6765 UP? -0.2519
-3.6765 UPSET -0.2519
-3.6765 USERNAME -0.2519
-2.7223 VERY -0.2974
-3.3755 VOICE -0.3008
-3.6765 VOID -0.3009
-3.3755 VOLUME -0.2999
-3.6765 WAKE -0.3002
-2.7734 WANT -0.2974
-3.6765 WANT? -0.2519
-3.6765 WAY -0.2519
-3.1994 WE -0.3006
-3.6765 WE? -0.2519
-3.6765 WEATHER -0.3007
-3.3755 WEATHER? -0.2519
-2.8314 WEB -0.2519
-3.6765 WEBLIFE -0.2519
-3.3755 WELCOME -0.2493
-2.8314 WELL -0.2517
-2.1324 WHAT -0.2867
-2.8314 WHAT'S -0.2983
-3.1994 WHAT? -0.2519
-3.0745 WHERE -0.2937
-3.1994 WHO -0.2937
-3.1994 WHY -0.2953
-3.6765 WHY? -0.2519
-3.6765 WIKI -0.2519
-3.1994 WINDOW -0.2519
-3.3755 WITH -0.2907
-3.0745 WONDERFUL -0.2519
-3.6765 WOOD? -0.2519
-2.9775 WORK -0.2519
-3.1994 WORKING -0.2488
-2.9775 WOULD -0.2895
-3.6765 WOW -0.2519
-2.9775 WRONG -0.2493
-3.6765 X -0.2519
-3.6765 YAY -0.2519
-3.6765 YEAH -0.2519
-3.3755 YES -0.2512
-3.6765 YO -0.2987
-1.6679 YOU -0.2221
-2.6765 YOU? -0.2519
-3.1994 YOUR -0.3006
-3.6765 YOUTUBE -0.2519
-3.6765 ZERO -0.3009

\2-grams:
-2.7059 <s> ABSOLUTELY 0.0000
-3.0069 <s> AFFIRMATIVE 0.0000
-2.4048 <s> AH 0.0000
-2.7059 <s> ALL 0.0000
-3.0069 <s> ALLRIGHT 0.0000
-2.7059 <s> AM -0.2700
-2.7059 <s> AMAZING 0.0000
-2.1618 <s> ARE -0.2090
-3.0069 <s> ASSIST 0.0000
-2.4048 <s> ASSISTANT 0.0000
-2.3079 <s> AWESOME 0.0000
-3.0069 <s> BACK -0.1761
-2.7059 <s> BE -0.1091
-3.0069 <s> BROKEN 0.0000
-2.7059 <s> CALCULATE 0.0000
-2.7059 <s> CAN -0.0792
-2.7059 <s> CHECK 0.0000
-3.0069 <s> CHILL 0.0000
-3.0069 <s> CLEAR 0.0000
-2.1038 <s> CLOSE 0.0000
-3.0069 <s> COME 0.0000
-3.0069 <s> CONTROL 0.0000
-3.0069 <s> COOL 0.0000
-3.0069 <s> CRAZY 0.0000
-3.0069 <s> CREEPY 0.0000
-3.0069 <s> DAMN -0.1761
-2.3079 <s> DO 0.0000
-2.2287 <s> DOING 0.0000
-2.7059 <s> DON'T -0.1963
-3.0069 <s> DOWN 0.0000
-3.0069 <s> DUDE 0.0000
-3.0069 <s> ECHO 0.0000
-3.0069 <s> END 0.0000
-2.7059 <s> ENOUGH 0.0000
-3.0069 <s> ENTER 0.0000
-3.0069 <s> ESCAPE 0.0000
-2.2287 <s> EVERYTHING 0.0000
-3.0069 <s> EXCELLENT 0.0000
-2.7059 <s> FAREWELL 0.0000
-3.0069 <s> FEEL -0.2632
-2.3079 <s> FEELING -0.0580
-3.0069 <s> FINALLY 0.0000
-3.0069 <s> FINE 0.0000
-2.7059 <s> FOR -0.1761
-3.0069 <s> FORGET 0.0000
-3.0069 <s> FREAK 0.0000
-3.0069 <s> FULL 0.0000
-3.0069 <s> FUNNY 0.0000
-3.0069 <s> GEE 0.0000
-3.0069 <s> GET 0.0000
-2.5298 <s> GO 0.0000
-3.0069 <s> GOING -0.2553
-2.2287 <s> GOOD -0.0152
-2.7059 <s> GOODBYE 0.0000
-2.7059 <s> GOODNIGHT 0.0000
-2.5298 <s> GREAT -0.0378
-2.7059 <s> GREETINGS 0.0000
-3.0069 <s> GROOVY 0.0000
-3.0069 <s> HAD 0.0000
-3.0069 <s> HAVE 0.0000
-3.0069 <s> HELL 0.0000
-2.1618 <s> HELLO -0.0000
-2.3079 <s> HEY 0.0000
-2.4048 <s> HI 0.0000
-3.0069 <s> HILARIOUS 0.0000
-3.0069 <s> HOME 0.0000
-1.9655 <s> HOW -0.0280
-3.0069 <s> HOW'S 0.0000
-1.2435 <s> I 0.0000
-3.0069 <s> INDEED 0.0000
-3.0069 <s> IS -0.2825
-3.0069 <s> ISN'T 0.0000
-3.0069 <s> IT -0.2788
-2.7059 <s> IT'S 0.0000
-3.0069 <s> LATER 0.0000
-2.7059 <s> LEARNING -0.0669
-2.7059 <s> LET'S 0.0000
-2.4048 <s> LIKE -0.2341
-2.3079 <s> LIST 0.0000
-2.7059 <s> LISTEN 0.0000
-3.0069 <s> MAKE 0.0000
-3.0069 <s> MATRIX 0.0000
-3.0069 <s> MAXIMIZE 0.0000
-2.7059 <s> MAYBE 0.0000
-3.0069 <s> MINIMIZE 0.0000
-2.7059 <s> MORNING 0.0000
-3.0069 <s> MOST 0.0000
-3.0069 <s> NEVER 0.0000
-3.0069 <s> NEVERMIND 0.0000
-3.0069 <s> NEW 0.0000
-3.0069 <s> NEXT 0.0000
-2.5298 <s> NICE 0.0000
-3.0069 <s> NICELY 0.0000
-2.2287 <s> NO 0.0000
-3.0069 <s> NOT -0.2218
-2.5298 <s> NOTHING 0.0000
-2.5298 <s> OH 0.0000
-2.5298 <s> OK 0.0000
-1.9655 <s> OPEN 0.0000
-2.7059 <s> PAGE 0.0000
-3.0069 <s> PING 0.0000
-2.4048 <s> PLAY 0.0000
-2.3079 <s> PLEASE 0.0000
-3.0069 <s> PRETTY -0.0969
-3.0069 <s> PREVIOUS 0.0000
-2.3079 <s> QUIT 0.0000
-3.0069 <s> READ 0.0000
-3.0069 <s> REALLY 0.0000
-3.0069 <s> REBOOT 0.0000
-3.0069 <s> RECORD 0.0000
-2.7059 <s> RED 0.0000
-3.0069 <s> RESET 0.0000
-3.0069 <s> REWIND 0.0000
-2.7059 <s> RIGHT -0.0512
-3.0069 <s> RIGHTEOUS 0.0000
-3.0069 <s> SAD 0.0000
-2.7059 <s> SAVE 0.0000
-2.5298 <s> SAY -0.1761
-2.7059 <s> SEARCH 0.0000
-3.0069 <s> SEE -0.1249
-3.0069 <s> SHOW 0.0000
-2.7059 <s> SHUT 0.0000
-3.0069 <s> SILENCE 0.0000
-3.0069 <s> SILENT 0.0000
-2.5298 <s> SING 0.0000
-3.0069 <s> SO -0.2430
-3.0069 <s> SORRY 0.0000
-3.0069 <s> SOUNDS 0.0000
-2.7059 <s> START 0.0000
-3.0069 <s> STELLA 0.0000
-2.1618 <s> STOP -0.0000
-3.0069 <s> STUPID 0.0000
-2.7059 <s> SURE -0.1249
-3.0069 <s> SUSPEND 0.0000
-3.0069 <s> SYSTEM 0.0000
-2.7059 <s> TALK -0.2553
-2.7059 <s> TELL 0.0000
-3.0069 <s> TERMINAL 0.0000
-3.0069 <s> TERRIBLE 0.0000
-2.2287 <s> TEST 0.0000
-2.7059 <s> THANK 0.0000
-2.5298 <s> THANKS 0.0000
-2.2287 <s> THAT'S -0.0969
-2.4048 <s> THINGS 0.0000
-2.7059 <s> TIME 0.0000
-3.0069 <s> TIRED 0.0000
-3.0069 <s> TOTALLY 0.0000
-2.7059 <s> TRUE 0.0000
-3.0069 <s> TRY 0.0000
-3.0069 <s> TYRELL 0.0000
-3.0069 <s> UP -0.0872
-2.2287 <s> VERY -0.0458
-3.0069 <s> VOICE -0.1761
-3.0069 <s> VOID 0.0000
-2.7059 <s> VOLUME 0.0000
-3.0069 <s> WAKE 0.0000
-3.0069 <s> WANT -0.1761
-3.0069 <s> WELL -0.2688
-1.4754 <s> WHAT -0.0122
-2.1618 <s> WHAT'S -0.0000
-2.4048 <s> WHERE 0.0000
-2.5298 <s> WHO 0.0000
-2.5298 <s> WHY 0.0000
-3.0069 <s> WHY? 0.0000
-3.0069 <s> WONDERFUL 0.0000
-3.0069 <s> WOW 0.0000
-2.7059 <s> WRONG 0.0000
-3.0069 <s> YAY 0.0000
-3.0069 <s> YEAH 0.0000
-2.7059 <s> YES 0.0000
-3.0069 <s> YO 0.0000
-1.2993 <s> YOU -0.1375
-3.0069 <s> YOUR -0.2218
-3.0069 <s> ZERO 0.0000
-1.3010 A BEER 0.0000
-1.3010 A DRINK 0.0000
-1.3010 A MINUTE 0.0000
-1.3010 A SANDWICH 0.0000
-0.6990 A SONG 0.0000
-1.0000 A STORY 0.0000
-0.9031 ABOUT ANYTHING? 0.0000
-0.4260 ABOUT YOU -0.2724
-0.3010 ABOUT? </s> -0.3010
-0.6021 ABSOLUTELY </s> -0.3010
-0.6021 ABSOLUTELY NOT -0.2218
-0.3010 ACTUALLY GOING -0.1461
-0.3010 AFFIRMATIVE </s> -0.3010
-0.9031 AH DAMMIT 0.0000
-0.9031 AH DAMN -0.1761
-0.9031 AH GREAT -0.1047
-0.9031 AH SHIT 0.0000
-0.3010 ALERT </s> -0.3010
-0.3010 ALL RIGHT -0.0512
-0.3010 ALLRIGHT </s> -0.3010
-0.3010 ALOT </s> -0.3010
-0.3010 ALRIGHT </s> -0.3010
-0.3010 ALRIGHT... </s> -0.3010
-1.7634 AM ALRIGHT 0.0000
-1.7634 AM ANGRY 0.0000
-0.9853 AM DOING -0.0706
-1.4624 AM FEELING -0.1963
-1.4624 AM FINE 0.0000
-1.7634 AM GETTING -0.2218
-1.7634 AM GOOD -0.0843
-1.7634 AM HUNGRY 0.0000
-1.7634 AM OK -0.0969
-1.7634 AM ONLY 0.0000
-1.7634 AM PISSED 0.0000
-1.7634 AM READY 0.0000
-1.7634 AM SAD 0.0000
-1.7634 AM SORRY 0.0000
-1.4624 AM TALKING 0.0000
-1.4624 AM TEACHING 0.0000
-1.4624 AM TIRED 0.0000
-1.7634 AM UPSET 0.0000
-1.7634 AM WELL -0.0580
-0.6021 AMAZING </s> -0.3010
-0.6021 AMAZING DUDE 0.0000
-0.3010 AMBIENT MUSIC 0.0000
-0.3010 AND </s> -0.3010
-0.3010 ANGRY </s> -0.3010
-0.3010 ANYTHING </s> -0.3010
-0.3010 ANYTHING? </s> -0.3010
-0.3010 ARCH WIKI 0.0000
-2.0414 ARE ARTIFICIAL 0.0000
-2.0414 ARE BACK -0.1761
-2.0414 ARE CONFUSED 0.0000
-1.4393 ARE DOING -0.1845
-2.0414 ARE FINE 0.0000
-1.7404 ARE GETTING -0.1249
-1.7404 ARE GOOD -0.0843
-2.0414 ARE GREAT -0.1047
-2.0414 ARE HERE 0.0000
-2.0414 ARE INCREDIBLE 0.0000
-2.0414 ARE LEARNING -0.0669
-2.0414 ARE OPTIMISTIC 0.0000
-2.0414 ARE RIGHT -0.0969
-2.0414 ARE SCREWED 0.0000
-2.0414 ARE SMART 0.0000
-2.0414 ARE SO -0.2430
-2.0414 ARE THERE 0.0000
-1.7404 ARE THINGS? 0.0000
-1.7404 ARE VERY -0.1919
-1.5643 ARE WE 0.0000
-2.0414 ARE WE? 0.0000
-1.7404 ARE WELCOME 0.0000
-2.0414 ARE WONDERFUL 0.0000
-1.5643 ARE WORKING 0.0000
-2.0414 ARE WRONG -0.0792
-1.0414 ARE YOU -0.2770
-1.1383 ARE YOU? 0.0000
-0.3010 ARTIFICIAL INTELLIGENCE 0.0000
-0.3010 ASKED YOU? 0.0000
-0.3010 ASSIST </s> -0.3010
-0.3565 ASSISTANT </s> -0.3010
-1.6990 ASSISTANT SHUT 0.0000
-1.6990 ASSISTANT SPEAK 0.0000
-1.6990 ASSISTANT TALK -0.2711
-0.3010 AWAY </s> -0.3010
-1.0000 AWESOME </s> -0.3010
-1.0000 AWESOME DUDE 0.0000
-1.0000 AWESOME JOB 0.0000
-1.0000 AWESOME SAUCE 0.0000
-1.0000 AWESOME WORK 0.0000
-0.6021 BACK </s> -0.3010
-0.6021 BACK FLIP 0.0000
-1.1461 BE BETTER 0.0000
-1.1461 BE LIKE? 0.0000
-0.6690 BE QUIET 0.0000
-0.8451 BE SILENT 0.0000
-0.3010 BED </s> -0.3010
-0.3010 BEER </s> -0.3010
-0.3010 BETTER </s> -0.3010
-0.3010 BILLION MILLION 0.0000
-0.3010 BLOCK DEVICES 0.0000
-0.3010 BROKEN RECORD 0.0000
-0.3010 BURPED </s> -0.3010
-0.3010 C </s> -0.3010
-0.6021 CALCULATE PLUS 0.0000
-0.6021 CALCULATE TIMES 0.0000
-1.0000 CAN HEAR 0.0000
-0.3979 CAN YOU -0.2924
-0.3010 CARE ABOUT? 0.0000
-0.3010 CHECK EMAIL 0.0000
-0.3010 CHILL OUT 0.0000
-0.3010 CLEAR </s> -0.3010
-1.2041 CLOSE EMAIL -0.1249
-1.2041 CLOSE OTHER 0.0000
-1.2041 CLOSE PROJECT -0.1761
-1.2041 CLOSE STATUS 0.0000
-1.2041 CLOSE TAB 0.0000
-1.2041 CLOSE TERMINAL 0.0000
-1.2041 CLOSE WEB 0.0000
-1.2041 CLOSE WINDOW 0.0000
-0.3010 COFFEE </s> -0.3010
-0.3010 COME ON 0.0000
-0.3010 COMMANDS </s> -0.3010
-0.3010 COMP </s> -0.3010
-0.3010 CONFUSED </s> -0.3010
-0.3010 CONFUSED? </s> -0.3010
-0.3010 CONNECTION </s> -0.3010
-0.3010 CONTROL C 0.0000
-0.3010 COOL </s> -0.3010
-0.3010 CORPORATION </s> -0.3010
-0.3010 COULD BE -0.2688
-0.3010 CRAZY </s> -0.3010
-0.3010 CREEPY </s> -0.3010
-0.3010 DADDY? </s> -0.3010
-0.3010 DAMMIT </s> -0.3010
-0.6021 DAMN </s> -0.3010
-0.6021 DAMN IT -0.2041
-0.4771 DAY IS -0.2632
-0.7782 DAY TODAY? 0.0000
-0.3010 DEVICES </s> -0.3010
-0.3010 DIDN'T SAY -0.1761
-0.3010 DIRTY </s> -0.3010
-0.3010 DO YOU -0.2418
-0.3010 DO? </s> -0.3010
-0.3010 DOCUMENT </s> -0.3010
-0.7782 DOES IT -0.2788
-0.7782 DOES THAT -0.2688
-0.7782 DOES THIS -0.1761
-1.2304 DOING FAIRLY 0.0000
-0.8325 DOING GOOD -0.0714
-1.0544 DOING GREAT -0.0726
-1.2304 DOING OK -0.0969
-1.0544 DOING PRETTY 0.0000
-1.2304 DOING WELL -0.0580
-0.3010 DOING? </s> -0.3010
-0.8451 DON'T KNOW -0.0969
-1.1461 DON'T THINK -0.2041
-1.1461 DON'T UNDERSTAND 0.0000
-0.6690 DON'T YOU -0.2586
-0.3010 DONE </s> -0.3010
-0.3010 DOWN </s> -0.3010
-0.3010 DRINK </s> -0.3010
-0.3010 DUDE </s> -0.3010
-0.3010 ECHO USERNAME 0.0000
-0.3010 EIGHT FIVE 0.0000
-0.3010 EIGHTEEN ELEVEN 0.0000
-0.3010 EIGHTY FIFTY 0.0000
-0.3010 ELEVEN FIFTEEN 0.0000
-0.3010 EM </s> -0.3010
-0.4771 EMAIL </s> -0.3010
-0.7782 EMAIL PLEASE -0.2218
-0.3010 END </s> -0.3010
-0.6021 ENOUGH </s> -0.3010
-0.6021 ENOUGH TALKING -0.1249
-0.3010 ENOUGH? </s> -0.3010
-0.3010 ENTER </s> -0.3010
-0.3010 ESCAPE </s> -0.3010
-0.8451 EVERYTHING </s> -0.3010
-0.5441 EVERYTHING IS -0.2632
-1.1461 EVERYTHING SUCKS 0.0000
-0.3010 EXCELLENT </s> -0.3010
-0.3010 FACEBOOK </s> -0.3010
-0.3010 FAIRLY WELL -0.0580
-0.3010 FANTASTIC </s> -0.3010
-0.6021 FAREWELL </s> -0.3010
-0.6021 FAREWELL ASSISTANT -0.0492
-0.3010 FARTED </s> -0.3010
-1.0792 FEEL ANGRY 0.0000
-1.0792 FEEL GOOD -0.0843
-1.0792 FEEL HAPPY 0.0000
-1.0792 FEEL MAD 0.0000
-1.0792 FEEL ME? 0.0000
-1.0792 FEEL SAD 0.0000
-0.3010 FEEL? </s> -0.3010
-1.1461 FEELING GOOD -0.0843
-1.1461 FEELING GREAT -0.1047
-1.1461 FEELING OK -0.0969
-0.8451 FEELING SAD 0.0000
-1.1461 FEELING TIRED 0.0000
-1.1461 FEELING WONDERFUL 0.0000
-0.3010 FEELING? </s> -0.3010
-0.3010 FIFTEEN FOURTEEN 0.0000
-0.3010 FIFTY FORTY 0.0000
-0.3010 FILE </s> -0.3010
-0.3010 FINALLY </s> -0.3010
-0.3010 FINE </s> -0.3010
-0.3010 FIREFOX </s> -0.3010
-0.3010 FIVE FOUR 0.0000
-0.3010 FLIP </s> -0.3010
-0.3010 FOOD </s> -0.3010
-0.9031 FOR BED 0.0000
-0.9031 FOR ME -0.2374
-0.9031 FOR SURE? 0.0000
-0.9031 FOR WHAT? 0.0000
-0.3010 FORGET IT -0.2041
-0.3010 FORTY NINTY 0.0000
-0.3010 FOUR NINE 0.0000
-0.3010 FOURTEEN NINTEEN 0.0000
-0.3010 FREAK OUT 0.0000
-0.3010 FULL SCREEN 0.0000
-0.3010 FUNNY </s> -0.3010
-0.3010 GEE THANKS -0.1461
-0.3010 GET ME -0.1627
-0.7782 GETTING SMART 0.0000
-0.7782 GETTING SMARTER 0.0000
-0.7782 GETTING TIRED 0.0000
-0.7782 GO AWAY 0.0000
-0.4771 GO TO -0.2833
-0.3010 GOD </s> -0.3010
-1.0000 GOING </s> -0.3010
-1.0000 GOING GOOD -0.0843
-0.5229 GOING ON? 0.0000
-0.3010 GOING? </s> -0.3010
-0.4058 GOOD </s> -0.3010
-1.7482 GOOD ASSISTANT -0.0492
-1.7482 GOOD JOB 0.0000
-1.7482 GOOD MORNING -0.1249
-1.7482 GOOD POINT 0.0000
-1.7482 GOOD QUESTION 0.0000
-1.7482 GOOD WORK 0.0000
-0.6021 GOODBYE </s> -0.3010
-0.6021 GOODBYE ASSISTANT -0.0492
-0.6021 GOODNIGHT </s> -0.3010
-0.6021 GOODNIGHT ASSISTANT -0.0492
-0.3010 GOT IT -0.2788
-0.4393 GREAT </s> -0.3010
-1.3424 GREAT ASSISTANT -0.0492
-1.3424 GREAT JOB 0.0000
-1.3424 GREAT WORK 0.0000
-0.6021 GREETINGS </s> -0.3010
-0.6021 GREETINGS ASSISTANT -0.0492
-0.3010 GROOVY </s> -0.3010
-0.3010 HAD ENOUGH? 0.0000
-0.3010 HAPPEN THEN? 0.0000
-0.3010 HAPPENED? </s> -0.3010
-0.3010 HAPPENING? </s> -0.3010
-0.3010 HAPPY </s> -0.3010
-0.3010 HARDER </s> -0.3010
-0.3010 HATE YOU -0.2724
-0.3010 HAVE YOU -0.2989
-0.3010 HEAR YOU -0.2724
-0.3010 HELL NO -0.2341
-1.1461 HELLO </s> -0.3010
-1.1461 HELLO ASSISTANT -0.0492
-0.8451 HELLO HOW -0.1663
-1.1461 HELLO MACHINE 0.0000
-1.1461 HELLO STELLA 0.0000
-1.1461 HELLO THERE 0.0000
-0.3010 HELP ME? 0.0000
-0.3010 HELP? </s> -0.3010
-0.3010 HERE </s> -0.3010
-0.3010 HERE? </s> -0.3010
-1.0000 HEY </s> -0.3010
-1.0000 HEY ASSISTANT -0.0492
-1.0000 HEY STELLA 0.0000
-1.0000 HEY THERE 0.0000
-1.0000 HEY YOU -0.2724
-0.9031 HI </s> -0.3010
-0.9031 HI ASSISTANT -0.0492
-0.9031 HI HOW -0.1663
-0.9031 HI STELLA 0.0000
-0.3010 HILARIOUS </s> -0.3010
-0.3010 HOME </s> -0.3010
-1.4771 HOW </s> -0.3010
-0.5740 HOW ARE -0.2139
-1.4771 HOW DO 0.0000
-1.1761 HOW DOES -0.1249
-1.4771 HOW MUCH -0.1761
-1.4771 HOW OLD 0.0000
-1.4771 HOW TO -0.2041
-0.3010 HOW'S IT -0.2788
-0.3010 HUNDRED BILLION 0.0000
-0.3010 HUNGRY </s> -0.3010
-0.6331 I AM -0.0000
-2.0645 I CAN -0.2553
-1.5873 I DIDN'T 0.0000
-1.7634 I DON'T -0.1963
-1.3655 I FEEL -0.0669
-2.0645 I GOOD -0.0843
-2.0645 I HATE 0.0000
-1.7634 I JUST -0.1249
-2.0645 I LIKE -0.2906
-2.0645 I LOVE 0.0000
-1.4624 I NEED 0.0000
-2.0645 I SEE -0.2218
-2.0645 I THINK -0.2041
-1.2863 I WANT 0.0000
-1.7634 I WOULD -0.2041
-0.3010 INCREDIBLE </s> -0.3010
-0.3010 INDEED </s> -0.3010
-0.3010 INTELLIGENCE </s> -0.3010
-0.6021 INTERNET CONNECTION 0.0000
-0.6021 INTERNET SPEED 0.0000
-1.3802 IS </s> -0.3010
-1.6812 IS ALOT 0.0000
-1.6812 IS FANTASTIC 0.0000
-1.3802 IS GOING -0.0792
-1.6812 IS GREAT -0.1047
-1.6812 IS HAPPENING? 0.0000
-1.6812 IS IT -0.2788
-1.2041 IS IT? 0.0000
-1.3802 IS MY 0.0000
-0.9031 IS THE -0.1249
-1.6812 IS WONDERFUL 0.0000
-1.6812 IS WRONG -0.0792
-1.3802 IS YOUR -0.1249
-0.3010 ISN'T THAT -0.2688
-0.6990 IT </s> -0.3010
-1.3010 IT BE -0.2688
-1.3010 IT FEEL? 0.0000
-1.3010 IT GOING? 0.0000
-1.3010 IT IS -0.2825
-1.3010 IT TODAY? 0.0000
-1.3010 IT WRONG -0.0792
-0.6021 IT'S ALRIGHT... 0.0000
-0.6021 IT'S OK... 0.0000
-0.3010 IT? </s> -0.3010
-0.3010 JOB </s> -0.3010
-0.7782 JUST BURPED 0.0000
-0.7782 JUST FARTED 0.0000
-0.7782 JUST SAID 0.0000
-0.3010 KIND </s> -0.3010
-0.4260 KNOW </s> -0.3010
-0.9031 KNOW IT -0.2041
-0.3010 LATER </s> -0.3010
-0.3010 LEARN </s> -0.3010
-1.0792 LEARNING ABOUT? 0.0000
-0.3802 LEARNING TO -0.1461
-0.3010 LEARNING? </s> -0.3010
-0.3010 LET'S TALK -0.1249
-1.6232 LIKE </s> -0.3010
-1.6232 LIKE EVERYTHING -0.2341
-1.6232 LIKE IT? 0.0000
-1.1461 LIKE LEARNING 0.0000
-1.6232 LIKE LEARNING? 0.0000
-1.6232 LIKE ME? 0.0000
-1.6232 LIKE SEE -0.1249
-1.6232 LIKE THAT -0.1091
-1.6232 LIKE THIS -0.1761
-1.6232 LIKE THIS? 0.0000
-0.7202 LIKE TO -0.1072
-1.6232 LIKE WHAT? 0.0000
-0.3010 LIKE? </s> -0.3010
-1.0000 LIST </s> -0.3010
-1.0000 LIST BLOCK 0.0000
-1.0000 LIST MODULES 0.0000
-1.0000 LIST NETWORK -0.2218
-1.0000 LIST PROCESSES 0.0000
-0.4771 LISTEN </s> -0.3010
-0.7782 LISTEN ASSISTANT -0.0492
-0.3010 LOVE YOU -0.2724
-0.3010 M </s> -0.3010
-0.3010 MACHINE </s> -0.3010
-0.3010 MAD </s> -0.3010
-0.3010 MAKE ME -0.1627
-0.3010 MATRIX </s> -0.3010
-0.3010 MATTER </s> -0.3010
-0.3010 MAXIMIZE WINDOW 0.0000
-0.6021 MAYBE </s> -0.3010
-0.6021 MAYBE LATER 0.0000
-0.8653 ME </s> -0.3010
-0.5643 ME A -0.0792
-1.3424 ME ABOUT -0.0969
-1.3424 ME WHAT -0.2948
-0.3010 ME? </s> -0.3010
-0.3010 MEAN? </s> -0.3010
-0.3010 MILLION THOUSAND 0.0000
-0.3010 MIND? </s> -0.3010
-0.3010 MINIMIZE WINDOW 0.0000
-0.3010 MINUTE TIMER 0.0000
-0.3010 MODULES </s> -0.3010
-0.4771 MORNING </s> -0.3010
-0.7782 MORNING ASSISTANT -0.0492
-0.3010 MOST RIGHTEOUS 0.0000
-0.6021 MUCH </s> -0.3010
-0.6021 MUCH WOOD? 0.0000
-0.3010 MUSIC </s> -0.3010
-0.6021 MY MIND? 0.0000
-0.6021 MY NAME? 0.0000
-0.3010 NAME? </s> -0.3010
-0.9031 NEED </s> -0.3010
-0.9031 NEED COFFEE 0.0000
-0.9031 NEED SOMETHING -0.1249
-0.9031 NEED YOU -0.2724
-0.6021 NET CONNECTION 0.0000
-0.6021 NET SPEED 0.0000
-0.7782 NETWORK CONNECTION 0.0000
-0.7782 NETWORK DEVICES 0.0000
-0.7782 NETWORK SPEED 0.0000
-0.3010 NEVER </s> -0.3010
-0.3010 NEVERMIND </s> -0.3010
-0.3010 NEW TAB 0.0000
-0.3010 NEXT TAB 0.0000
-0.6021 NICE </s> -0.3010
-0.9031 NICE JOB 0.0000
-0.9031 NICE WORK 0.0000
-0.3010 NICELY DONE 0.0000
-0.3010 NINE ONE 0.0000
-0.3010 NINTEEN SEVENTEEN 0.0000
-0.3010 NINTY SEVENTY 0.0000
-0.8451 NO </s> -0.3010
-1.1461 NO THANK -0.1249
-1.1461 NO THANKS -0.1461
-0.8451 NO THAT'S -0.2430
-1.1461 NO WAY 0.0000
-0.7782 NOT </s> -0.3010
-0.7782 NOT MUCH -0.1761
-0.7782 NOT SURE -0.2218
-0.3010 NOTE </s> -0.3010
-0.7782 NOTHING </s> -0.3010
-0.4771 NOTHING IS -0.2326
-0.3010 NUTS </s> -0.3010
-0.7782 OH ASSIST 0.0000
-0.7782 OH ASSISTANT -0.0492
-0.7782 OH GOD 0.0000
-0.4260 OK </s> -0.3010
-1.2041 OK ASSISTANT -0.0492
-1.2041 OK FINE 0.0000
-0.3010 OK... </s> -0.3010
-0.3010 OLD ARE -0.2682
-0.3010 ON </s> -0.3010
-0.3010 ON? </s> -0.3010
-0.3010 ONE SEVEN 0.0000
-0.3010 ONLINE? </s> -0.3010
-0.3010 ONLY TYPING 0.0000
-1.3424 OPEN ARCH 0.0000
-1.3424 OPEN COMMANDS 0.0000
-1.3424 OPEN FACEBOOK 0.0000
-1.3424 OPEN FIREFOX 0.0000
-1.3424 OPEN PROJECT -0.1761
-1.3424 OPEN STATUS 0.0000
-1.3424 OPEN TAB 0.0000
-1.3424 OPEN TERMINAL 0.0000
-1.3424 OPEN THE -0.2430
-1.3424 OPEN WEB 0.0000
-1.3424 OPEN YOUTUBE 0.0000
-0.3010 OPTIMISTIC </s> -0.3010
-0.3010 OTHER TABS 0.0000
-0.3010 OUT </s> -0.3010
-0.6021 PAGE DOWN 0.0000
-0.6021 PAGE UP -0.0872
-0.3010 PILL </s> -0.3010
-0.3010 PING WEBLIFE 0.0000
-0.3010 PISSED </s> -0.3010
-0.9031 PLAY </s> -0.3010
-0.9031 PLAY A -0.2041
-0.9031 PLAY AMBIENT 0.0000
-0.9031 PLAY ME -0.1627
-0.7782 PLEASE </s> -0.3010
-1.0792 PLEASE ASSISTANT -0.0492
-0.7782 PLEASE BE -0.1091
-1.0792 PLEASE LISTEN -0.1249
-0.3010 PLUS </s> -0.3010
-0.3010 POINT </s> -0.3010
-0.3010 POSITIVE </s> -0.3010
-0.4260 PRETTY GOOD -0.0843
-0.9031 PRETTY WELL -0.0580
-0.3010 PREVIOUS TAB 0.0000
-0.3010 PROCESSES </s> -0.3010
-0.6021 PROJECT EM 0.0000
-0.6021 PROJECT M 0.0000
-0.3010 QUESTION </s> -0.3010
-0.3010 QUIET </s> -0.3010
-1.0000 QUIT </s> -0.3010
-1.0000 QUIT STATUS 0.0000
-1.0000 QUIT THE -0.2430
-1.0000 QUIT THUNDERBIRD 0.0000
-1.0000 QUIT WEB 0.0000
-0.3010 RANDOM </s> -0.3010
-0.3010 READ ME -0.1627
-0.3010 READING </s> -0.3010
-0.3010 READY FOR -0.2430
-0.3010 REAL? </s> -0.3010
-0.3010 REALLY </s> -0.3010
-0.3010 REBOOT MACHINE 0.0000
-0.3010 RECORD </s> -0.3010
-0.6021 RED ALERT 0.0000
-0.6021 RED PILL 0.0000
-0.3010 REE </s> -0.3010
-0.3010 RESET </s> -0.3010
-0.3010 REWIND </s> -0.3010
-0.4260 RIGHT </s> -0.3010
-1.2041 RIGHT ASSISTANT -0.0492
-1.2041 RIGHT ON 0.0000
-0.3010 RIGHTEOUS </s> -0.3010
-0.3010 SAD </s> -0.3010
-0.3010 SAID THAT -0.1091
-0.3010 SANDWICH </s> -0.3010
-0.3010 SAUCE </s> -0.3010
-0.6021 SAVE DOCUMENT 0.0000
-0.6021 SAVE FILE 0.0000
-1.0792 SAY ANYTHING 0.0000
-1.0792 SAY SAD 0.0000
-0.7782 SAY SOMETHING 0.0000
-1.0792 SAY THAT -0.1091
-1.0792 SAY TOPIC 0.0000
-0.3010 SAY? </s> -0.3010
-0.3010 SCREEN </s> -0.3010
-0.3010 SCREWED UP -0.0872
-0.6021 SEARCH </s> -0.3010
-0.6021 SEARCH WEB 0.0000
-0.7782 SEE </s> -0.3010
-0.4771 SEE REE 0.0000
-0.3010 SEVEN SIX 0.0000
-0.3010 SEVENTEEN SIXTEEN 0.0000
-0.3010 SEVENTY SIXTY 0.0000
-0.3010 SHIT </s> -0.3010
-0.3010 SHOW STATUS 0.0000
-0.3010 SHUT UP -0.0458
-0.3010 SILENCE </s> -0.3010
-0.3010 SILENT </s> -0.3010
-0.7782 SING A -0.2041
-0.7782 SING FOR -0.2430
-0.7782 SING ME -0.1627
-0.3010 SINGING </s> -0.3010
-0.3010 SIX THREE 0.0000
-0.3010 SIXTEEN TEN 0.0000
-0.3010 SIXTY THIRTY 0.0000
-0.3010 SMART </s> -0.3010
-0.3010 SMARTER </s> -0.3010
-0.6021 SO </s> -0.3010
-0.9031 SO COOL 0.0000
-0.9031 SO SMART 0.0000
-0.6021 SOME COFFEE 0.0000
-0.6021 SOME FOOD 0.0000
-0.4771 SOMETHING </s> -0.3010
-0.7782 SOMETHING RANDOM 0.0000
-0.3010 SONG </s> -0.3010
-0.3010 SORRY </s> -0.3010
-0.3010 SORRY? </s> -0.3010
-0.3010 SOUND GOOD -0.0843
-0.3010 SOUNDS GOOD -0.0843
-0.3010 SPEAK </s> -0.3010
-0.3010 SPEAK? </s> -0.3010
-0.3010 SPEAKING </s> -0.3010
-0.3010 SPEED </s> -0.3010
-0.6021 START A -0.2788
-0.6021 START X 0.0000
-0.3010 STATUS </s> -0.3010
-0.3010 STELLA </s> -0.3010
-1.1461 STOP </s> -0.3010
-1.1461 STOP IT -0.2041
-1.1461 STOP MUSIC 0.0000
-1.1461 STOP READING 0.0000
-1.1461 STOP SINGING 0.0000
-1.1461 STOP SPEAKING 0.0000
-1.1461 STOP THE -0.2825
-0.3010 STORY </s> -0.3010
-0.3010 STUPID </s> -0.3010
-0.3010 SUCK </s> -0.3010
-0.3010 SUCKS </s> -0.3010
-0.7782 SURE </s> -0.3010
-0.7782 SURE ABOUT? 0.0000
-0.7782 SURE IS -0.2825
-0.3010 SURE? </s> -0.3010
-0.3010 SUSPEND MACHINE 0.0000
-0.3010 SWEET </s> -0.3010
-0.3010 SYSTEM STATUS 0.0000
-0.3010 TAB </s> -0.3010
-0.3010 TABS </s> -0.3010
-0.5740 TALK </s> -0.3010
-1.1761 TALK ABOUT -0.0969
-1.4771 TALK ABOUT? 0.0000
-1.4771 TALK DIRTY 0.0000
-1.1761 TALK TO -0.2833
-1.4771 TALK WITH -0.1761
-0.4771 TALKING </s> -0.3010
-0.7782 TALKING TO -0.2923
-0.3010 TEACHING YOU -0.2968
-0.3010 TELL ME -0.1347
-0.3010 TELLING ME -0.2808
-0.3010 TEN THIRTEEN 0.0000
-0.3010 TERMINAL </s> -0.3010
-0.3010 TERRIBLE </s> -0.3010
-0.7782 TEST INTERNET 0.0000
-0.7782 TEST NET 0.0000
-0.7782 TEST NETWORK -0.1249
-0.7782 THANK </s> -0.3010
-0.4771 THANK YOU -0.2724
-0.5229 THANKS </s> -0.3010
-1.0000 THANKS ASSISTANT -0.0492
-1.0000 THANKS YOU -0.2724
-0.4472 THAT </s> -0.3010
-1.1461 THAT MEAN? 0.0000
-1.1461 THAT RIGHT -0.0969
-1.2041 THAT'S ALRIGHT 0.0000
-1.2041 THAT'S GREAT -0.1047
-1.2041 THAT'S INCREDIBLE 0.0000
-1.2041 THAT'S NUTS 0.0000
-1.2041 THAT'S OK -0.0969
-1.2041 THAT'S RIGHT -0.0969
-1.2041 THAT'S STUPID 0.0000
-1.2041 THAT'S TRUE -0.1249
-1.3802 THE DAY -0.2218
-1.3802 THE MATTER 0.0000
-1.3802 THE MUSIC 0.0000
-1.0792 THE TIME? 0.0000
-1.3802 THE TOPIC 0.0000
-1.3802 THE WEATHER 0.0000
-1.0792 THE WEATHER? 0.0000
-0.9031 THE WEB 0.0000
-0.3010 THEN? </s> -0.3010
-0.3010 THERE </s> -0.3010
-0.3010 THERE? </s> -0.3010
-0.4260 THINGS ARE -0.2849
-0.9031 THINGS SUCK 0.0000
-0.3010 THINGS? </s> -0.3010
-0.6990 THINK </s> -0.3010
-1.0000 THINK ABOUT -0.2430
-0.6990 THINK SO -0.1761
-0.3010 THINK? </s> -0.3010
-0.3010 THIRTEEN TWELVE 0.0000
-0.3010 THIRTY TWENTY 0.0000
-0.6021 THIS </s> -0.3010
-0.6021 THIS FEEL? 0.0000
-0.3010 THIS? </s> -0.3010
-0.3010 THOUSAND AND 0.0000
-0.3010 THREE TWO 0.0000
-0.3010 THUNDERBIRD </s> -0.3010
-0.6021 TIME </s> -0.3010
-0.6021 TIME IS -0.2730
-0.3010 TIME? </s> -0.3010
-0.3010 TIMER </s> -0.3010
-0.3010 TIMES </s> -0.3010
-0.3010 TIRED </s> -0.3010
-1.0969 TO DO? 0.0000
-1.6990 TO LEARN 0.0000
-1.3979 TO ME -0.2374
-1.2218 TO SPEAK 0.0000
-1.3979 TO SPEAK? 0.0000
-0.6990 TO TALK -0.0792
-1.6990 TO TERMINAL 0.0000
-1.6990 TO THE -0.2430
-1.6990 TO YOU -0.2724
-0.3010 TODAY? </s> -0.3010
-0.3010 TOPIC </s> -0.3010
-0.3010 TOTALLY </s> -0.3010
-0.4771 TRUE </s> -0.3010
-0.7782 TRUE THAT -0.1091
-0.3010 TRY HARDER 0.0000
-0.3010 TWELVE EIGHTY 0.0000
-0.3010 TWENTY HUNDRED 0.0000
-0.3010 TWO EIGHTEEN 0.0000
-0.3010 TYPING </s> -0.3010
-0.3010 TYRELL CORPORATION 0.0000
-0.3010 UNDERSTAND </s> -0.3010
-0.3010 UNDERSTAND? </s> -0.3010
-0.4102 UP </s> -0.3010
-1.2553 UP ASSISTANT -0.0492
-1.2553 UP WITH -0.1761
-0.3010 UP? </s> -0.3010
-0.3010 UPSET </s> -0.3010
-0.3010 USERNAME </s> -0.3010
-1.2553 VERY COOL 0.0000
-1.2553 VERY FUNNY 0.0000
-0.7782 VERY GOOD -0.0843
-1.2553 VERY KIND 0.0000
-1.2553 VERY NICE -0.1761
-1.2553 VERY POSITIVE 0.0000
-1.2553 VERY SWEET 0.0000
-0.6021 VOICE COULD 0.0000
-0.6021 VOICE NOTE 0.0000
-0.3010 VOID COMP 0.0000
-0.6021 VOLUME DOWN 0.0000
-0.6021 VOLUME UP -0.0872
-0.3010 WAKE UP -0.0872
-1.2041 WANT A -0.2788
-1.2041 WANT COFFEE 0.0000
-0.9031 WANT SOME 0.0000
-0.6021 WANT TO -0.1584
-0.3010 WANT? </s> -0.3010
-0.3010 WAY </s> -0.3010
-0.7782 WE GOING? 0.0000
-0.7782 WE HERE? 0.0000
-0.7782 WE ONLINE? 0.0000
-0.3010 WE? </s> -0.3010
-0.3010 WEATHER TODAY? 0.0000
-0.3010 WEATHER? </s> -0.3010
-0.3010 WEB </s> -0.3010
-0.3010 WEBLIFE </s> -0.3010
-0.6021 WELCOME </s> -0.3010
-0.6021 WELCOME ASSISTANT -0.0492
-0.3680 WELL </s> -0.3010
-1.1461 WELL DONE 0.0000
-1.5441 WHAT ARE -0.2234
-1.5441 WHAT CAN -0.0792
-1.5441 WHAT DAY -0.1249
-0.8451 WHAT DO 0.0000
-1.8451 WHAT DOES -0.2218
-1.8451 WHAT HAPPENED? 0.0000
-0.8909 WHAT IS -0.1639
-1.8451 WHAT IT -0.2788
-1.5441 WHAT TIME 0.0000
-1.8451 WHAT TO -0.2648
-1.8451 WHAT WHAT? 0.0000
-1.3680 WHAT WOULD -0.1461
-1.1461 WHAT'S ACTUALLY 0.0000
-1.1461 WHAT'S GOING -0.1461
-1.1461 WHAT'S HAPPENING? 0.0000
-0.8451 WHAT'S THE -0.2218
-1.1461 WHAT'S UP -0.2762
-1.1461 WHAT'S UP? 0.0000
-0.3010 WHAT? </s> -0.3010
-0.4260 WHERE ARE -0.2509
-0.9031 WHERE IS -0.2825
-0.7782 WHO ARE -0.2682
-0.7782 WHO ASKED 0.0000
-0.7782 WHO IS -0.2825
-0.4771 WHY ARE -0.2464
-0.7782 WHY DON'T -0.1963
-0.3010 WHY? </s> -0.3010
-0.3010 WIKI </s> -0.3010
-0.3010 WINDOW </s> -0.3010
-0.6021 WITH YOU -0.2724
-0.6021 WITH YOU? 0.0000
-0.3010 WONDERFUL </s> -0.3010
-0.3010 WOOD? </s> -0.3010
-0.3010 WORK </s> -0.3010
-0.7782 WORKING </s> -0.3010
-0.7782 WORKING BETTER 0.0000
-0.7782 WORKING GOOD -0.0843
-1.0000 WOULD HAPPEN 0.0000
-0.6990 WOULD LIKE -0.2093
-0.6990 WOULD YOU -0.2656
-0.3010 WOW </s> -0.3010
-0.3979 WRONG </s> -0.3010
-1.0000 WRONG ASSISTANT -0.0492
-0.3010 X </s> -0.3010
-0.3010 YAY </s> -0.3010
-0.3010 YEAH </s> -0.3010
-0.6021 YES </s> -0.3010
-0.6021 YES BE -0.1963
-0.3010 YO ASSISTANT -0.0492
-1.1957 YOU </s> -0.3010
-0.8625 YOU ARE -0.1681
-2.3096 YOU ASSISTANT -0.0492
-2.3096 YOU CARE 0.0000
-2.3096 YOU CONFUSED? 0.0000
-2.3096 YOU DO? 0.0000
-2.3096 YOU DOING -0.2319
-2.3096 YOU DOING? 0.0000
-2.0086 YOU DON'T -0.1963
-2.3096 YOU FEEL? 0.0000
-2.3096 YOU FEELING? 0.0000
-2.3096 YOU GOOD -0.0843
-2.3096 YOU GOT 0.0000
-2.3096 YOU HAD 0.0000
-2.3096 YOU HELP 0.0000
-2.3096 YOU HELP? 0.0000
-2.3096 YOU HERE? 0.0000
-2.3096 YOU HOW -0.2863
-2.3096 YOU JUST -0.2218
-2.0086 YOU KNOW 0.0000
-1.1635 YOU LIKE -0.0757
-2.0086 YOU LIKE? 0.0000
-2.3096 YOU NOT -0.2218
-2.3096 YOU REAL? 0.0000
-2.3096 YOU RIGHT -0.0969
-2.3096 YOU SAID 0.0000
-2.3096 YOU SAY? 0.0000
-2.3096 YOU SORRY? 0.0000
-2.3096 YOU SOUND 0.0000
-2.3096 YOU SUCK 0.0000
-2.3096 YOU TELLING 0.0000
-2.0086 YOU THERE? 0.0000
-1.8325 YOU THINK 0.0000
-1.8325 YOU THINK? 0.0000
-2.3096 YOU TO -0.2041
-2.3096 YOU TODAY? 0.0000
-2.0086 YOU UNDERSTAND? 0.0000
-2.3096 YOU VERY -0.2218
-2.3096 YOU WANT -0.1761
-2.3096 YOU WANT? 0.0000
-2.3096 YOU WORK 0.0000
-0.3010 YOU? </s> -0.3010
-0.7782 YOUR DADDY? 0.0000
-0.7782 YOUR NAME? 0.0000
-0.7782 YOUR VOICE -0.1761
-0.3010 YOUTUBE </s> -0.3010
-0.3010 ZERO EIGHT 0.0000

\3-grams:
-0.6021 <s> ABSOLUTELY </s>
-0.6021 <s> ABSOLUTELY NOT
-0.3010 <s> AFFIRMATIVE </s>
-0.9031 <s> AH DAMMIT
-0.9031 <s> AH DAMN
-0.9031 <s> AH GREAT
-0.9031 <s> AH SHIT
-0.3010 <s> ALL RIGHT
-0.3010 <s> ALLRIGHT </s>
-0.6021 <s> AM FINE
-0.6021 <s> AM TIRED
-0.6021 <s> AMAZING </s>
-0.6021 <s> AMAZING DUDE
-1.1461 <s> ARE WE
-0.4472 <s> ARE YOU
-1.1461 <s> ARE YOU?
-0.3010 <s> ASSIST </s>
-0.9031 <s> ASSISTANT </s>
-0.9031 <s> ASSISTANT SHUT
-0.9031 <s> ASSISTANT SPEAK
-0.9031 <s> ASSISTANT TALK
-1.0000 <s> AWESOME </s>
-1.0000 <s> AWESOME DUDE
-1.0000 <s> AWESOME JOB
-1.0000 <s> AWESOME SAUCE
-1.0000 <s> AWESOME WORK
-0.3010 <s> BACK FLIP
-0.6021 <s> BE QUIET
-0.6021 <s> BE SILENT
-0.3010 <s> BROKEN RECORD
-0.6021 <s> CALCULATE PLUS
-0.6021 <s> CALCULATE TIMES
-0.3010 <s> CAN YOU
-0.3010 <s> CHECK EMAIL
-0.3010 <s> CHILL OUT
-0.3010 <s> CLEAR </s>
-1.2041 <s> CLOSE EMAIL
-1.2041 <s> CLOSE OTHER
-1.2041 <s> CLOSE PROJECT
-1.2041 <s> CLOSE STATUS
-1.2041 <s> CLOSE TAB
-1.2041 <s> CLOSE TERMINAL
-1.2041 <s> CLOSE WEB
-1.2041 <s> CLOSE WINDOW
-0.3010 <s> COME ON
-0.3010 <s> CONTROL C
-0.3010 <s> COOL </s>
-0.3010 <s> CRAZY </s>
-0.3010 <s> CREEPY </s>
-0.3010 <s> DAMN IT
-0.3010 <s> DO YOU
-1.0792 <s> DOING FAIRLY
-1.0792 <s> DOING GOOD
-1.0792 <s> DOING GREAT
-1.0792 <s> DOING OK
-1.0792 <s> DOING PRETTY
-1.0792 <s> DOING WELL
-0.3010 <s> DON'T YOU
-0.3010 <s> DOWN </s>
-0.3010 <s> DUDE </s>
-0.3010 <s> ECHO USERNAME
-0.3010 <s> END </s>
-0.6021 <s> ENOUGH </s>
-0.6021 <s> ENOUGH TALKING
-0.3010 <s> ENTER </s>
-0.3010 <s> ESCAPE </s>
-1.0792 <s> EVERYTHING </s>
-0.4771 <s> EVERYTHING IS
-1.0792 <s> EVERYTHING SUCKS
-0.3010 <s> EXCELLENT </s>
-0.6021 <s> FAREWELL </s>
-0.6021 <s> FAREWELL ASSISTANT
-0.3010 <s> FEEL ME?
-1.0000 <s> FEELING GOOD
-1.0000 <s> FEELING GREAT
-1.0000 <s> FEELING SAD
-1.0000 <s> FEELING TIRED
-1.0000 <s> FEELING WONDERFUL
-0.3010 <s> FINALLY </s>
-0.3010 <s> FINE </s>
-0.6021 <s> FOR SURE?
-0.6021 <s> FOR WHAT?
-0.3010 <s> FORGET IT
-0.3010 <s> FREAK OUT
-0.3010 <s> FULL SCREEN
-0.3010 <s> FUNNY </s>
-0.3010 <s> GEE THANKS
-0.3010 <s> GET ME
-0.7782 <s> GO AWAY
-0.4771 <s> GO TO
-0.3010 <s> GOING </s>
-1.0792 <s> GOOD </s>
-1.0792 <s> GOOD JOB
-1.0792 <s> GOOD MORNING
-1.0792 <s> GOOD POINT
-1.0792 <s> GOOD QUESTION
-1.0792 <s> GOOD WORK
-0.6021 <s> GOODBYE </s>
-0.6021 <s> GOODBYE ASSISTANT
-0.6021 <s> GOODNIGHT </s>
-0.6021 <s> GOODNIGHT ASSISTANT
-0.7782 <s> GREAT </s>
-0.7782 <s> GREAT JOB
-0.7782 <s> GREAT WORK
-0.6021 <s> GREETINGS </s>
-0.6021 <s> GREETINGS ASSISTANT
-0.3010 <s> GROOVY </s>
-0.3010 <s> HAD ENOUGH?
-0.3010 <s> HAVE YOU
-0.3010 <s> HELL NO
-1.1461 <s> HELLO </s>
-1.1461 <s> HELLO ASSISTANT
-0.8451 <s> HELLO HOW
-1.1461 <s> HELLO MACHINE
-1.1461 <s> HELLO STELLA
-1.1461 <s> HELLO THERE
-1.0000 <s> HEY </s>
-1.0000 <s> HEY ASSISTANT
-1.0000 <s> HEY STELLA
-1.0000 <s> HEY THERE
-1.0000 <s> HEY YOU
-0.9031 <s> HI </s>
-0.9031 <s> HI ASSISTANT
-0.9031 <s> HI HOW
-0.9031 <s> HI STELLA
-0.3010 <s> HILARIOUS </s>
-0.3010 <s> HOME </s>
-1.3424 <s> HOW </s>
-0.6435 <s> HOW ARE
-1.3424 <s> HOW DO
-1.0414 <s> HOW DOES
-1.3424 <s> HOW MUCH
-1.3424 <s> HOW OLD
-0.3010 <s> HOW'S IT
-0.6331 <s> I AM
-2.0645 <s> I CAN
-1.5873 <s> I DIDN'T
-1.7634 <s> I DON'T
-1.3655 <s> I FEEL
-2.0645 <s> I GOOD
-2.0645 <s> I HATE
-1.7634 <s> I JUST
-2.0645 <s> I LIKE
-2.0645 <s> I LOVE
-1.4624 <s> I NEED
-2.0645 <s> I SEE
-2.0645 <s> I THINK
-1.2863 <s> I WANT
-1.7634 <s> I WOULD
-0.3010 <s> INDEED </s>
-0.3010 <s> IS GOING
-0.3010 <s> ISN'T THAT
-0.3010 <s> IT IS
-0.6021 <s> IT'S ALRIGHT...
-0.6021 <s> IT'S OK...
-0.3010 <s> LATER </s>
-0.3010 <s> LEARNING TO
-0.3010 <s> LET'S TALK
-0.9031 <s> LIKE </s>
-0.9031 <s> LIKE EVERYTHING
-0.9031 <s> LIKE LEARNING
-0.9031 <s> LIKE WHAT?
-1.0000 <s> LIST </s>
-1.0000 <s> LIST BLOCK
-1.0000 <s> LIST MODULES
-1.0000 <s> LIST NETWORK
-1.0000 <s> LIST PROCESSES
-0.6021 <s> LISTEN </s>
-0.6021 <s> LISTEN ASSISTANT
-0.3010 <s> MAKE ME
-0.3010 <s> MATRIX </s>
-0.3010 <s> MAXIMIZE WINDOW
-0.6021 <s> MAYBE </s>
-0.6021 <s> MAYBE LATER
-0.3010 <s> MINIMIZE WINDOW
-0.6021 <s> MORNING </s>
-0.6021 <s> MORNING ASSISTANT
-0.3010 <s> MOST RIGHTEOUS
-0.3010 <s> NEVER </s>
-0.3010 <s> NEVERMIND </s>
-0.3010 <s> NEW TAB
-0.3010 <s> NEXT TAB
-0.7782 <s> NICE </s>
-0.7782 <s> NICE JOB
-0.7782 <s> NICE WORK
-0.3010 <s> NICELY DONE
-1.0792 <s> NO </s>
-1.0792 <s> NO THANK
-1.0792 <s> NO THANKS
-0.7782 <s> NO THAT'S
-1.0792 <s> NO WAY
-0.3010 <s> NOT MUCH
-0.7782 <s> NOTHING </s>
-0.4771 <s> NOTHING IS
-0.7782 <s> OH ASSIST
-0.7782 <s> OH ASSISTANT
-0.7782 <s> OH GOD
-0.7782 <s> OK </s>
-0.7782 <s> OK ASSISTANT
-0.7782 <s> OK FINE
-1.3424 <s> OPEN ARCH
-1.3424 <s> OPEN COMMANDS
-1.3424 <s> OPEN FACEBOOK
-1.3424 <s> OPEN FIREFOX
-1.3424 <s> OPEN PROJECT
-1.3424 <s> OPEN STATUS
-1.3424 <s> OPEN TAB
-1.3424 <s> OPEN TERMINAL
-1.3424 <s> OPEN THE
-1.3424 <s> OPEN WEB
-1.3424 <s> OPEN YOUTUBE
-0.6021 <s> PAGE DOWN
-0.6021 <s> PAGE UP
-0.3010 <s> PING WEBLIFE
-0.9031 <s> PLAY </s>
-0.9031 <s> PLAY A
-0.9031 <s> PLAY AMBIENT
-0.9031 <s> PLAY ME
-1.0000 <s> PLEASE </s>
-1.0000 <s> PLEASE ASSISTANT
-0.6990 <s> PLEASE BE
-1.0000 <s> PLEASE LISTEN
-0.3010 <s> PRETTY GOOD
-0.3010 <s> PREVIOUS TAB
-1.0000 <s> QUIT </s>
-1.0000 <s> QUIT STATUS
-1.0000 <s> QUIT THE
-1.0000 <s> QUIT THUNDERBIRD
-1.0000 <s> QUIT WEB
-0.3010 <s> READ ME
-0.3010 <s> REALLY </s>
-0.3010 <s> REBOOT MACHINE
-0.3010 <s> RECORD </s>
-0.6021 <s> RED ALERT
-0.6021 <s> RED PILL
-0.3010 <s> RESET </s>
-0.3010 <s> REWIND </s>
-0.6021 <s> RIGHT </s>
-0.6021 <s> RIGHT ON
-0.3010 <s> RIGHTEOUS </s>
-0.3010 <s> SAD </s>
-0.6021 <s> SAVE DOCUMENT
-0.6021 <s> SAVE FILE
-0.4771 <s> SAY SOMETHING
-0.7782 <s> SAY TOPIC
-0.6021 <s> SEARCH </s>
-0.6021 <s> SEARCH WEB
-0.3010 <s> SEE REE
-0.3010 <s> SHOW STATUS
-0.3010 <s> SHUT UP
-0.3010 <s> SILENCE </s>
-0.3010 <s> SILENT </s>
-0.7782 <s> SING A
-0.7782 <s> SING FOR
-0.7782 <s> SING ME
-0.3010 <s> SO COOL
-0.3010 <s> SORRY </s>
-0.3010 <s> SOUNDS GOOD
-0.6021 <s> START A
-0.6021 <s> START X
-0.3010 <s> STELLA </s>
-1.1461 <s> STOP </s>
-1.1461 <s> STOP IT
-1.1461 <s> STOP MUSIC
-1.1461 <s> STOP READING
-1.1461 <s> STOP SINGING
-1.1461 <s> STOP SPEAKING
-1.1461 <s> STOP THE
-0.3010 <s> STUPID </s>
-0.6021 <s> SURE </s>
-0.6021 <s> SURE IS
-0.3010 <s> SUSPEND MACHINE
-0.3010 <s> SYSTEM STATUS
-0.6021 <s> TALK DIRTY
-0.6021 <s> TALK TO
-0.3010 <s> TELL ME
-0.3010 <s> TERMINAL </s>
-0.3010 <s> TERRIBLE </s>
-0.7782 <s> TEST INTERNET
-0.7782 <s> TEST NET
-0.7782 <s> TEST NETWORK
-0.6021 <s> THANK </s>
-0.6021 <s> THANK YOU
-0.7782 <s> THANKS </s>
-0.7782 <s> THANKS ASSISTANT
-0.7782 <s> THANKS YOU
-1.0792 <s> THAT'S GREAT
-1.0792 <s> THAT'S INCREDIBLE
-1.0792 <s> THAT'S NUTS
-1.0792 <s> THAT'S RIGHT
-1.0792 <s> THAT'S STUPID
-1.0792 <s> THAT'S TRUE
-0.4260 <s> THINGS ARE
-0.9031 <s> THINGS SUCK
-0.6021 <s> TIME </s>
-0.6021 <s> TIME IS
-0.3010 <s> TIRED </s>
-0.3010 <s> TOTALLY </s>
-0.6021 <s> TRUE </s>
-0.6021 <s> TRUE THAT
-0.3010 <s> TRY HARDER
-0.3010 <s> TYRELL CORPORATION
-0.3010 <s> UP </s>
-1.0792 <s> VERY COOL
-1.0792 <s> VERY FUNNY
-1.0792 <s> VERY GOOD
-1.0792 <s> VERY KIND
-1.0792 <s> VERY NICE
-1.0792 <s> VERY SWEET
-0.3010 <s> VOICE NOTE
-0.3010 <s> VOID COMP
-0.6021 <s> VOLUME DOWN
-0.6021 <s> VOLUME UP
-0.3010 <s> WAKE UP
-0.3010 <s> WANT TO
-0.3010 <s> WELL DONE
-1.5315 <s> WHAT ARE
-1.5315 <s> WHAT CAN
-1.5315 <s> WHAT DAY
-0.8325 <s> WHAT DO
-1.8325 <s> WHAT DOES
-1.8325 <s> WHAT HAPPENED?
-0.8783 <s> WHAT IS
-1.8325 <s> WHAT IT
-1.5315 <s> WHAT TIME
-1.8325 <s> WHAT WHAT?
-1.3554 <s> WHAT WOULD
-1.1461 <s> WHAT'S ACTUALLY
-1.1461 <s> WHAT'S GOING
-1.1461 <s> WHAT'S HAPPENING?
-0.8451 <s> WHAT'S THE
-1.1461 <s> WHAT'S UP
-1.1461 <s> WHAT'S UP?
-0.4260 <s> WHERE ARE
-0.9031 <s> WHERE IS
-0.7782 <s> WHO ARE
-0.7782 <s> WHO ASKED
-0.7782 <s> WHO IS
-0.4771 <s> WHY ARE
-0.7782 <s> WHY DON'T
-0.3010 <s> WHY? </s>
-0.3010 <s> WONDERFUL </s>
-0.3010 <s> WOW </s>
-0.6021 <s> WRONG </s>
-0.6021 <s> WRONG ASSISTANT
-0.3010 <s> YAY </s>
-0.3010 <s> YEAH </s>
-0.6021 <s> YES </s>
-0.6021 <s> YES BE
-0.3010 <s> YO ASSISTANT
-0.5614 <s> YOU ARE
-2.0086 <s> YOU ASSISTANT
-2.0086 <s> YOU DOING
-1.7076 <s> YOU DON'T
-2.0086 <s> YOU GOOD
-2.0086 <s> YOU GOT
-2.0086 <s> YOU JUST
-1.7076 <s> YOU KNOW
-1.4065 <s> YOU LIKE
-2.0086 <s> YOU RIGHT
-2.0086 <s> YOU SAID
-2.0086 <s> YOU SOUND
-2.0086 <s> YOU SUCK
-2.0086 <s> YOU THERE?
-1.7076 <s> YOU THINK
-2.0086 <s> YOU UNDERSTAND?
-2.0086 <s> YOU VERY
-2.0086 <s> YOU WORK
-0.3010 <s> YOUR VOICE
-0.3010 <s> ZERO EIGHT
-0.3010 A BEER </s>
-0.3010 A DRINK </s>
-0.3010 A MINUTE TIMER
-0.3010 A SANDWICH </s>
-0.3010 A SONG </s>
-0.3010 A STORY </s>
-0.3010 ABOUT ANYTHING? </s>
-0.3010 ABOUT YOU </s>
-0.3010 ABSOLUTELY NOT </s>
-0.3010 ACTUALLY GOING ON?
-0.3010 AH DAMMIT </s>
-0.3010 AH DAMN </s>
-0.3010 AH GREAT </s>
-0.3010 AH SHIT </s>
-0.6021 ALL RIGHT </s>
-0.6021 ALL RIGHT ASSISTANT
-0.3010 AM ALRIGHT </s>
-0.3010 AM ANGRY </s>
-1.0792 AM DOING FAIRLY
-1.0792 AM DOING GOOD
-1.0792 AM DOING OK
-0.7782 AM DOING PRETTY
-1.0792 AM DOING WELL
-0.6021 AM FEELING OK
-0.6021 AM FEELING SAD
-0.3010 AM FINE </s>
-0.3010 AM GETTING TIRED
-0.3010 AM GOOD </s>
-0.3010 AM HUNGRY </s>
-0.3010 AM OK </s>
-0.3010 AM ONLY TYPING
-0.3010 AM PISSED </s>
-0.3010 AM READY FOR
-0.3010 AM SAD </s>
-0.3010 AM SORRY </s>
-0.6021 AM TALKING </s>
-0.6021 AM TALKING TO
-0.3010 AM TEACHING YOU
-0.3010 AM TIRED </s>
-0.3010 AM UPSET </s>
-0.3010 AM WELL </s>
-0.3010 AMAZING DUDE </s>
-0.3010 AMBIENT MUSIC </s>
-0.3010 ARCH WIKI </s>
-0.3010 ARE ARTIFICIAL INTELLIGENCE
-0.3010 ARE BACK </s>
-0.3010 ARE CONFUSED </s>
-0.6021 ARE DOING GOOD
-0.6021 ARE DOING GREAT
-0.3010 ARE FINE </s>
-0.6021 ARE GETTING SMART
-0.6021 ARE GETTING SMARTER
-0.3010 ARE GOOD </s>
-0.3010 ARE GREAT </s>
-0.3010 ARE HERE </s>
-0.3010 ARE INCREDIBLE </s>
-0.3010 ARE LEARNING TO
-0.3010 ARE OPTIMISTIC </s>
-0.3010 ARE RIGHT </s>
-0.3010 ARE SCREWED UP
-0.3010 ARE SMART </s>
-0.3010 ARE SO SMART
-0.3010 ARE THERE </s>
-0.3010 ARE THINGS? </s>
-0.6021 ARE VERY GOOD
-0.6021 ARE VERY POSITIVE
-0.7782 ARE WE GOING?
-0.7782 ARE WE HERE?
-0.7782 ARE WE ONLINE?
-0.3010 ARE WE? </s>
-0.6021 ARE WELCOME </s>
-0.6021 ARE WELCOME ASSISTANT
-0.3010 ARE WONDERFUL </s>
-0.7782 ARE WORKING </s>
-0.7782 ARE WORKING BETTER
-0.7782 ARE WORKING GOOD
-0.3010 ARE WRONG </s>
-1.3010 ARE YOU CONFUSED?
-1.3010 ARE YOU DOING?
-1.3010 ARE YOU FEELING?
-1.3010 ARE YOU HERE?
-1.3010 ARE YOU NOT
-1.3010 ARE YOU REAL?
-1.3010 ARE YOU SORRY?
-1.3010 ARE YOU TELLING
-1.3010 ARE YOU THERE?
-1.3010 ARE YOU TODAY?
-0.3010 ARE YOU? </s>
-0.3010 ARTIFICIAL INTELLIGENCE </s>
-0.3010 ASKED YOU? </s>
-0.3010 ASSISTANT SHUT UP
-0.3010 ASSISTANT SPEAK </s>
-0.3010 ASSISTANT TALK TO
-0.3010 AWESOME DUDE </s>
-0.3010 AWESOME JOB </s>
-0.3010 AWESOME SAUCE </s>
-0.3010 AWESOME WORK </s>
-0.3010 BACK FLIP </s>
-0.3010 BE BETTER </s>
-0.3010 BE LIKE? </s>
-0.3010 BE QUIET </s>
-0.3010 BE SILENT </s>
-0.3010 BILLION MILLION THOUSAND
-0.3010 BLOCK DEVICES </s>
-0.3010 BROKEN RECORD </s>
-0.3010 CALCULATE PLUS </s>
-0.3010 CALCULATE TIMES </s>
-0.3010 CAN HEAR YOU
-0.9031 CAN YOU DO?
-0.9031 CAN YOU HELP
-0.9031 CAN YOU HELP?
-0.9031 CAN YOU SAY?
-0.3010 CARE ABOUT? </s>
-0.6021 CHECK EMAIL </s>
-0.6021 CHECK EMAIL PLEASE
-0.3010 CHILL OUT </s>
-0.3010 CLOSE EMAIL </s>
-0.3010 CLOSE OTHER TABS
-0.3010 CLOSE PROJECT M
-0.3010 CLOSE STATUS </s>
-0.3010 CLOSE TAB </s>
-0.3010 CLOSE TERMINAL </s>
-0.3010 CLOSE WEB </s>
-0.3010 CLOSE WINDOW </s>
-0.3010 COME ON </s>
-0.3010 CONTROL C </s>
-0.3010 COULD BE BETTER
-0.3010 DAMN IT </s>
-0.6021 DAY IS IT
-0.6021 DAY IS IT?
-0.3010 DAY TODAY? </s>
-0.7782 DIDN'T SAY ANYTHING
-0.7782 DIDN'T SAY SAD
-0.7782 DIDN'T SAY THAT
-1.5051 DO YOU CARE
-1.5051 DO YOU FEEL?
-0.6021 DO YOU LIKE
-1.5051 DO YOU LIKE?
-1.5051 DO YOU THINK
-1.2041 DO YOU THINK?
-1.5051 DO YOU WANT
-1.5051 DO YOU WANT?
-0.3010 DOES IT FEEL?
-0.3010 DOES THAT MEAN?
-0.3010 DOES THIS FEEL?
-0.3010 DOING FAIRLY WELL
-0.3979 DOING GOOD </s>
-1.0000 DOING GOOD ASSISTANT
-0.4771 DOING GREAT </s>
-0.7782 DOING GREAT ASSISTANT
-0.3010 DOING OK </s>
-0.4771 DOING PRETTY GOOD
-0.7782 DOING PRETTY WELL
-0.3010 DOING WELL </s>
-0.3010 DON'T KNOW </s>
-0.3010 DON'T THINK SO
-0.3010 DON'T UNDERSTAND </s>
-0.7782 DON'T YOU LIKE
-0.7782 DON'T YOU THINK?
-0.7782 DON'T YOU UNDERSTAND?
-0.3010 ECHO USERNAME </s>
-0.3010 EIGHT FIVE FOUR
-0.3010 EIGHTEEN ELEVEN FIFTEEN
-0.3010 EIGHTY FIFTY FORTY
-0.3010 ELEVEN FIFTEEN FOURTEEN
-0.3010 EMAIL PLEASE </s>
-0.3010 ENOUGH TALKING </s>
-0.9031 EVERYTHING IS ALOT
-0.9031 EVERYTHING IS FANTASTIC
-0.9031 EVERYTHING IS GREAT
-0.9031 EVERYTHING IS WONDERFUL
-0.3010 EVERYTHING SUCKS </s>
-0.3010 FAIRLY WELL </s>
-0.3010 FAREWELL ASSISTANT </s>
-0.3010 FEEL ANGRY </s>
-0.3010 FEEL GOOD </s>
-0.3010 FEEL HAPPY </s>
-0.3010 FEEL MAD </s>
-0.3010 FEEL ME? </s>
-0.3010 FEEL SAD </s>
-0.3010 FEELING GOOD </s>
-0.3010 FEELING GREAT </s>
-0.3010 FEELING OK </s>
-0.3010 FEELING SAD </s>
-0.3010 FEELING TIRED </s>
-0.3010 FEELING WONDERFUL </s>
-0.3010 FIFTEEN FOURTEEN NINTEEN
-0.3010 FIFTY FORTY NINTY
-0.3010 FIVE FOUR NINE
-0.3010 FOR BED </s>
-0.3010 FOR ME </s>
-0.3010 FOR SURE? </s>
-0.3010 FOR WHAT? </s>
-0.3010 FORGET IT </s>
-0.3010 FORTY NINTY SEVENTY
-0.3010 FOUR NINE ONE
-0.3010 FOURTEEN NINTEEN SEVENTEEN
-0.3010 FREAK OUT </s>
-0.3010 FULL SCREEN </s>
-0.3010 GEE THANKS </s>
-0.3010 GET ME A
-0.3010 GETTING SMART </s>
-0.3010 GETTING SMARTER </s>
-0.3010 GETTING TIRED </s>
-0.3010 GO AWAY </s>
-0.6021 GO TO TERMINAL
-0.6021 GO TO THE
-0.3010 GOING GOOD </s>
-0.3010 GOING ON? </s>
-0.3010 GOOD ASSISTANT </s>
-0.3010 GOOD JOB </s>
-0.3010 GOOD MORNING </s>
-0.3010 GOOD POINT </s>
-0.3010 GOOD QUESTION </s>
-0.3010 GOOD WORK </s>
-0.3010 GOODBYE ASSISTANT </s>
-0.3010 GOODNIGHT ASSISTANT </s>
-0.3010 GOT IT WRONG
-0.3010 GREAT ASSISTANT </s>
-0.3010 GREAT JOB </s>
-0.3010 GREAT WORK </s>
-0.3010 GREETINGS ASSISTANT </s>
-0.3010 HAD ENOUGH? </s>
-0.3010 HAPPEN THEN? </s>
-0.3010 HATE YOU </s>
-0.3010 HAVE YOU HAD
-0.3010 HEAR YOU </s>
-0.3010 HELL NO </s>
-0.3010 HELLO ASSISTANT </s>
-0.3010 HELLO HOW ARE
-0.3010 HELLO MACHINE </s>
-0.3010 HELLO STELLA </s>
-0.3010 HELLO THERE </s>
-0.3010 HELP ME? </s>
-0.3010 HEY ASSISTANT </s>
-0.3010 HEY STELLA </s>
-0.3010 HEY THERE </s>
-0.3010 HEY YOU </s>
-0.3010 HI ASSISTANT </s>
-0.3010 HI HOW ARE
-0.3010 HI STELLA </s>
-0.9031 HOW ARE THINGS?
-0.7270 HOW ARE YOU
-0.7270 HOW ARE YOU?
-0.3010 HOW DO YOU
-0.6021 HOW DOES IT
-0.6021 HOW DOES THIS
-0.3010 HOW MUCH WOOD?
-0.3010 HOW OLD ARE
-0.3010 HOW TO TALK
-0.3010 HOW'S IT GOING?
-0.3010 HUNDRED BILLION MILLION
-1.7324 I AM ALRIGHT
-1.7324 I AM ANGRY
-0.9542 I AM DOING
-1.4314 I AM FEELING
-1.7324 I AM FINE
-1.7324 I AM GETTING
-1.7324 I AM GOOD
-1.7324 I AM HUNGRY
-1.7324 I AM OK
-1.7324 I AM ONLY
-1.7324 I AM PISSED
-1.7324 I AM READY
-1.7324 I AM SAD
-1.7324 I AM SORRY
-1.4314 I AM TALKING
-1.4314 I AM TEACHING
-1.7324 I AM TIRED
-1.7324 I AM UPSET
-1.7324 I AM WELL
-0.3010 I CAN HEAR
-0.3010 I DIDN'T SAY
-0.6021 I DON'T KNOW
-0.6021 I DON'T THINK
-1.0000 I FEEL ANGRY
-1.0000 I FEEL GOOD
-1.0000 I FEEL HAPPY
-1.0000 I FEEL MAD
-1.0000 I FEEL SAD
-0.3010 I GOOD </s>
-0.3010 I HATE YOU
-0.6021 I JUST BURPED
-0.6021 I JUST FARTED
-0.3010 I LIKE THAT
-0.3010 I LOVE YOU
-0.9031 I NEED </s>
-0.9031 I NEED COFFEE
-0.9031 I NEED SOMETHING
-0.9031 I NEED YOU
-0.3010 I SEE </s>
-0.3010 I THINK </s>
-1.0792 I WANT A
-1.0792 I WANT COFFEE
-0.7782 I WANT SOME
-0.7782 I WANT TO
-0.3010 I WOULD LIKE
-0.3010 INTERNET CONNECTION </s>
-0.3010 INTERNET SPEED </s>
-0.3010 IS ALOT </s>
-0.3010 IS FANTASTIC </s>
-0.6021 IS GOING GOOD
-0.6021 IS GOING ON?
-0.3010 IS GREAT </s>
-0.3010 IS HAPPENING? </s>
-0.3010 IS IT TODAY?
-0.3010 IS IT? </s>
-0.6021 IS MY MIND?
-0.6021 IS MY NAME?
-1.0792 IS THE DAY
-1.0792 IS THE MATTER
-1.0792 IS THE TIME?
-1.0792 IS THE TOPIC
-1.0792 IS THE WEATHER
-1.0792 IS THE WEATHER?
-0.3010 IS WONDERFUL </s>
-0.3010 IS WRONG </s>
-0.6021 IS YOUR DADDY?
-0.6021 IS YOUR NAME?
-0.3010 ISN'T THAT RIGHT
-0.3010 IT BE LIKE?
-0.3010 IT FEEL? </s>
-0.3010 IT GOING? </s>
-0.3010 IT IS </s>
-0.3010 IT TODAY? </s>
-0.3010 IT WRONG </s>
-0.3010 IT'S ALRIGHT... </s>
-0.3010 IT'S OK... </s>
-0.3010 JUST BURPED </s>
-0.3010 JUST FARTED </s>
-0.3010 JUST SAID THAT
-0.3010 KNOW IT </s>
-0.3010 LEARNING ABOUT? </s>
-0.6990 LEARNING TO SPEAK
-0.6990 LEARNING TO SPEAK?
-1.0000 LEARNING TO TALK
-0.6021 LET'S TALK </s>
-0.6021 LET'S TALK ABOUT
-0.3010 LIKE EVERYTHING </s>
-0.3010 LIKE IT? </s>
-0.7782 LIKE LEARNING ABOUT?
-0.4771 LIKE LEARNING TO
-0.3010 LIKE LEARNING? </s>
-0.3010 LIKE ME? </s>
-0.3010 LIKE SEE REE
-0.3010 LIKE THAT </s>
-0.3010 LIKE THIS </s>
-0.3010 LIKE THIS? </s>
-0.9031 LIKE TO DO?
-1.2041 LIKE TO LEARN
-1.2041 LIKE TO SPEAK
-0.6021 LIKE TO TALK
-0.3010 LIKE WHAT? </s>
-0.3010 LIST BLOCK DEVICES
-0.3010 LIST MODULES </s>
-0.3010 LIST NETWORK DEVICES
-0.3010 LIST PROCESSES </s>
-0.3010 LISTEN ASSISTANT </s>
-0.3010 LOVE YOU </s>
-0.3010 MAKE ME A
-0.3010 MAXIMIZE WINDOW </s>
-0.3010 MAYBE LATER </s>
-1.0792 ME A BEER
-1.0792 ME A SANDWICH
-0.7782 ME A SONG
-0.7782 ME A STORY
-0.3010 ME ABOUT YOU
-0.3010 ME WHAT TO
-0.3010 MILLION THOUSAND AND
-0.3010 MINIMIZE WINDOW </s>
-0.3010 MINUTE TIMER </s>
-0.3010 MORNING ASSISTANT </s>
-0.3010 MOST RIGHTEOUS </s>
-0.3010 MUCH WOOD? </s>
-0.3010 MY MIND? </s>
-0.3010 MY NAME? </s>
-0.3010 NEED COFFEE </s>
-0.3010 NEED SOMETHING </s>
-0.3010 NEED YOU </s>
-0.3010 NET CONNECTION </s>
-0.3010 NET SPEED </s>
-0.3010 NETWORK CONNECTION </s>
-0.3010 NETWORK DEVICES </s>
-0.3010 NETWORK SPEED </s>
-0.3010 NEW TAB </s>
-0.3010 NEXT TAB </s>
-0.3010 NICE JOB </s>
-0.3010 NICE WORK </s>
-0.3010 NICELY DONE </s>
-0.3010 NINE ONE SEVEN
-0.3010 NINTEEN SEVENTEEN SIXTEEN
-0.3010 NINTY SEVENTY SIXTY
-0.3010 NO THANK YOU
-0.3010 NO THANKS </s>
-0.6021 NO THAT'S ALRIGHT
-0.6021 NO THAT'S OK
-0.3010 NO WAY </s>
-0.3010 NOT MUCH </s>
-0.3010 NOT SURE ABOUT?
-0.6021 NOTHING IS THE
-0.6021 NOTHING IS WRONG
-0.3010 OH ASSIST </s>
-0.3010 OH ASSISTANT </s>
-0.3010 OH GOD </s>
-0.3010 OK ASSISTANT </s>
-0.3010 OK FINE </s>
-0.3010 OLD ARE YOU?
-0.3010 ONE SEVEN SIX
-0.3010 ONLY TYPING </s>
-0.3010 OPEN ARCH WIKI
-0.3010 OPEN COMMANDS </s>
-0.3010 OPEN FACEBOOK </s>
-0.3010 OPEN FIREFOX </s>
-0.3010 OPEN PROJECT EM
-0.3010 OPEN STATUS </s>
-0.3010 OPEN TAB </s>
-0.3010 OPEN TERMINAL </s>
-0.3010 OPEN THE WEB
-0.3010 OPEN WEB </s>
-0.3010 OPEN YOUTUBE </s>
-0.3010 OTHER TABS </s>
-0.3010 PAGE DOWN </s>
-0.3010 PAGE UP </s>
-0.3010 PING WEBLIFE </s>
-0.3010 PLAY A SONG
-0.3010 PLAY AMBIENT MUSIC
-0.3010 PLAY ME A
-0.3010 PLEASE ASSISTANT </s>
-0.6021 PLEASE BE QUIET
-0.6021 PLEASE BE SILENT
-0.3010 PLEASE LISTEN </s>
-0.3010 PRETTY GOOD </s>
-0.3010 PRETTY WELL </s>
-0.3010 PREVIOUS TAB </s>
-0.3010 PROJECT EM </s>
-0.3010 PROJECT M </s>
-0.3010 QUIT STATUS </s>
-0.3010 QUIT THE WEB
-0.3010 QUIT THUNDERBIRD </s>
-0.3010 QUIT WEB </s>
-0.3010 READ ME A
-0.3010 READY FOR BED
-0.3010 REBOOT MACHINE </s>
-0.3010 RED ALERT </s>
-0.3010 RED PILL </s>
-0.3010 RIGHT ASSISTANT </s>
-0.3010 RIGHT ON </s>
-0.3010 SAID THAT </s>
-0.3010 SAVE DOCUMENT </s>
-0.3010 SAVE FILE </s>
-0.3010 SAY ANYTHING </s>
-0.3010 SAY SAD </s>
-0.6021 SAY SOMETHING </s>
-0.6021 SAY SOMETHING RANDOM
-0.3010 SAY THAT </s>
-0.3010 SAY TOPIC </s>
-0.3010 SCREWED UP </s>
-0.3010 SEARCH WEB </s>
-0.3010 SEE REE </s>
-0.3010 SEVEN SIX THREE
-0.3010 SEVENTEEN SIXTEEN TEN
-0.3010 SEVENTY SIXTY THIRTY
-0.3010 SHOW STATUS </s>
-0.4771 SHUT UP </s>
-0.7782 SHUT UP ASSISTANT
-0.3010 SING A SONG
-0.3010 SING FOR ME
-0.3010 SING ME A
-0.3010 SIX THREE TWO
-0.3010 SIXTEEN TEN THIRTEEN
-0.3010 SIXTY THIRTY TWENTY
-0.3010 SO COOL </s>
-0.3010 SO SMART </s>
-0.3010 SOME COFFEE </s>
-0.3010 SOME FOOD </s>
-0.3010 SOMETHING RANDOM </s>
-0.3010 SOUND GOOD </s>
-0.3010 SOUNDS GOOD </s>
-0.3010 START A MINUTE
-0.3010 START X </s>
-0.3010 STOP IT </s>
-0.3010 STOP MUSIC </s>
-0.3010 STOP READING </s>
-0.3010 STOP SINGING </s>
-0.3010 STOP SPEAKING </s>
-0.3010 STOP THE MUSIC
-0.3010 SURE ABOUT? </s>
-0.3010 SURE IS </s>
-0.3010 SUSPEND MACHINE </s>
-0.3010 SYSTEM STATUS </s>
-0.3010 TALK ABOUT YOU
-0.3010 TALK ABOUT? </s>
-0.3010 TALK DIRTY </s>
-0.3010 TALK TO ME
-0.3010 TALK WITH YOU
-0.3010 TALKING TO YOU
-0.6021 TEACHING YOU HOW
-0.6021 TEACHING YOU TO
-0.6021 TELL ME A
-0.6021 TELL ME ABOUT
-0.3010 TELLING ME WHAT
-0.3010 TEN THIRTEEN TWELVE
-0.6021 TEST INTERNET CONNECTION
-0.6021 TEST INTERNET SPEED
-0.6021 TEST NET CONNECTION
-0.6021 TEST NET SPEED
-0.6021 TEST NETWORK CONNECTION
-0.6021 TEST NETWORK SPEED
-0.3010 THANK YOU </s>
-0.3010 THANKS ASSISTANT </s>
-0.3010 THANKS YOU </s>
-0.3010 THAT MEAN? </s>
-0.3010 THAT RIGHT </s>
-0.3010 THAT'S ALRIGHT </s>
-0.3010 THAT'S GREAT </s>
-0.3010 THAT'S INCREDIBLE </s>
-0.3010 THAT'S NUTS </s>
-0.3010 THAT'S OK </s>
-0.3010 THAT'S RIGHT </s>
-0.3010 THAT'S STUPID </s>
-0.3010 THAT'S TRUE </s>
-0.3010 THE DAY TODAY?
-0.3010 THE MATTER </s>
-0.3010 THE MUSIC </s>
-0.3010 THE TIME? </s>
-0.3010 THE TOPIC </s>
-0.3010 THE WEATHER TODAY?
-0.3010 THE WEATHER? </s>
-0.3010 THE WEB </s>
-0.7782 THINGS ARE FINE
-0.7782 THINGS ARE GOOD
-0.7782 THINGS ARE SCREWED
-0.3010 THINGS SUCK </s>
-0.3010 THINK ABOUT ANYTHING?
-0.3010 THINK SO </s>
-0.3010 THIRTEEN TWELVE EIGHTY
-0.3010 THIRTY TWENTY HUNDRED
-0.3010 THIS FEEL? </s>
-0.3010 THOUSAND AND </s>
-0.3010 THREE TWO EIGHTEEN
-0.3010 TIME IS IT?
-0.3010 TO DO? </s>
-0.3010 TO LEARN </s>
-0.3010 TO ME </s>
-0.3010 TO SPEAK </s>
-0.3010 TO SPEAK? </s>
-0.4559 TO TALK </s>
-1.3010 TO TALK ABOUT
-1.3010 TO TALK ABOUT?
-1.3010 TO TALK WITH
-0.3010 TO TERMINAL </s>
-0.3010 TO THE WEB
-0.3010 TO YOU </s>
-0.3010 TRUE THAT </s>
-0.3010 TRY HARDER </s>
-0.3010 TWELVE EIGHTY FIFTY
-0.3010 TWENTY HUNDRED BILLION
-0.3010 TWO EIGHTEEN ELEVEN
-0.3010 TYRELL CORPORATION </s>
-0.3010 UP ASSISTANT </s>
-0.3010 UP WITH YOU?
-0.3010 VERY COOL </s>
-0.3010 VERY FUNNY </s>
-0.3010 VERY GOOD </s>
-0.3010 VERY KIND </s>
-0.3010 VERY NICE </s>
-0.3010 VERY POSITIVE </s>
-0.3010 VERY SWEET </s>
-0.3010 VOICE COULD BE
-0.3010 VOICE NOTE </s>
-0.3010 VOID COMP </s>
-0.3010 VOLUME DOWN </s>
-0.3010 VOLUME UP </s>
-0.3010 WAKE UP </s>
-0.3010 WANT A DRINK
-0.3010 WANT COFFEE </s>
-0.6021 WANT SOME COFFEE
-0.6021 WANT SOME FOOD
-0.9031 WANT TO DO?
-0.4260 WANT TO TALK
-0.3010 WE GOING? </s>
-0.3010 WE HERE? </s>
-0.3010 WE ONLINE? </s>
-0.3010 WEATHER TODAY? </s>
-0.3010 WELCOME ASSISTANT </s>
-0.3010 WELL DONE </s>
-0.6021 WHAT ARE YOU
-0.6021 WHAT ARE YOU?
-0.3010 WHAT CAN YOU
-0.3010 WHAT DAY IS
-0.3010 WHAT DO YOU
-0.3010 WHAT DOES THAT
-0.3010 WHAT HAPPENED? </s>
-1.2553 WHAT IS GOING
-1.2553 WHAT IS HAPPENING?
-1.2553 WHAT IS MY
-0.5563 WHAT IS THE
-1.2553 WHAT IS YOUR
-0.3010 WHAT IT BE
-0.6021 WHAT TIME </s>
-0.6021 WHAT TIME IS
-0.3010 WHAT TO DO?
-0.3010 WHAT WHAT? </s>
-0.7782 WHAT WOULD HAPPEN
-0.4771 WHAT WOULD YOU
-0.3010 WHAT'S ACTUALLY GOING
-0.3010 WHAT'S GOING ON?
-0.3010 WHAT'S HAPPENING? </s>
-0.6021 WHAT'S THE TIME?
-0.6021 WHAT'S THE WEATHER?
-0.3010 WHAT'S UP WITH
-0.3010 WHAT'S UP? </s>
-0.7782 WHERE ARE WE
-0.7782 WHERE ARE WE?
-0.7782 WHERE ARE YOU?
-0.3010 WHERE IS MY
-0.3010 WHO ARE YOU?
-0.3010 WHO ASKED YOU?
-0.3010 WHO IS YOUR
-0.6021 WHY ARE WE
-0.6021 WHY ARE YOU
-0.3010 WHY DON'T YOU
-0.3010 WITH YOU </s>
-0.3010 WITH YOU? </s>
-0.3010 WORKING BETTER </s>
-0.3010 WORKING GOOD </s>
-0.3010 WOULD HAPPEN THEN?
-0.3010 WOULD LIKE TO
-0.6021 WOULD YOU LIKE
-0.6021 WOULD YOU LIKE?
-0.3010 WRONG ASSISTANT </s>
-0.3010 YES BE QUIET
-0.3010 YO ASSISTANT </s>
-1.7482 YOU ARE ARTIFICIAL
-1.7482 YOU ARE BACK
-1.7482 YOU ARE CONFUSED
-1.1461 YOU ARE DOING
-1.4472 YOU ARE GETTING
-1.7482 YOU ARE GOOD
-1.7482 YOU ARE GREAT
-1.7482 YOU ARE HERE
-1.7482 YOU ARE INCREDIBLE
-1.7482 YOU ARE LEARNING
-1.7482 YOU ARE OPTIMISTIC
-1.7482 YOU ARE RIGHT
-1.7482 YOU ARE SMART
-1.7482 YOU ARE SO
-1.7482 YOU ARE THERE
-1.4472 YOU ARE VERY
-1.4472 YOU ARE WELCOME
-1.7482 YOU ARE WONDERFUL
-1.2711 YOU ARE WORKING
-1.7482 YOU ARE WRONG
-0.3010 YOU ASSISTANT </s>
-0.3010 YOU CARE ABOUT?
-0.3010 YOU CONFUSED? </s>
-0.3010 YOU DO? </s>
-0.3010 YOU DOING GOOD
-0.3010 YOU DOING? </s>
-0.6021 YOU DON'T KNOW
-0.6021 YOU DON'T UNDERSTAND
-0.3010 YOU FEEL? </s>
-0.3010 YOU FEELING? </s>
-0.3010 YOU GOOD </s>
-0.3010 YOU GOT IT
-0.3010 YOU HAD ENOUGH?
-0.3010 YOU HELP ME?
-0.3010 YOU HELP? </s>
-0.3010 YOU HERE? </s>
-0.3010 YOU HOW TO
-0.3010 YOU JUST SAID
-0.6021 YOU KNOW </s>
-0.6021 YOU KNOW IT
-1.4472 YOU LIKE IT?
-1.1461 YOU LIKE LEARNING
-1.4472 YOU LIKE LEARNING?
-1.4472 YOU LIKE ME?
-1.4472 YOU LIKE SEE
-1.4472 YOU LIKE THIS
-1.4472 YOU LIKE THIS?
-0.6690 YOU LIKE TO
-0.3010 YOU LIKE? </s>
-0.3010 YOU NOT SURE
-0.3010 YOU REAL? </s>
-0.3010 YOU RIGHT </s>
-0.3010 YOU SAID THAT
-0.3010 YOU SAY? </s>
-0.3010 YOU SORRY? </s>
-0.3010 YOU SOUND GOOD
-0.3010 YOU SUCK </s>
-0.3010 YOU TELLING ME
-0.3010 YOU THERE? </s>
-0.7782 YOU THINK </s>
-0.7782 YOU THINK ABOUT
-0.7782 YOU THINK SO
-0.3010 YOU THINK? </s>
-0.3010 YOU TO TALK
-0.3010 YOU TODAY? </s>
-0.3010 YOU UNDERSTAND? </s>
-0.3010 YOU VERY GOOD
-0.3010 YOU WANT TO
-0.3010 YOU WANT? </s>
-0.3010 YOU WORK </s>
-0.3010 YOUR DADDY? </s>
-0.3010 YOUR NAME? </s>
-0.3010 YOUR VOICE COULD
-0.3010 ZERO EIGHT FIVE

\end\
