Language model created by QuickLM on Sat Oct 15 15:06:25 EDT 2016
Copyright (c) 1996-2010 Carnegie Mellon University and Alexander I. Rudnicky

The model is in standard ARPA format, designed by Doug Paul while he was at MITRE.

The code that was used to produce this language model is available in Open Source.
Please visit http://www.speech.cs.cmu.edu/tools/ for more information

The (fixed) discount mass is 0.5. The backoffs are computed using the ratio method.
This model based on a corpus of 456 sentences and 390 words

\data\
ngram 1=390
ngram 2=907
ngram 3=993

\1-grams:
-0.9745 </s> -0.3010
-0.9745 <s> -0.2109
-2.6335 A -0.3000
-3.0314 ABOUT -0.2914
-3.0314 ABOUT? -0.2523
-3.6335 ACTUALLY -0.3006
-3.6335 ADD -0.3009
-3.0314 AH -0.2995
-3.6335 ALERT -0.2523
-3.3324 ALL -0.3002
-3.6335 ALOT -0.2523
-3.6335 ALRIGHT -0.2523
-3.6335 ALRIGHT... -0.2523
-2.2185 AM -0.2931
-3.3324 AMAZING -0.2520
-3.6335 AMBIENT -0.3007
-3.6335 AND -0.2523
-3.3324 ANGRY -0.2523
-3.6335 ANYTHING -0.2523
-3.6335 ANYTHING? -0.2523
-3.6335 ARCH -0.3009
-1.9345 ARE -0.2791
-3.6335 ARTIFICIAL -0.3009
-3.6335 ASKED -0.3000
-3.3324 ASSIST -0.2523
-2.2717 ASSISTANT -0.2520
-3.6335 AWAY -0.2523
-2.9345 AWESOME -0.2509
-3.3324 BACK -0.2519
-2.9345 BE -0.3003
-3.6335 BED -0.2523
-3.6335 BEER -0.2523
-3.6335 BETTER -0.2523
-3.6335 BILLION -0.3009
-3.6335 BLOCK -0.3008
-3.6335 BOB -0.2523
-3.6335 BROKEN -0.3008
-3.6335 BURPED -0.2523
-3.6335 C -0.2523
-2.9345 CAN -0.2914
-3.6335 CARE -0.3006
-3.3324 CHECK -0.3007
-3.6335 CHILL -0.3008
-3.6335 CLEAR -0.2523
-2.7304 CLOSE -0.2979
-3.1563 COFFEE -0.2523
-3.6335 COME -0.3008
-3.6335 COMMANDS -0.2523
-3.6335 COMP -0.2523
-3.6335 CONFUSED -0.2523
-3.6335 CONFUSED? -0.2523
-3.1563 CONNECTION -0.2523
-3.6335 CONTROL -0.3009
-3.1563 COOL -0.2523
-3.6335 CORPORATION -0.2523
-3.6335 COULD -0.3005
-3.6335 CRAZY -0.2523
-3.6335 CREEPY -0.2523
-3.6335 DADDY? -0.2523
-3.6335 DAMMIT -0.2523
-3.3324 DAMN -0.2514
-3.6335 DAY -0.2990
-3.3324 DEVICES -0.2523
-3.1563 DIDN'T -0.3005
-3.6335 DIRTY -0.2523
-2.4293 DO -0.2915
-2.9345 DO? -0.2523
-3.6335 DOCUMENT -0.2523
-3.1563 DOES -0.2993
-2.4574 DOING -0.2956
-3.6335 DOING? -0.2523
-2.7884 DON'T -0.2905
-3.3324 DONE -0.2523
-3.3324 DOWN -0.2523
-3.6335 DRINK -0.2523
-3.1563 DUDE -0.2523
-3.6335 ECHO -0.3009
-3.6335 EIGHT -0.3009
-3.6335 EIGHTEEN -0.3009
-3.6335 EIGHTY -0.3009
-3.6335 ELEVEN -0.3009
-3.6335 EM -0.2523
-3.1563 EMAIL -0.2518
-3.6335 ENOUGH -0.2523
-3.3324 ENOUGH? -0.2523
-2.7884 EVERYTHING -0.2500
-3.6335 EXCELLENT -0.2523
-3.6335 FACEBOOK -0.2523
-3.3324 FAIRLY -0.3003
-3.6335 FANTASTIC -0.2523
-3.3324 FAREWELL -0.2497
-3.6335 FARTED -0.2523
-2.8553 FEEL -0.2976
-3.1563 FEEL? -0.2523
-3.0314 FEELING -0.2966
-3.6335 FEELING? -0.2523
-3.6335 FIFTEEN -0.3009
-3.6335 FIFTY -0.3009
-3.6335 FILE -0.2523
-3.6335 FINALLY -0.2523
-2.9345 FINE -0.2523
-3.6335 FIVE -0.3009
-3.6335 FOOD -0.2523
-3.0314 FOR -0.2995
-3.6335 FORTY -0.3009
-3.6335 FOUR -0.3009
-3.6335 FOURTEEN -0.3009
-3.6335 FREAK -0.3008
-3.6335 FULL -0.3009
-3.3324 FUNNY -0.2523
-3.6335 GEE -0.3006
-3.6335 GET -0.3000
-3.1563 GETTING -0.3001
-3.1563 GO -0.2985
-3.6335 GOD -0.2523
-3.0314 GOING -0.2983
-3.3324 GOING? -0.2523
-2.2533 GOOD -0.2481
-3.3324 GOODBYE -0.2497
-3.3324 GOODNIGHT -0.2497
-3.6335 GOT -0.3002
-2.5921 GREAT -0.2487
-3.3324 GREETINGS -0.2497
-3.6335 GROOVY -0.2523
-3.3324 HAD -0.3008
-3.6335 HAPPEN -0.3009
-3.6335 HAPPENED? -0.2523
-3.3324 HAPPENING? -0.2523
-3.6335 HAPPY -0.2523
-3.6335 HARDER -0.2523
-3.6335 HATE -0.2915
-3.6335 HAVE -0.2915
-3.6335 HEAR -0.2915
-2.8553 HELLO -0.2473
-3.6335 HELP -0.3007
-3.6335 HELP? -0.2523
-3.6335 HERE -0.2523
-3.3324 HERE? -0.2523
-2.9345 HEY -0.2386
-3.1563 HI -0.2480
-3.6335 HILARIOUS -0.2523
-2.4574 HOW -0.2414
-3.6335 HOW'S -0.3002
-3.6335 HUNDRED -0.3009
-3.6335 HUNGRY -0.2523
-1.8931 I -0.2885
-3.3324 INCREDIBLE -0.2523
-3.6335 INDEED -0.2523
-3.6335 INTELLIGENCE -0.2523
-3.3324 INTERNET -0.3004
-2.3324 IS -0.2472
-3.6335 ISN'T -0.3003
-2.7304 IT -0.2484
-3.3324 IT'S -0.3008
-3.1563 IT? -0.2523
-3.0314 JOB -0.2523
-3.1563 JUST -0.3006
-3.6335 KIND -0.2523
-3.0314 KNOW -0.2514
-3.3324 LATER -0.2523
-3.6335 LEARN -0.2523
-2.8553 LEARNING -0.2982
-3.6335 LEARNING? -0.2523
-3.3324 LET'S -0.2996
-2.3112 LIKE -0.2455
-3.1563 LIKE? -0.2523
-3.0314 LIST -0.3004
-3.1563 LISTEN -0.2497
-3.6335 LOVE -0.2915
-3.6335 M -0.2523
-3.1563 MACHINE -0.2523
-3.6335 MAD -0.2523
-3.6335 MAKE -0.3000
-3.6335 MATRIX -0.2523
-3.6335 MATTER -0.2523
-3.6335 MAXIMIZE -0.3006
-3.3324 MAYBE -0.2521
-2.6335 ME -0.2472
-3.1563 ME? -0.2523
-3.6335 MEAN? -0.2523
-3.6335 MILLION -0.3009
-3.6335 MIND? -0.2523
-3.6335 MINIMIZE -0.3006
-3.6335 MINUTE -0.3009
-3.6335 MODULES -0.2523
-3.1563 MORNING -0.2497
-3.6335 MOST -0.3008
-3.3324 MUCH -0.2522
-3.1563 MUSIC -0.2523
-3.1563 MY -0.3006
-3.6335 NAME -0.2990
-3.3324 NAME? -0.2523
-3.0314 NEED -0.2410
-3.3324 NET -0.3004
-3.1563 NETWORK -0.3002
-3.6335 NEVERMIND -0.2523
-3.6335 NEW -0.3005
-3.6335 NEXT -0.3005
-3.0314 NICE -0.2513
-3.6335 NICELY -0.3008
-3.6335 NINE -0.3009
-3.6335 NINTEEN -0.3009
-3.6335 NINTY -0.3009
-3.6335 NO -0.2523
-3.3324 NOT -0.3005
-3.6335 NOTE -0.2523
-3.1563 NOTHING -0.2501
-3.6335 NUMBERS -0.3009
-3.6335 NUTS -0.2523
-3.1563 OH -0.2984
-2.9345 OK -0.2492
-3.6335 OK... -0.2523
-3.6335 OLD -0.2960
-3.3324 ON -0.2523
-3.1563 ON? -0.2523
-3.6335 ONE -0.3009
-3.6335 ONLINE? -0.2523
-3.6335 ONLY -0.3009
-2.6335 OPEN -0.2976
-3.6335 OTHER -0.3009
-3.3324 OUT -0.2523
-3.3324 PAGE -0.3000
-3.6335 PILL -0.2523
-3.6335 PING -0.3009
-3.6335 PISSED -0.2523
-3.0314 PLAY -0.2500
-2.9345 PLEASE -0.2488
-3.6335 PLUS -0.2523
-3.6335 POINT -0.2523
-3.0314 PRETTY -0.2979
-3.6335 PREVIOUS -0.3005
-3.6335 PROCESSES -0.2523
-3.3324 PROJECT -0.3008
-3.6335 QUESTION -0.2523
-3.1563 QUIET -0.2523
-2.9345 QUIT -0.2501
-3.6335 RANDOM -0.2523
-3.6335 READ -0.3000
-3.6335 READING -0.2523
-3.6335 READY -0.3006
-3.6335 REAL? -0.2523
-3.6335 REALLY -0.2523
-3.6335 REBOOT -0.3007
-3.3324 RECORD -0.2523
-3.3324 RED -0.3008
-3.3324 REE -0.2523
-3.6335 REWIND -0.2523
-2.7304 RIGHT -0.2495
-3.3324 RIGHTEOUS -0.2523
-3.1563 SAD -0.2523
-3.3324 SAID -0.3003
-3.6335 SANDWICH -0.2523
-3.6335 SAUCE -0.2523
-3.3324 SAVE -0.3008
-2.9345 SAY -0.2996
-3.6335 SAY? -0.2523
-3.6335 SCREEN -0.2523
-3.6335 SCREWED -0.3002
-3.3324 SEARCH -0.2516
-3.1563 SEE -0.2521
-3.6335 SEVEN -0.3009
-3.6335 SEVENTEEN -0.3009
-3.6335 SEVENTY -0.3009
-3.6335 SHIT -0.2523
-3.6335 SHOW -0.3005
-3.1563 SHUT -0.3002
-3.6335 SILENCE -0.2523
-3.1563 SING -0.2986
-3.6335 SINGING -0.2523
-3.6335 SIX -0.3009
-3.6335 SIXTEEN -0.3009
-3.6335 SIXTY -0.3009
-3.1563 SMART -0.2523
-3.6335 SMARTER -0.2523
-3.0314 SO -0.2517
-3.3324 SOME -0.3006
-3.1563 SOMETHING -0.2522
-3.0314 SONG -0.2523
-3.3324 SORRY -0.2523
-3.6335 SORRY? -0.2523
-3.6335 SOUND -0.2986
-3.6335 SOUNDS -0.2986
-3.1563 SPEAK -0.2523
-3.3324 SPEAK? -0.2523
-3.6335 SPEAKING -0.2523
-3.1563 SPEED -0.2523
-3.3324 START -0.2999
-2.9345 STATUS -0.2523
-3.6335 STELLA -0.2523
-2.7884 STOP -0.2500
-3.3324 STORY -0.2523
-3.3324 STUPID -0.2523
-3.6335 SUCK -0.2523
-3.6335 SUCKS -0.2523
-3.1563 SURE -0.2496
-3.6335 SURE? -0.2523
-3.6335 SUSPEND -0.3007
-3.6335 SWEET -0.2523
-3.6335 SYSTEM -0.3005
-2.9345 TAB -0.2523
-3.6335 TABS -0.2523
-2.4873 TALK -0.2484
-3.3324 TALKING -0.2496
-3.3324 TEACHING -0.2915
-3.3324 TELL -0.3000
-3.6335 TELLING -0.3000
-3.6335 TEN -0.3009
-3.0314 TERMINAL -0.2523
-3.6335 TERRIBLE -0.2523
-2.8553 TEST -0.3003
-3.3324 THANK -0.2417
-3.0314 THANKS -0.2390
-2.7884 THAT -0.2513
-2.8553 THAT'S -0.2983
-2.7884 THE -0.2997
-3.6335 THEN? -0.2523
-3.1563 THERE -0.2523
-3.3324 THERE? -0.2523
-3.0314 THINGS -0.2958
-3.3324 THINGS? -0.2523
-2.9345 THINK -0.2514
-3.1563 THINK? -0.2523
-3.6335 THIRTEEN -0.3009
-3.6335 THIRTY -0.3009
-3.3324 THIS -0.2520
-3.6335 THIS? -0.2523
-3.6335 THOUSAND -0.3009
-3.6335 THREE -0.3009
-3.6335 THUNDERBIRD -0.2523
-3.1563 TIME -0.2501
-3.6335 TIME? -0.2523
-3.6335 TIMER -0.2523
-2.9345 TIRED -0.2523
-2.2533 TO -0.2868
-3.3324 TODAY? -0.2523
-3.6335 TOTALLY -0.2523
-3.1563 TRUE -0.2516
-3.6335 TRY -0.3009
-3.6335 TWELVE -0.3009
-3.6335 TWENTY -0.3009
-3.6335 TWO -0.3009
-3.6335 TYPING -0.2523
-3.6335 TYRELL -0.3009
-3.6335 UNDERSTAND -0.2523
-3.3324 UNDERSTAND? -0.2523
-2.7304 UP -0.2495
-3.6335 UP? -0.2523
-3.6335 UPSET -0.2523
-3.6335 USERNAME -0.2523
-2.8553 VERY -0.2975
-3.3324 VOICE -0.3008
-3.6335 VOID -0.3009
-3.3324 VOLUME -0.3000
-3.6335 WAKE -0.3002
-2.7304 WANT -0.2971
-3.6335 WANT? -0.2523
-3.1563 WE -0.3005
-3.6335 WE? -0.2523
-3.6335 WEATHER -0.3008
-2.7884 WEB -0.2523
-3.6335 WEBLIFE -0.2523
-3.3324 WELCOME -0.2497
-2.7884 WELL -0.2521
-2.1421 WHAT -0.2868
-2.9345 WHAT'S -0.2994
-3.1563 WHAT? -0.2523
-3.0314 WHERE -0.2939
-3.1563 WHO -0.2938
-3.1563 WHY -0.2952
-3.6335 WHY? -0.2523
-3.6335 WIKI -0.2523
-3.0314 WINDOW -0.2523
-3.3324 WITH -0.2905
-3.0314 WONDERFUL -0.2523
-3.6335 WOOD? -0.2523
-2.9345 WORK -0.2523
-3.3324 WORKING -0.2496
-2.9345 WOULD -0.2893
-3.6335 WOW -0.2523
-2.9345 WRONG -0.2497
-3.6335 X -0.2523
-3.6335 YAY -0.2523
-3.6335 YEAH -0.2523
-3.3324 YES -0.2518
-3.6335 YO -0.2987
-1.6650 YOU -0.2246
-2.6335 YOU? -0.2523
-3.1563 YOUR -0.3005
-3.6335 YOUTUBE -0.2523
-3.6335 ZERO -0.3009

\2-grams:
-2.9600 <s> ADD 0.0000
-2.3579 <s> AH 0.0000
-2.6590 <s> ALL 0.0000
-2.6590 <s> AM -0.2663
-2.6590 <s> AMAZING 0.0000
-2.1149 <s> ARE -0.1987
-2.9600 <s> ASSIST 0.0000
-2.6590 <s> ASSISTANT 0.0000
-2.2610 <s> AWESOME 0.0000
-2.9600 <s> BACK -0.1761
-2.9600 <s> BE -0.1461
-2.9600 <s> BROKEN 0.0000
-2.6590 <s> CAN -0.0792
-2.6590 <s> CHECK 0.0000
-2.9600 <s> CHILL 0.0000
-2.9600 <s> CLEAR 0.0000
-2.0569 <s> CLOSE 0.0000
-2.9600 <s> COME 0.0000
-2.9600 <s> CONTROL 0.0000
-2.9600 <s> COOL 0.0000
-2.9600 <s> CRAZY 0.0000
-2.9600 <s> CREEPY 0.0000
-2.9600 <s> DAMN -0.1761
-2.2610 <s> DO 0.0000
-2.2610 <s> DOING -0.0280
-2.6590 <s> DON'T -0.1963
-2.9600 <s> DUDE 0.0000
-2.9600 <s> ECHO 0.0000
-2.9600 <s> ENOUGH 0.0000
-2.1818 <s> EVERYTHING 0.0000
-2.9600 <s> EXCELLENT 0.0000
-2.6590 <s> FAREWELL 0.0000
-2.9600 <s> FEEL -0.2632
-2.3579 <s> FEELING 0.0000
-2.9600 <s> FINALLY 0.0000
-2.9600 <s> FINE 0.0000
-2.6590 <s> FOR -0.1761
-2.9600 <s> FREAK 0.0000
-2.9600 <s> FULL 0.0000
-2.9600 <s> FUNNY 0.0000
-2.9600 <s> GEE 0.0000
-2.9600 <s> GET 0.0000
-2.4829 <s> GO 0.0000
-2.1818 <s> GOOD -0.0177
-2.6590 <s> GOODBYE 0.0000
-2.6590 <s> GOODNIGHT 0.0000
-2.4829 <s> GREAT -0.0378
-2.6590 <s> GREETINGS 0.0000
-2.9600 <s> GROOVY 0.0000
-2.9600 <s> HAD 0.0000
-2.9600 <s> HAVE 0.0000
-2.1818 <s> HELLO 0.0000
-2.2610 <s> HEY 0.0000
-2.4829 <s> HI 0.0000
-2.9600 <s> HILARIOUS 0.0000
-1.9186 <s> HOW -0.0280
-2.9600 <s> HOW'S 0.0000
-1.2196 <s> I 0.0000
-2.9600 <s> INDEED 0.0000
-2.9600 <s> IS -0.2788
-2.9600 <s> ISN'T 0.0000
-2.9600 <s> IT -0.2730
-2.6590 <s> IT'S 0.0000
-2.9600 <s> LATER 0.0000
-2.6590 <s> LEARNING -0.0669
-2.6590 <s> LET'S 0.0000
-2.3579 <s> LIKE -0.2341
-2.3579 <s> LIST 0.0000
-2.6590 <s> LISTEN 0.0000
-2.9600 <s> MAKE 0.0000
-2.9600 <s> MATRIX 0.0000
-2.9600 <s> MAXIMIZE 0.0000
-2.6590 <s> MAYBE 0.0000
-2.9600 <s> MINIMIZE 0.0000
-2.6590 <s> MORNING 0.0000
-2.9600 <s> MOST 0.0000
-2.9600 <s> MY -0.2218
-2.9600 <s> NEVERMIND 0.0000
-2.9600 <s> NEW 0.0000
-2.9600 <s> NEXT 0.0000
-2.4829 <s> NICE 0.0000
-2.9600 <s> NICELY 0.0000
-2.9600 <s> NO 0.0000
-2.9600 <s> NOT -0.1761
-2.4829 <s> NOTHING 0.0000
-2.4829 <s> OH 0.0000
-2.4829 <s> OK 0.0000
-1.9600 <s> OPEN 0.0000
-2.6590 <s> PAGE 0.0000
-2.9600 <s> PING 0.0000
-2.3579 <s> PLAY 0.0000
-2.3579 <s> PLEASE 0.0000
-2.9600 <s> PRETTY -0.0969
-2.9600 <s> PREVIOUS 0.0000
-2.2610 <s> QUIT 0.0000
-2.9600 <s> READ 0.0000
-2.9600 <s> REALLY 0.0000
-2.9600 <s> REBOOT 0.0000
-2.9600 <s> RECORD 0.0000
-2.6590 <s> RED 0.0000
-2.9600 <s> REWIND 0.0000
-2.6590 <s> RIGHT -0.0512
-2.9600 <s> RIGHTEOUS 0.0000
-2.9600 <s> SAD 0.0000
-2.6590 <s> SAVE 0.0000
-2.6590 <s> SAY -0.2041
-2.6590 <s> SEARCH 0.0000
-2.9600 <s> SEE -0.1249
-2.9600 <s> SHOW 0.0000
-2.6590 <s> SHUT 0.0000
-2.9600 <s> SILENCE 0.0000
-2.4829 <s> SING 0.0000
-2.9600 <s> SO -0.2430
-2.9600 <s> SORRY 0.0000
-2.9600 <s> SOUNDS 0.0000
-2.6590 <s> START 0.0000
-2.1149 <s> STOP -0.0000
-2.9600 <s> STUPID 0.0000
-2.6590 <s> SURE -0.1249
-2.9600 <s> SUSPEND 0.0000
-2.9600 <s> SYSTEM 0.0000
-2.6590 <s> TALK -0.2688
-2.6590 <s> TELL 0.0000
-2.9600 <s> TERMINAL 0.0000
-2.9600 <s> TERRIBLE 0.0000
-2.1818 <s> TEST 0.0000
-2.6590 <s> THANK 0.0000
-2.4829 <s> THANKS 0.0000
-2.1818 <s> THAT'S 0.0000
-2.3579 <s> THINGS 0.0000
-2.9600 <s> TIME -0.1249
-2.9600 <s> TIRED 0.0000
-2.9600 <s> TOTALLY 0.0000
-2.6590 <s> TRUE 0.0000
-2.9600 <s> TRY 0.0000
-2.9600 <s> TYRELL 0.0000
-2.1818 <s> VERY 0.0000
-2.9600 <s> VOICE -0.1761
-2.9600 <s> VOID 0.0000
-2.6590 <s> VOLUME 0.0000
-2.9600 <s> WAKE 0.0000
-2.9600 <s> WANT -0.1761
-2.9600 <s> WELL -0.2688
-1.4829 <s> WHAT -0.0138
-2.2610 <s> WHAT'S 0.0000
-2.3579 <s> WHERE 0.0000
-2.4829 <s> WHO 0.0000
-2.4829 <s> WHY 0.0000
-2.9600 <s> WHY? 0.0000
-2.9600 <s> WONDERFUL 0.0000
-2.9600 <s> WOW 0.0000
-2.6590 <s> WRONG 0.0000
-2.9600 <s> YAY 0.0000
-2.9600 <s> YEAH 0.0000
-2.6590 <s> YES 0.0000
-2.9600 <s> YO 0.0000
-1.3265 <s> YOU -0.1455
-2.9600 <s> YOUR -0.2218
-2.9600 <s> ZERO 0.0000
-1.3010 A BEER 0.0000
-1.3010 A DRINK 0.0000
-1.3010 A MINUTE 0.0000
-1.3010 A SANDWICH 0.0000
-0.6990 A SONG 0.0000
-1.0000 A STORY 0.0000
-0.9031 ABOUT ANYTHING? 0.0000
-0.4260 ABOUT YOU -0.2721
-0.3010 ABOUT? </s> -0.3010
-0.3010 ACTUALLY GOING -0.0969
-0.3010 ADD NUMBERS 0.0000
-0.9031 AH DAMMIT 0.0000
-0.9031 AH DAMN -0.1761
-0.9031 AH GREAT -0.1047
-0.9031 AH SHIT 0.0000
-0.3010 ALERT </s> -0.3010
-0.3010 ALL RIGHT -0.0512
-0.3010 ALOT </s> -0.3010
-0.3010 ALRIGHT </s> -0.3010
-0.3010 ALRIGHT... </s> -0.3010
-1.7160 AM ALRIGHT 0.0000
-1.7160 AM ANGRY 0.0000
-0.9379 AM DOING -0.0792
-1.4150 AM FINE 0.0000
-1.7160 AM GETTING -0.2218
-1.7160 AM GOOD -0.0969
-1.7160 AM HUNGRY 0.0000
-1.7160 AM OK -0.1461
-1.7160 AM ONLY 0.0000
-1.7160 AM PISSED 0.0000
-1.7160 AM READY 0.0000
-1.7160 AM SORRY 0.0000
-1.4150 AM TALKING 0.0000
-1.4150 AM TEACHING 0.0000
-1.4150 AM TIRED 0.0000
-1.7160 AM UPSET 0.0000
-1.7160 AM WELL -0.0580
-0.6021 AMAZING </s> -0.3010
-0.6021 AMAZING DUDE 0.0000
-0.3010 AMBIENT MUSIC 0.0000
-0.3010 AND </s> -0.3010
-0.3010 ANGRY </s> -0.3010
-0.3010 ANYTHING </s> -0.3010
-0.3010 ANYTHING? </s> -0.3010
-0.3010 ARCH WIKI 0.0000
-2.0000 ARE ARTIFICIAL 0.0000
-2.0000 ARE BACK -0.1761
-2.0000 ARE CONFUSED 0.0000
-1.3979 ARE DOING -0.1856
-2.0000 ARE FINE 0.0000
-1.6990 ARE GETTING -0.1249
-2.0000 ARE GOOD -0.0969
-2.0000 ARE GREAT -0.1047
-2.0000 ARE HERE 0.0000
-2.0000 ARE INCREDIBLE 0.0000
-2.0000 ARE LEARNING -0.0669
-2.0000 ARE RIGHT -0.0969
-2.0000 ARE SCREWED 0.0000
-2.0000 ARE SMART 0.0000
-2.0000 ARE SO -0.2430
-2.0000 ARE THERE 0.0000
-1.6990 ARE THINGS? 0.0000
-1.5229 ARE WE 0.0000
-2.0000 ARE WE? 0.0000
-1.6990 ARE WELCOME 0.0000
-2.0000 ARE WONDERFUL 0.0000
-1.6990 ARE WORKING 0.0000
-2.0000 ARE WRONG -0.0792
-1.0000 ARE YOU -0.2746
-1.0969 ARE YOU? 0.0000
-0.3010 ARTIFICIAL INTELLIGENCE 0.0000
-0.3010 ASKED YOU? 0.0000
-0.3010 ASSIST </s> -0.3010
-0.3203 ASSISTANT </s> -0.3010
-1.6628 ASSISTANT SHUT 0.0000
-0.3010 AWAY </s> -0.3010
-1.0000 AWESOME </s> -0.3010
-1.0000 AWESOME DUDE 0.0000
-1.0000 AWESOME JOB 0.0000
-1.0000 AWESOME SAUCE 0.0000
-1.0000 AWESOME WORK 0.0000
-0.6021 BACK </s> -0.3010
-0.6021 BACK WINDOW 0.0000
-1.0000 BE BETTER 0.0000
-1.0000 BE LIKE? 0.0000
-0.5229 BE QUIET 0.0000
-0.3010 BED </s> -0.3010
-0.3010 BEER </s> -0.3010
-0.3010 BETTER </s> -0.3010
-0.3010 BILLION MILLION 0.0000
-0.3010 BLOCK DEVICES 0.0000
-0.3010 BOB </s> -0.3010
-0.3010 BROKEN RECORD 0.0000
-0.3010 BURPED </s> -0.3010
-0.3010 C </s> -0.3010
-1.0000 CAN HEAR 0.0000
-0.3979 CAN YOU -0.2916
-0.3010 CARE ABOUT? 0.0000
-0.3010 CHECK EMAIL 0.0000
-0.3010 CHILL OUT 0.0000
-0.3010 CLEAR </s> -0.3010
-1.2041 CLOSE EMAIL -0.1249
-1.2041 CLOSE OTHER 0.0000
-1.2041 CLOSE PROJECT -0.1761
-1.2041 CLOSE STATUS 0.0000
-1.2041 CLOSE TAB 0.0000
-1.2041 CLOSE TERMINAL 0.0000
-1.2041 CLOSE WEB 0.0000
-1.2041 CLOSE WINDOW 0.0000
-0.3010 COFFEE </s> -0.3010
-0.3010 COME ON 0.0000
-0.3010 COMMANDS </s> -0.3010
-0.3010 COMP </s> -0.3010
-0.3010 CONFUSED </s> -0.3010
-0.3010 CONFUSED? </s> -0.3010
-0.3010 CONNECTION </s> -0.3010
-0.3010 CONTROL C 0.0000
-0.3010 COOL </s> -0.3010
-0.3010 CORPORATION </s> -0.3010
-0.3010 COULD BE -0.2553
-0.3010 CRAZY </s> -0.3010
-0.3010 CREEPY </s> -0.3010
-0.3010 DADDY? </s> -0.3010
-0.3010 DAMMIT </s> -0.3010
-0.6021 DAMN </s> -0.3010
-0.6021 DAMN IT -0.2109
-0.3010 DAY IS -0.2788
-0.3010 DEVICES </s> -0.3010
-0.3010 DIDN'T SAY -0.1461
-0.3010 DIRTY </s> -0.3010
-0.3010 DO YOU -0.2356
-0.3010 DO? </s> -0.3010
-0.3010 DOCUMENT </s> -0.3010
-0.7782 DOES IT -0.2730
-0.7782 DOES THAT -0.2688
-0.7782 DOES THIS -0.1761
-1.1761 DOING FAIRLY 0.0000
-0.8751 DOING GOOD -0.0822
-1.0000 DOING GREAT -0.0726
-1.4771 DOING OK -0.1461
-1.0000 DOING PRETTY 0.0000
-1.1761 DOING WELL -0.0580
-0.3010 DOING? </s> -0.3010
-0.8451 DON'T KNOW -0.0969
-1.1461 DON'T THINK -0.2041
-1.1461 DON'T UNDERSTAND 0.0000
-0.6690 DON'T YOU -0.2542
-0.3010 DONE </s> -0.3010
-0.3010 DOWN </s> -0.3010
-0.3010 DRINK </s> -0.3010
-0.3010 DUDE </s> -0.3010
-0.3010 ECHO USERNAME 0.0000
-0.3010 EIGHT FIVE 0.0000
-0.3010 EIGHTEEN ELEVEN 0.0000
-0.3010 EIGHTY FIFTY 0.0000
-0.3010 ELEVEN FIFTEEN 0.0000
-0.3010 EM </s> -0.3010
-0.4771 EMAIL </s> -0.3010
-0.7782 EMAIL PLEASE -0.2041
-0.3010 ENOUGH </s> -0.3010
-0.3010 ENOUGH? </s> -0.3010
-0.8451 EVERYTHING </s> -0.3010
-0.5441 EVERYTHING IS -0.2553
-1.1461 EVERYTHING SUCKS 0.0000
-0.3010 EXCELLENT </s> -0.3010
-0.3010 FACEBOOK </s> -0.3010
-0.3010 FAIRLY WELL -0.0580
-0.3010 FANTASTIC </s> -0.3010
-0.6021 FAREWELL </s> -0.3010
-0.6021 FAREWELL ASSISTANT -0.0185
-0.3010 FARTED </s> -0.3010
-1.0792 FEEL ANGRY 0.0000
-1.0792 FEEL GOOD -0.0969
-1.0792 FEEL HAPPY 0.0000
-1.0792 FEEL MAD 0.0000
-1.0792 FEEL ME? 0.0000
-1.0792 FEEL SAD 0.0000
-0.3010 FEEL? </s> -0.3010
-0.9031 FEELING GOOD -0.0969
-0.9031 FEELING GREAT -0.1047
-0.9031 FEELING TIRED 0.0000
-0.9031 FEELING WONDERFUL 0.0000
-0.3010 FEELING? </s> -0.3010
-0.3010 FIFTEEN FOURTEEN 0.0000
-0.3010 FIFTY FORTY 0.0000
-0.3010 FILE </s> -0.3010
-0.3010 FINALLY </s> -0.3010
-0.3010 FINE </s> -0.3010
-0.3010 FIVE FOUR 0.0000
-0.3010 FOOD </s> -0.3010
-0.9031 FOR BED 0.0000
-0.9031 FOR ME -0.2553
-0.9031 FOR SURE? 0.0000
-0.9031 FOR WHAT? 0.0000
-0.3010 FORTY NINTY 0.0000
-0.3010 FOUR NINE 0.0000
-0.3010 FOURTEEN NINTEEN 0.0000
-0.3010 FREAK OUT 0.0000
-0.3010 FULL SCREEN 0.0000
-0.3010 FUNNY </s> -0.3010
-0.3010 GEE THANKS -0.1761
-0.3010 GET ME -0.1461
-0.7782 GETTING SMART 0.0000
-0.7782 GETTING SMARTER 0.0000
-0.7782 GETTING TIRED 0.0000
-0.7782 GO AWAY 0.0000
-0.4771 GO TO -0.2825
-0.3010 GOD </s> -0.3010
-0.9031 GOING GOOD -0.0969
-0.4260 GOING ON? 0.0000
-0.3010 GOING? </s> -0.3010
-0.4260 GOOD </s> -0.3010
-1.6812 GOOD ASSISTANT -0.0185
-1.6812 GOOD JOB 0.0000
-1.6812 GOOD MORNING -0.1249
-1.6812 GOOD POINT 0.0000
-1.6812 GOOD QUESTION 0.0000
-1.6812 GOOD WORK 0.0000
-0.6021 GOODBYE </s> -0.3010
-0.6021 GOODBYE ASSISTANT -0.0185
-0.6021 GOODNIGHT </s> -0.3010
-0.6021 GOODNIGHT ASSISTANT -0.0185
-0.3010 GOT IT -0.2730
-0.4393 GREAT </s> -0.3010
-1.3424 GREAT ASSISTANT -0.0185
-1.3424 GREAT JOB 0.0000
-1.3424 GREAT WORK 0.0000
-0.6021 GREETINGS </s> -0.3010
-0.6021 GREETINGS ASSISTANT -0.0185
-0.3010 GROOVY </s> -0.3010
-0.3010 HAD ENOUGH? 0.0000
-0.3010 HAPPEN THEN? 0.0000
-0.3010 HAPPENED? </s> -0.3010
-0.3010 HAPPENING? </s> -0.3010
-0.3010 HAPPY </s> -0.3010
-0.3010 HARDER </s> -0.3010
-0.3010 HATE YOU -0.2721
-0.3010 HAVE YOU -0.2987
-0.3010 HEAR YOU -0.2721
-1.0792 HELLO </s> -0.3010
-1.0792 HELLO ASSISTANT -0.0185
-0.7782 HELLO HOW -0.1663
-1.0792 HELLO MACHINE 0.0000
-1.0792 HELLO THERE 0.0000
-0.3010 HELP ME? 0.0000
-0.3010 HELP? </s> -0.3010
-0.3010 HERE </s> -0.3010
-0.3010 HERE? </s> -0.3010
-1.0000 HEY </s> -0.3010
-1.0000 HEY ASSISTANT -0.0185
-1.0000 HEY STELLA 0.0000
-1.0000 HEY THERE 0.0000
-1.0000 HEY YOU -0.2721
-0.7782 HI </s> -0.3010
-0.7782 HI ASSISTANT -0.0185
-0.7782 HI HOW -0.1663
-0.3010 HILARIOUS </s> -0.3010
-1.4771 HOW </s> -0.3010
-0.5740 HOW ARE -0.2041
-1.4771 HOW DO 0.0000
-1.1761 HOW DOES -0.1249
-1.4771 HOW MUCH -0.1761
-1.4771 HOW OLD 0.0000
-1.4771 HOW TO -0.1996
-0.3010 HOW'S IT -0.2730
-0.3010 HUNDRED BILLION 0.0000
-0.3010 HUNGRY </s> -0.3010
-0.6612 I AM 0.0000
-2.0414 I CAN -0.2553
-1.5643 I DIDN'T 0.0000
-1.7404 I DON'T -0.1963
-1.3424 I FEEL -0.0669
-2.0414 I GOOD -0.0969
-2.0414 I HATE 0.0000
-1.7404 I JUST -0.1249
-2.0414 I LIKE -0.2906
-2.0414 I LOVE 0.0000
-1.4393 I NEED 0.0000
-2.0414 I SEE -0.2218
-2.0414 I THINK -0.2041
-1.2632 I WANT 0.0000
-1.7404 I WOULD -0.2041
-0.3010 INCREDIBLE </s> -0.3010
-0.3010 INDEED </s> -0.3010
-0.3010 INTELLIGENCE </s> -0.3010
-0.6021 INTERNET CONNECTION 0.0000
-0.6021 INTERNET SPEED 0.0000
-1.3010 IS </s> -0.3010
-1.6021 IS ALOT 0.0000
-1.6021 IS BOB 0.0000
-1.6021 IS FANTASTIC 0.0000
-1.3010 IS GOING 0.0000
-1.6021 IS GREAT -0.1047
-1.6021 IS HAPPENING? 0.0000
-1.3010 IS IT? 0.0000
-1.3010 IS MY -0.1249
-1.1249 IS THE -0.1963
-1.6021 IS WONDERFUL 0.0000
-1.6021 IS WRONG -0.0792
-1.3010 IS YOUR -0.1249
-0.3010 ISN'T THAT -0.2688
-0.7270 IT </s> -0.3010
-1.2041 IT BE -0.2553
-1.2041 IT FEEL? 0.0000
-1.2041 IT GOING? 0.0000
-1.2041 IT IS -0.2788
-1.2041 IT WRONG -0.0792
-0.6021 IT'S ALRIGHT... 0.0000
-0.6021 IT'S OK... 0.0000
-0.3010 IT? </s> -0.3010
-0.3010 JOB </s> -0.3010
-0.7782 JUST BURPED 0.0000
-0.7782 JUST FARTED 0.0000
-0.7782 JUST SAID 0.0000
-0.3010 KIND </s> -0.3010
-0.4260 KNOW </s> -0.3010
-0.9031 KNOW IT -0.2109
-0.3010 LATER </s> -0.3010
-0.3010 LEARN </s> -0.3010
-1.0792 LEARNING ABOUT? 0.0000
-0.3802 LEARNING TO -0.1383
-0.3010 LEARNING? </s> -0.3010
-0.3010 LET'S TALK -0.1091
-1.6232 LIKE </s> -0.3010
-1.6232 LIKE EVERYTHING -0.2341
-1.6232 LIKE IT? 0.0000
-1.1461 LIKE LEARNING 0.0000
-1.6232 LIKE LEARNING? 0.0000
-1.6232 LIKE ME? 0.0000
-1.6232 LIKE SEE -0.1249
-1.6232 LIKE THAT -0.1091
-1.6232 LIKE THIS -0.1761
-1.6232 LIKE THIS? 0.0000
-0.7202 LIKE TO -0.0969
-1.6232 LIKE WHAT? 0.0000
-0.3010 LIKE? </s> -0.3010
-0.9031 LIST BLOCK 0.0000
-0.9031 LIST MODULES 0.0000
-0.9031 LIST NETWORK -0.2218
-0.9031 LIST PROCESSES 0.0000
-0.4771 LISTEN </s> -0.3010
-0.7782 LISTEN ASSISTANT -0.0185
-0.3010 LOVE YOU -0.2721
-0.3010 M </s> -0.3010
-0.3010 MACHINE </s> -0.3010
-0.3010 MAD </s> -0.3010
-0.3010 MAKE ME -0.1461
-0.3010 MATRIX </s> -0.3010
-0.3010 MATTER </s> -0.3010
-0.3010 MAXIMIZE WINDOW 0.0000
-0.6021 MAYBE </s> -0.3010
-0.6021 MAYBE LATER 0.0000
-1.0000 ME </s> -0.3010
-0.5229 ME A -0.0792
-1.3010 ME ABOUT -0.0969
-1.3010 ME WHAT -0.2940
-0.3010 ME? </s> -0.3010
-0.3010 MEAN? </s> -0.3010
-0.3010 MILLION THOUSAND 0.0000
-0.3010 MIND? </s> -0.3010
-0.3010 MINIMIZE WINDOW 0.0000
-0.3010 MINUTE TIMER 0.0000
-0.3010 MODULES </s> -0.3010
-0.4771 MORNING </s> -0.3010
-0.7782 MORNING ASSISTANT -0.0185
-0.3010 MOST RIGHTEOUS 0.0000
-0.6021 MUCH </s> -0.3010
-0.6021 MUCH WOOD? 0.0000
-0.3010 MUSIC </s> -0.3010
-0.7782 MY MIND? 0.0000
-0.7782 MY NAME 0.0000
-0.7782 MY NAME? 0.0000
-0.3010 NAME IS -0.2900
-0.3010 NAME? </s> -0.3010
-0.9031 NEED </s> -0.3010
-0.9031 NEED COFFEE 0.0000
-0.9031 NEED SOMETHING -0.1249
-0.9031 NEED YOU -0.2721
-0.6021 NET CONNECTION 0.0000
-0.6021 NET SPEED 0.0000
-0.7782 NETWORK CONNECTION 0.0000
-0.7782 NETWORK DEVICES 0.0000
-0.7782 NETWORK SPEED 0.0000
-0.3010 NEVERMIND </s> -0.3010
-0.3010 NEW TAB 0.0000
-0.3010 NEXT TAB 0.0000
-0.6021 NICE </s> -0.3010
-0.9031 NICE JOB 0.0000
-0.9031 NICE WORK 0.0000
-0.3010 NICELY DONE 0.0000
-0.3010 NINE ONE 0.0000
-0.3010 NINTEEN SEVENTEEN 0.0000
-0.3010 NINTY SEVENTY 0.0000
-0.3010 NO </s> -0.3010
-0.6021 NOT MUCH -0.1761
-0.6021 NOT SURE -0.2218
-0.3010 NOTE </s> -0.3010
-0.7782 NOTHING </s> -0.3010
-0.4771 NOTHING IS -0.2553
-0.3010 NUMBERS PLUS 0.0000
-0.3010 NUTS </s> -0.3010
-0.7782 OH ASSIST 0.0000
-0.7782 OH ASSISTANT -0.0185
-0.7782 OH GOD 0.0000
-0.5229 OK </s> -0.3010
-1.0000 OK ASSISTANT -0.0185
-1.0000 OK FINE 0.0000
-0.3010 OK... </s> -0.3010
-0.3010 OLD ARE -0.2648
-0.3010 ON </s> -0.3010
-0.3010 ON? </s> -0.3010
-0.3010 ONE SEVEN 0.0000
-0.3010 ONLINE? </s> -0.3010
-0.3010 ONLY TYPING 0.0000
-1.3010 OPEN ARCH 0.0000
-1.3010 OPEN COMMANDS 0.0000
-1.3010 OPEN FACEBOOK 0.0000
-1.3010 OPEN PROJECT -0.1761
-1.3010 OPEN STATUS 0.0000
-1.3010 OPEN TAB 0.0000
-1.3010 OPEN TERMINAL 0.0000
-1.3010 OPEN THE -0.1963
-1.3010 OPEN WEB 0.0000
-1.3010 OPEN YOUTUBE 0.0000
-0.3010 OTHER TABS 0.0000
-0.3010 OUT </s> -0.3010
-0.6021 PAGE DOWN 0.0000
-0.6021 PAGE UP -0.0969
-0.3010 PILL </s> -0.3010
-0.3010 PING WEBLIFE 0.0000
-0.3010 PISSED </s> -0.3010
-0.9031 PLAY </s> -0.3010
-0.9031 PLAY A -0.2041
-0.9031 PLAY AMBIENT 0.0000
-0.9031 PLAY ME -0.1461
-0.6990 PLEASE </s> -0.3010
-1.0000 PLEASE ASSISTANT -0.0185
-1.0000 PLEASE BE -0.1461
-1.0000 PLEASE LISTEN -0.1249
-0.3010 PLUS </s> -0.3010
-0.3010 POINT </s> -0.3010
-0.4260 PRETTY GOOD -0.0969
-0.9031 PRETTY WELL -0.0580
-0.3010 PREVIOUS TAB 0.0000
-0.3010 PROCESSES </s> -0.3010
-0.6021 PROJECT EM 0.0000
-0.6021 PROJECT M 0.0000
-0.3010 QUESTION </s> -0.3010
-0.3010 QUIET </s> -0.3010
-1.0000 QUIT </s> -0.3010
-1.0000 QUIT STATUS 0.0000
-1.0000 QUIT THE -0.1963
-1.0000 QUIT THUNDERBIRD 0.0000
-1.0000 QUIT WEB 0.0000
-0.3010 RANDOM </s> -0.3010
-0.3010 READ ME -0.1461
-0.3010 READING </s> -0.3010
-0.3010 READY FOR -0.2430
-0.3010 REAL? </s> -0.3010
-0.3010 REALLY </s> -0.3010
-0.3010 REBOOT MACHINE 0.0000
-0.3010 RECORD </s> -0.3010
-0.6021 RED ALERT 0.0000
-0.6021 RED PILL 0.0000
-0.3010 REE </s> -0.3010
-0.3010 REWIND </s> -0.3010
-0.4260 RIGHT </s> -0.3010
-1.2041 RIGHT ASSISTANT -0.0185
-1.2041 RIGHT ON 0.0000
-0.3010 RIGHTEOUS </s> -0.3010
-0.3010 SAD </s> -0.3010
-0.3010 SAID THAT -0.1091
-0.3010 SANDWICH </s> -0.3010
-0.3010 SAUCE </s> -0.3010
-0.6021 SAVE DOCUMENT 0.0000
-0.6021 SAVE FILE 0.0000
-1.0000 SAY ANYTHING 0.0000
-1.0000 SAY SAD 0.0000
-0.6990 SAY SOMETHING 0.0000
-1.0000 SAY THAT -0.1091
-0.3010 SAY? </s> -0.3010
-0.3010 SCREEN </s> -0.3010
-0.3010 SCREWED UP -0.0969
-0.6021 SEARCH </s> -0.3010
-0.6021 SEARCH WEB 0.0000
-0.7782 SEE </s> -0.3010
-0.4771 SEE REE 0.0000
-0.3010 SEVEN SIX 0.0000
-0.3010 SEVENTEEN SIXTEEN 0.0000
-0.3010 SEVENTY SIXTY 0.0000
-0.3010 SHIT </s> -0.3010
-0.3010 SHOW STATUS 0.0000
-0.3010 SHUT UP -0.0512
-0.3010 SILENCE </s> -0.3010
-0.7782 SING A -0.2041
-0.7782 SING FOR -0.2430
-0.7782 SING ME -0.1461
-0.3010 SINGING </s> -0.3010
-0.3010 SIX THREE 0.0000
-0.3010 SIXTEEN TEN 0.0000
-0.3010 SIXTY THIRTY 0.0000
-0.3010 SMART </s> -0.3010
-0.3010 SMARTER </s> -0.3010
-0.6021 SO </s> -0.3010
-0.9031 SO COOL 0.0000
-0.9031 SO SMART 0.0000
-0.6021 SOME COFFEE 0.0000
-0.6021 SOME FOOD 0.0000
-0.4771 SOMETHING </s> -0.3010
-0.7782 SOMETHING RANDOM 0.0000
-0.3010 SONG </s> -0.3010
-0.3010 SORRY </s> -0.3010
-0.3010 SORRY? </s> -0.3010
-0.3010 SOUND GOOD -0.0969
-0.3010 SOUNDS GOOD -0.0969
-0.3010 SPEAK </s> -0.3010
-0.3010 SPEAK? </s> -0.3010
-0.3010 SPEAKING </s> -0.3010
-0.3010 SPEED </s> -0.3010
-0.6021 START A -0.2788
-0.6021 START X 0.0000
-0.3010 STATUS </s> -0.3010
-0.3010 STELLA </s> -0.3010
-1.1461 STOP </s> -0.3010
-1.1461 STOP IT -0.2109
-1.1461 STOP MUSIC 0.0000
-1.1461 STOP READING 0.0000
-1.1461 STOP SINGING 0.0000
-1.1461 STOP SPEAKING 0.0000
-1.1461 STOP THE -0.2688
-0.3010 STORY </s> -0.3010
-0.3010 STUPID </s> -0.3010
-0.3010 SUCK </s> -0.3010
-0.3010 SUCKS </s> -0.3010
-0.7782 SURE </s> -0.3010
-0.7782 SURE ABOUT? 0.0000
-0.7782 SURE IS -0.2788
-0.3010 SURE? </s> -0.3010
-0.3010 SUSPEND MACHINE 0.0000
-0.3010 SWEET </s> -0.3010
-0.3010 SYSTEM STATUS 0.0000
-0.3010 TAB </s> -0.3010
-0.3010 TABS </s> -0.3010
-0.5441 TALK </s> -0.3010
-1.1461 TALK ABOUT -0.0969
-1.4472 TALK ABOUT? 0.0000
-1.4472 TALK DIRTY 0.0000
-1.4472 TALK TO -0.2919
-1.4472 TALK WITH -0.1761
-0.6021 TALKING </s> -0.3010
-0.6021 TALKING TO -0.2919
-0.3010 TEACHING YOU -0.2963
-0.3010 TELL ME -0.1139
-0.3010 TELLING ME -0.2788
-0.3010 TEN THIRTEEN 0.0000
-0.3010 TERMINAL </s> -0.3010
-0.3010 TERRIBLE </s> -0.3010
-0.7782 TEST INTERNET 0.0000
-0.7782 TEST NET 0.0000
-0.7782 TEST NETWORK -0.1249
-0.6021 THANK </s> -0.3010
-0.6021 THANK YOU -0.2721
-0.6021 THANKS </s> -0.3010
-0.9031 THANKS ASSISTANT -0.0185
-0.9031 THANKS YOU -0.2721
-0.4472 THAT </s> -0.3010
-1.1461 THAT MEAN? 0.0000
-1.1461 THAT RIGHT -0.0969
-1.0792 THAT'S GREAT -0.1047
-1.0792 THAT'S INCREDIBLE 0.0000
-1.0792 THAT'S NUTS 0.0000
-1.0792 THAT'S RIGHT -0.0969
-1.0792 THAT'S STUPID 0.0000
-1.0792 THAT'S TRUE -0.1249
-1.1461 THE MATTER 0.0000
-1.1461 THE MUSIC 0.0000
-1.1461 THE TIME? 0.0000
-1.1461 THE WEATHER 0.0000
-0.6690 THE WEB 0.0000
-0.3010 THEN? </s> -0.3010
-0.3010 THERE </s> -0.3010
-0.3010 THERE? </s> -0.3010
-0.4260 THINGS ARE -0.2878
-0.9031 THINGS SUCK 0.0000
-0.3010 THINGS? </s> -0.3010
-0.6990 THINK </s> -0.3010
-1.0000 THINK ABOUT -0.2430
-0.6990 THINK SO -0.1761
-0.3010 THINK? </s> -0.3010
-0.3010 THIRTEEN TWELVE 0.0000
-0.3010 THIRTY TWENTY 0.0000
-0.6021 THIS </s> -0.3010
-0.6021 THIS FEEL? 0.0000
-0.3010 THIS? </s> -0.3010
-0.3010 THOUSAND AND 0.0000
-0.3010 THREE TWO 0.0000
-0.3010 THUNDERBIRD </s> -0.3010
-0.4771 TIME </s> -0.3010
-0.7782 TIME IS -0.2788
-0.3010 TIME? </s> -0.3010
-0.3010 TIMER </s> -0.3010
-0.3010 TIRED </s> -0.3010
-1.0792 TO DO? 0.0000
-1.6812 TO LEARN 0.0000
-1.6812 TO ME -0.2553
-1.2041 TO SPEAK 0.0000
-1.3802 TO SPEAK? 0.0000
-0.6812 TO TALK -0.0580
-1.6812 TO TERMINAL 0.0000
-1.6812 TO THE -0.1963
-1.6812 TO YOU -0.2721
-0.3010 TODAY? </s> -0.3010
-0.3010 TOTALLY </s> -0.3010
-0.4771 TRUE </s> -0.3010
-0.7782 TRUE THAT -0.1091
-0.3010 TRY HARDER 0.0000
-0.3010 TWELVE EIGHTY 0.0000
-0.3010 TWENTY HUNDRED 0.0000
-0.3010 TWO EIGHTEEN 0.0000
-0.3010 TYPING </s> -0.3010
-0.3010 TYRELL CORPORATION 0.0000
-0.3010 UNDERSTAND </s> -0.3010
-0.3010 UNDERSTAND? </s> -0.3010
-0.4260 UP </s> -0.3010
-1.2041 UP ASSISTANT -0.0185
-1.2041 UP WITH -0.1761
-0.3010 UP? </s> -0.3010
-0.3010 UPSET </s> -0.3010
-0.3010 USERNAME </s> -0.3010
-1.0792 VERY COOL 0.0000
-1.0792 VERY FUNNY 0.0000
-1.0792 VERY GOOD -0.0969
-1.0792 VERY KIND 0.0000
-1.0792 VERY NICE -0.1761
-1.0792 VERY SWEET 0.0000
-0.6021 VOICE COULD 0.0000
-0.6021 VOICE NOTE 0.0000
-0.3010 VOID COMP 0.0000
-0.6021 VOLUME DOWN 0.0000
-0.6021 VOLUME UP -0.0969
-0.3010 WAKE UP -0.0969
-1.2041 WANT A -0.2788
-1.2041 WANT COFFEE 0.0000
-0.9031 WANT SOME 0.0000
-0.6021 WANT TO -0.1513
-0.3010 WANT? </s> -0.3010
-0.7782 WE GOING? 0.0000
-0.7782 WE HERE? 0.0000
-0.7782 WE ONLINE? 0.0000
-0.3010 WE? </s> -0.3010
-0.3010 WEATHER TODAY? 0.0000
-0.3010 WEB </s> -0.3010
-0.3010 WEBLIFE </s> -0.3010
-0.6021 WELCOME </s> -0.3010
-0.6021 WELCOME ASSISTANT -0.0185
-0.3680 WELL </s> -0.3010
-1.1461 WELL DONE 0.0000
-1.4914 WHAT ARE -0.2148
-1.4914 WHAT CAN -0.0792
-1.7924 WHAT DAY 0.0000
-0.7924 WHAT DO 0.0000
-1.7924 WHAT DOES -0.2218
-1.7924 WHAT HAPPENED? 0.0000
-1.0142 WHAT IS -0.1761
-1.7924 WHAT IT -0.2730
-1.4914 WHAT TIME 0.0000
-1.7924 WHAT TO -0.2632
-1.7924 WHAT WHAT? 0.0000
-1.3153 WHAT WOULD -0.1461
-1.0000 WHAT'S ACTUALLY 0.0000
-1.0000 WHAT'S GOING -0.0969
-1.0000 WHAT'S HAPPENING? 0.0000
-1.0000 WHAT'S UP -0.2730
-1.0000 WHAT'S UP? 0.0000
-0.3010 WHAT? </s> -0.3010
-0.4260 WHERE ARE -0.2455
-0.9031 WHERE IS -0.2788
-0.7782 WHO ARE -0.2648
-0.7782 WHO ASKED 0.0000
-0.7782 WHO IS -0.2788
-0.4771 WHY ARE -0.2405
-0.7782 WHY DON'T -0.1963
-0.3010 WHY? </s> -0.3010
-0.3010 WIKI </s> -0.3010
-0.3010 WINDOW </s> -0.3010
-0.6021 WITH YOU -0.2721
-0.6021 WITH YOU? 0.0000
-0.3010 WONDERFUL </s> -0.3010
-0.3010 WOOD? </s> -0.3010
-0.3010 WORK </s> -0.3010
-0.6021 WORKING </s> -0.3010
-0.6021 WORKING GOOD -0.0969
-1.0000 WOULD HAPPEN 0.0000
-0.6990 WOULD LIKE -0.2093
-0.6990 WOULD YOU -0.2620
-0.3010 WOW </s> -0.3010
-0.3979 WRONG </s> -0.3010
-1.0000 WRONG ASSISTANT -0.0185
-0.3010 X </s> -0.3010
-0.3010 YAY </s> -0.3010
-0.3010 YEAH </s> -0.3010
-0.6021 YES </s> -0.3010
-0.6021 YES BE -0.1461
-0.3010 YO ASSISTANT -0.0185
-1.1903 YOU </s> -0.3010
-0.9078 YOU ARE -0.1875
-2.2695 YOU ASSISTANT -0.0185
-2.2695 YOU CARE 0.0000
-2.2695 YOU CONFUSED? 0.0000
-2.2695 YOU DO? 0.0000
-2.2695 YOU DOING? 0.0000
-1.9685 YOU DON'T -0.1963
-2.2695 YOU FEEL? 0.0000
-2.2695 YOU FEELING? 0.0000
-2.2695 YOU GOOD -0.0969
-2.2695 YOU GOT 0.0000
-2.2695 YOU HAD 0.0000
-2.2695 YOU HELP 0.0000
-2.2695 YOU HELP? 0.0000
-2.2695 YOU HERE? 0.0000
-2.2695 YOU HOW -0.2863
-2.2695 YOU JUST -0.2218
-1.9685 YOU KNOW 0.0000
-1.1234 YOU LIKE -0.0757
-1.9685 YOU LIKE? 0.0000
-2.2695 YOU NOT -0.1761
-2.2695 YOU REAL? 0.0000
-2.2695 YOU RIGHT -0.0969
-2.2695 YOU SAID 0.0000
-2.2695 YOU SAY? 0.0000
-2.2695 YOU SORRY? 0.0000
-2.2695 YOU SOUND 0.0000
-2.2695 YOU TELLING 0.0000
-1.9685 YOU THERE? 0.0000
-1.7924 YOU THINK 0.0000
-1.7924 YOU THINK? 0.0000
-2.2695 YOU TO -0.1996
-2.2695 YOU TODAY? 0.0000
-1.9685 YOU UNDERSTAND? 0.0000
-2.2695 YOU WANT -0.1761
-2.2695 YOU WANT? 0.0000
-2.2695 YOU WORK 0.0000
-0.3010 YOU? </s> -0.3010
-0.7782 YOUR DADDY? 0.0000
-0.7782 YOUR NAME? 0.0000
-0.7782 YOUR VOICE -0.1761
-0.3010 YOUTUBE </s> -0.3010
-0.3010 ZERO EIGHT 0.0000

\3-grams:
-0.3010 <s> ADD NUMBERS
-0.9031 <s> AH DAMMIT
-0.9031 <s> AH DAMN
-0.9031 <s> AH GREAT
-0.9031 <s> AH SHIT
-0.3010 <s> ALL RIGHT
-0.6021 <s> AM FINE
-0.6021 <s> AM TIRED
-0.6021 <s> AMAZING </s>
-0.6021 <s> AMAZING DUDE
-1.1461 <s> ARE WE
-0.4472 <s> ARE YOU
-1.1461 <s> ARE YOU?
-0.3010 <s> ASSIST </s>
-0.6021 <s> ASSISTANT </s>
-0.6021 <s> ASSISTANT SHUT
-1.0000 <s> AWESOME </s>
-1.0000 <s> AWESOME DUDE
-1.0000 <s> AWESOME JOB
-1.0000 <s> AWESOME SAUCE
-1.0000 <s> AWESOME WORK
-0.3010 <s> BACK WINDOW
-0.3010 <s> BE QUIET
-0.3010 <s> BROKEN RECORD
-0.3010 <s> CAN YOU
-0.3010 <s> CHECK EMAIL
-0.3010 <s> CHILL OUT
-0.3010 <s> CLEAR </s>
-1.2041 <s> CLOSE EMAIL
-1.2041 <s> CLOSE OTHER
-1.2041 <s> CLOSE PROJECT
-1.2041 <s> CLOSE STATUS
-1.2041 <s> CLOSE TAB
-1.2041 <s> CLOSE TERMINAL
-1.2041 <s> CLOSE WEB
-1.2041 <s> CLOSE WINDOW
-0.3010 <s> COME ON
-0.3010 <s> CONTROL C
-0.3010 <s> COOL </s>
-0.3010 <s> CRAZY </s>
-0.3010 <s> CREEPY </s>
-0.3010 <s> DAMN IT
-0.3010 <s> DO YOU
-1.0000 <s> DOING FAIRLY
-1.0000 <s> DOING GOOD
-1.0000 <s> DOING GREAT
-1.0000 <s> DOING PRETTY
-1.0000 <s> DOING WELL
-0.3010 <s> DON'T YOU
-0.3010 <s> DUDE </s>
-0.3010 <s> ECHO USERNAME
-0.3010 <s> ENOUGH </s>
-1.0792 <s> EVERYTHING </s>
-0.4771 <s> EVERYTHING IS
-1.0792 <s> EVERYTHING SUCKS
-0.3010 <s> EXCELLENT </s>
-0.6021 <s> FAREWELL </s>
-0.6021 <s> FAREWELL ASSISTANT
-0.3010 <s> FEEL ME?
-0.9031 <s> FEELING GOOD
-0.9031 <s> FEELING GREAT
-0.9031 <s> FEELING TIRED
-0.9031 <s> FEELING WONDERFUL
-0.3010 <s> FINALLY </s>
-0.3010 <s> FINE </s>
-0.6021 <s> FOR SURE?
-0.6021 <s> FOR WHAT?
-0.3010 <s> FREAK OUT
-0.3010 <s> FULL SCREEN
-0.3010 <s> FUNNY </s>
-0.3010 <s> GEE THANKS
-0.3010 <s> GET ME
-0.7782 <s> GO AWAY
-0.4771 <s> GO TO
-1.0792 <s> GOOD </s>
-1.0792 <s> GOOD JOB
-1.0792 <s> GOOD MORNING
-1.0792 <s> GOOD POINT
-1.0792 <s> GOOD QUESTION
-1.0792 <s> GOOD WORK
-0.6021 <s> GOODBYE </s>
-0.6021 <s> GOODBYE ASSISTANT
-0.6021 <s> GOODNIGHT </s>
-0.6021 <s> GOODNIGHT ASSISTANT
-0.7782 <s> GREAT </s>
-0.7782 <s> GREAT JOB
-0.7782 <s> GREAT WORK
-0.6021 <s> GREETINGS </s>
-0.6021 <s> GREETINGS ASSISTANT
-0.3010 <s> GROOVY </s>
-0.3010 <s> HAD ENOUGH?
-0.3010 <s> HAVE YOU
-1.0792 <s> HELLO </s>
-1.0792 <s> HELLO ASSISTANT
-0.7782 <s> HELLO HOW
-1.0792 <s> HELLO MACHINE
-1.0792 <s> HELLO THERE
-1.0000 <s> HEY </s>
-1.0000 <s> HEY ASSISTANT
-1.0000 <s> HEY STELLA
-1.0000 <s> HEY THERE
-1.0000 <s> HEY YOU
-0.7782 <s> HI </s>
-0.7782 <s> HI ASSISTANT
-0.7782 <s> HI HOW
-0.3010 <s> HILARIOUS </s>
-1.3424 <s> HOW </s>
-0.6435 <s> HOW ARE
-1.3424 <s> HOW DO
-1.0414 <s> HOW DOES
-1.3424 <s> HOW MUCH
-1.3424 <s> HOW OLD
-0.3010 <s> HOW'S IT
-0.6612 <s> I AM
-2.0414 <s> I CAN
-1.5643 <s> I DIDN'T
-1.7404 <s> I DON'T
-1.3424 <s> I FEEL
-2.0414 <s> I GOOD
-2.0414 <s> I HATE
-1.7404 <s> I JUST
-2.0414 <s> I LIKE
-2.0414 <s> I LOVE
-1.4393 <s> I NEED
-2.0414 <s> I SEE
-2.0414 <s> I THINK
-1.2632 <s> I WANT
-1.7404 <s> I WOULD
-0.3010 <s> INDEED </s>
-0.3010 <s> IS GOING
-0.3010 <s> ISN'T THAT
-0.3010 <s> IT IS
-0.6021 <s> IT'S ALRIGHT...
-0.6021 <s> IT'S OK...
-0.3010 <s> LATER </s>
-0.3010 <s> LEARNING TO
-0.3010 <s> LET'S TALK
-0.9031 <s> LIKE </s>
-0.9031 <s> LIKE EVERYTHING
-0.9031 <s> LIKE LEARNING
-0.9031 <s> LIKE WHAT?
-0.9031 <s> LIST BLOCK
-0.9031 <s> LIST MODULES
-0.9031 <s> LIST NETWORK
-0.9031 <s> LIST PROCESSES
-0.6021 <s> LISTEN </s>
-0.6021 <s> LISTEN ASSISTANT
-0.3010 <s> MAKE ME
-0.3010 <s> MATRIX </s>
-0.3010 <s> MAXIMIZE WINDOW
-0.6021 <s> MAYBE </s>
-0.6021 <s> MAYBE LATER
-0.3010 <s> MINIMIZE WINDOW
-0.6021 <s> MORNING </s>
-0.6021 <s> MORNING ASSISTANT
-0.3010 <s> MOST RIGHTEOUS
-0.3010 <s> MY NAME
-0.3010 <s> NEVERMIND </s>
-0.3010 <s> NEW TAB
-0.3010 <s> NEXT TAB
-0.7782 <s> NICE </s>
-0.7782 <s> NICE JOB
-0.7782 <s> NICE WORK
-0.3010 <s> NICELY DONE
-0.3010 <s> NO </s>
-0.3010 <s> NOT MUCH
-0.7782 <s> NOTHING </s>
-0.4771 <s> NOTHING IS
-0.7782 <s> OH ASSIST
-0.7782 <s> OH ASSISTANT
-0.7782 <s> OH GOD
-0.7782 <s> OK </s>
-0.7782 <s> OK ASSISTANT
-0.7782 <s> OK FINE
-1.3010 <s> OPEN ARCH
-1.3010 <s> OPEN COMMANDS
-1.3010 <s> OPEN FACEBOOK
-1.3010 <s> OPEN PROJECT
-1.3010 <s> OPEN STATUS
-1.3010 <s> OPEN TAB
-1.3010 <s> OPEN TERMINAL
-1.3010 <s> OPEN THE
-1.3010 <s> OPEN WEB
-1.3010 <s> OPEN YOUTUBE
-0.6021 <s> PAGE DOWN
-0.6021 <s> PAGE UP
-0.3010 <s> PING WEBLIFE
-0.9031 <s> PLAY </s>
-0.9031 <s> PLAY A
-0.9031 <s> PLAY AMBIENT
-0.9031 <s> PLAY ME
-0.9031 <s> PLEASE </s>
-0.9031 <s> PLEASE ASSISTANT
-0.9031 <s> PLEASE BE
-0.9031 <s> PLEASE LISTEN
-0.3010 <s> PRETTY GOOD
-0.3010 <s> PREVIOUS TAB
-1.0000 <s> QUIT </s>
-1.0000 <s> QUIT STATUS
-1.0000 <s> QUIT THE
-1.0000 <s> QUIT THUNDERBIRD
-1.0000 <s> QUIT WEB
-0.3010 <s> READ ME
-0.3010 <s> REALLY </s>
-0.3010 <s> REBOOT MACHINE
-0.3010 <s> RECORD </s>
-0.6021 <s> RED ALERT
-0.6021 <s> RED PILL
-0.3010 <s> REWIND </s>
-0.6021 <s> RIGHT </s>
-0.6021 <s> RIGHT ON
-0.3010 <s> RIGHTEOUS </s>
-0.3010 <s> SAD </s>
-0.6021 <s> SAVE DOCUMENT
-0.6021 <s> SAVE FILE
-0.3010 <s> SAY SOMETHING
-0.6021 <s> SEARCH </s>
-0.6021 <s> SEARCH WEB
-0.3010 <s> SEE REE
-0.3010 <s> SHOW STATUS
-0.3010 <s> SHUT UP
-0.3010 <s> SILENCE </s>
-0.7782 <s> SING A
-0.7782 <s> SING FOR
-0.7782 <s> SING ME
-0.3010 <s> SO COOL
-0.3010 <s> SORRY </s>
-0.3010 <s> SOUNDS GOOD
-0.6021 <s> START A
-0.6021 <s> START X
-1.1461 <s> STOP </s>
-1.1461 <s> STOP IT
-1.1461 <s> STOP MUSIC
-1.1461 <s> STOP READING
-1.1461 <s> STOP SINGING
-1.1461 <s> STOP SPEAKING
-1.1461 <s> STOP THE
-0.3010 <s> STUPID </s>
-0.6021 <s> SURE </s>
-0.6021 <s> SURE IS
-0.3010 <s> SUSPEND MACHINE
-0.3010 <s> SYSTEM STATUS
-0.6021 <s> TALK DIRTY
-0.6021 <s> TALK TO
-0.3010 <s> TELL ME
-0.3010 <s> TERMINAL </s>
-0.3010 <s> TERRIBLE </s>
-0.7782 <s> TEST INTERNET
-0.7782 <s> TEST NET
-0.7782 <s> TEST NETWORK
-0.6021 <s> THANK </s>
-0.6021 <s> THANK YOU
-0.7782 <s> THANKS </s>
-0.7782 <s> THANKS ASSISTANT
-0.7782 <s> THANKS YOU
-1.0792 <s> THAT'S GREAT
-1.0792 <s> THAT'S INCREDIBLE
-1.0792 <s> THAT'S NUTS
-1.0792 <s> THAT'S RIGHT
-1.0792 <s> THAT'S STUPID
-1.0792 <s> THAT'S TRUE
-0.4260 <s> THINGS ARE
-0.9031 <s> THINGS SUCK
-0.3010 <s> TIME </s>
-0.3010 <s> TIRED </s>
-0.3010 <s> TOTALLY </s>
-0.6021 <s> TRUE </s>
-0.6021 <s> TRUE THAT
-0.3010 <s> TRY HARDER
-0.3010 <s> TYRELL CORPORATION
-1.0792 <s> VERY COOL
-1.0792 <s> VERY FUNNY
-1.0792 <s> VERY GOOD
-1.0792 <s> VERY KIND
-1.0792 <s> VERY NICE
-1.0792 <s> VERY SWEET
-0.3010 <s> VOICE NOTE
-0.3010 <s> VOID COMP
-0.6021 <s> VOLUME DOWN
-0.6021 <s> VOLUME UP
-0.3010 <s> WAKE UP
-0.3010 <s> WANT TO
-0.3010 <s> WELL DONE
-1.4771 <s> WHAT ARE
-1.4771 <s> WHAT CAN
-1.7782 <s> WHAT DAY
-0.7782 <s> WHAT DO
-1.7782 <s> WHAT DOES
-1.7782 <s> WHAT HAPPENED?
-1.0000 <s> WHAT IS
-1.7782 <s> WHAT IT
-1.4771 <s> WHAT TIME
-1.7782 <s> WHAT WHAT?
-1.3010 <s> WHAT WOULD
-1.0000 <s> WHAT'S ACTUALLY
-1.0000 <s> WHAT'S GOING
-1.0000 <s> WHAT'S HAPPENING?
-1.0000 <s> WHAT'S UP
-1.0000 <s> WHAT'S UP?
-0.4260 <s> WHERE ARE
-0.9031 <s> WHERE IS
-0.7782 <s> WHO ARE
-0.7782 <s> WHO ASKED
-0.7782 <s> WHO IS
-0.4771 <s> WHY ARE
-0.7782 <s> WHY DON'T
-0.3010 <s> WHY? </s>
-0.3010 <s> WONDERFUL </s>
-0.3010 <s> WOW </s>
-0.6021 <s> WRONG </s>
-0.6021 <s> WRONG ASSISTANT
-0.3010 <s> YAY </s>
-0.3010 <s> YEAH </s>
-0.6021 <s> YES </s>
-0.6021 <s> YES BE
-0.3010 <s> YO ASSISTANT
-0.5728 <s> YOU ARE
-1.9345 <s> YOU ASSISTANT
-1.6335 <s> YOU DON'T
-1.9345 <s> YOU GOOD
-1.9345 <s> YOU GOT
-1.9345 <s> YOU JUST
-1.6335 <s> YOU KNOW
-1.3324 <s> YOU LIKE
-1.9345 <s> YOU RIGHT
-1.9345 <s> YOU SAID
-1.9345 <s> YOU SOUND
-1.9345 <s> YOU THERE?
-1.6335 <s> YOU THINK
-1.9345 <s> YOU UNDERSTAND?
-1.9345 <s> YOU WORK
-0.3010 <s> YOUR VOICE
-0.3010 <s> ZERO EIGHT
-0.3010 A BEER </s>
-0.3010 A DRINK </s>
-0.3010 A MINUTE TIMER
-0.3010 A SANDWICH </s>
-0.3010 A SONG </s>
-0.3010 A STORY </s>
-0.3010 ABOUT ANYTHING? </s>
-0.3010 ABOUT YOU </s>
-0.3010 ACTUALLY GOING ON?
-0.3010 ADD NUMBERS PLUS
-0.3010 AH DAMMIT </s>
-0.3010 AH DAMN </s>
-0.3010 AH GREAT </s>
-0.3010 AH SHIT </s>
-0.6021 ALL RIGHT </s>
-0.6021 ALL RIGHT ASSISTANT
-0.3010 AM ALRIGHT </s>
-0.3010 AM ANGRY </s>
-1.0792 AM DOING FAIRLY
-1.0792 AM DOING GOOD
-1.0792 AM DOING OK
-0.7782 AM DOING PRETTY
-1.0792 AM DOING WELL
-0.3010 AM FINE </s>
-0.3010 AM GETTING TIRED
-0.3010 AM GOOD </s>
-0.3010 AM HUNGRY </s>
-0.3010 AM OK </s>
-0.3010 AM ONLY TYPING
-0.3010 AM PISSED </s>
-0.3010 AM READY FOR
-0.3010 AM SORRY </s>
-0.6021 AM TALKING </s>
-0.6021 AM TALKING TO
-0.3010 AM TEACHING YOU
-0.3010 AM TIRED </s>
-0.3010 AM UPSET </s>
-0.3010 AM WELL </s>
-0.3010 AMAZING DUDE </s>
-0.3010 AMBIENT MUSIC </s>
-0.3010 ARCH WIKI </s>
-0.3010 ARE ARTIFICIAL INTELLIGENCE
-0.3010 ARE BACK </s>
-0.3010 ARE CONFUSED </s>
-0.6021 ARE DOING GOOD
-0.6021 ARE DOING GREAT
-0.3010 ARE FINE </s>
-0.6021 ARE GETTING SMART
-0.6021 ARE GETTING SMARTER
-0.3010 ARE GOOD </s>
-0.3010 ARE GREAT </s>
-0.3010 ARE HERE </s>
-0.3010 ARE INCREDIBLE </s>
-0.3010 ARE LEARNING TO
-0.3010 ARE RIGHT </s>
-0.3010 ARE SCREWED UP
-0.3010 ARE SMART </s>
-0.3010 ARE SO SMART
-0.3010 ARE THERE </s>
-0.3010 ARE THINGS? </s>
-0.7782 ARE WE GOING?
-0.7782 ARE WE HERE?
-0.7782 ARE WE ONLINE?
-0.3010 ARE WE? </s>
-0.6021 ARE WELCOME </s>
-0.6021 ARE WELCOME ASSISTANT
-0.3010 ARE WONDERFUL </s>
-0.6021 ARE WORKING </s>
-0.6021 ARE WORKING GOOD
-0.3010 ARE WRONG </s>
-1.3010 ARE YOU CONFUSED?
-1.3010 ARE YOU DOING?
-1.3010 ARE YOU FEELING?
-1.3010 ARE YOU HERE?
-1.3010 ARE YOU NOT
-1.3010 ARE YOU REAL?
-1.3010 ARE YOU SORRY?
-1.3010 ARE YOU TELLING
-1.3010 ARE YOU THERE?
-1.3010 ARE YOU TODAY?
-0.3010 ARE YOU? </s>
-0.3010 ARTIFICIAL INTELLIGENCE </s>
-0.3010 ASKED YOU? </s>
-0.3010 ASSISTANT SHUT UP
-0.3010 AWESOME DUDE </s>
-0.3010 AWESOME JOB </s>
-0.3010 AWESOME SAUCE </s>
-0.3010 AWESOME WORK </s>
-0.3010 BACK WINDOW </s>
-0.3010 BE BETTER </s>
-0.3010 BE LIKE? </s>
-0.3010 BE QUIET </s>
-0.3010 BILLION MILLION THOUSAND
-0.3010 BLOCK DEVICES </s>
-0.3010 BROKEN RECORD </s>
-0.3010 CAN HEAR YOU
-0.9031 CAN YOU DO?
-0.9031 CAN YOU HELP
-0.9031 CAN YOU HELP?
-0.9031 CAN YOU SAY?
-0.3010 CARE ABOUT? </s>
-0.6021 CHECK EMAIL </s>
-0.6021 CHECK EMAIL PLEASE
-0.3010 CHILL OUT </s>
-0.3010 CLOSE EMAIL </s>
-0.3010 CLOSE OTHER TABS
-0.3010 CLOSE PROJECT M
-0.3010 CLOSE STATUS </s>
-0.3010 CLOSE TAB </s>
-0.3010 CLOSE TERMINAL </s>
-0.3010 CLOSE WEB </s>
-0.3010 CLOSE WINDOW </s>
-0.3010 COME ON </s>
-0.3010 CONTROL C </s>
-0.3010 COULD BE BETTER
-0.3010 DAMN IT </s>
-0.3010 DAY IS IT?
-0.7782 DIDN'T SAY ANYTHING
-0.7782 DIDN'T SAY SAD
-0.7782 DIDN'T SAY THAT
-1.5051 DO YOU CARE
-1.5051 DO YOU FEEL?
-0.6021 DO YOU LIKE
-1.5051 DO YOU LIKE?
-1.5051 DO YOU THINK
-1.2041 DO YOU THINK?
-1.5051 DO YOU WANT
-1.5051 DO YOU WANT?
-0.3010 DOES IT FEEL?
-0.3010 DOES THAT MEAN?
-0.3010 DOES THIS FEEL?
-0.3010 DOING FAIRLY WELL
-0.4260 DOING GOOD </s>
-0.9031 DOING GOOD ASSISTANT
-0.4771 DOING GREAT </s>
-0.7782 DOING GREAT ASSISTANT
-0.3010 DOING OK </s>
-0.4771 DOING PRETTY GOOD
-0.7782 DOING PRETTY WELL
-0.3010 DOING WELL </s>
-0.3010 DON'T KNOW </s>
-0.3010 DON'T THINK SO
-0.3010 DON'T UNDERSTAND </s>
-0.7782 DON'T YOU LIKE
-0.7782 DON'T YOU THINK?
-0.7782 DON'T YOU UNDERSTAND?
-0.3010 ECHO USERNAME </s>
-0.3010 EIGHT FIVE FOUR
-0.3010 EIGHTEEN ELEVEN FIFTEEN
-0.3010 EIGHTY FIFTY FORTY
-0.3010 ELEVEN FIFTEEN FOURTEEN
-0.3010 EMAIL PLEASE </s>
-0.9031 EVERYTHING IS ALOT
-0.9031 EVERYTHING IS FANTASTIC
-0.9031 EVERYTHING IS GREAT
-0.9031 EVERYTHING IS WONDERFUL
-0.3010 EVERYTHING SUCKS </s>
-0.3010 FAIRLY WELL </s>
-0.3010 FAREWELL ASSISTANT </s>
-0.3010 FEEL ANGRY </s>
-0.3010 FEEL GOOD </s>
-0.3010 FEEL HAPPY </s>
-0.3010 FEEL MAD </s>
-0.3010 FEEL ME? </s>
-0.3010 FEEL SAD </s>
-0.3010 FEELING GOOD </s>
-0.3010 FEELING GREAT </s>
-0.3010 FEELING TIRED </s>
-0.3010 FEELING WONDERFUL </s>
-0.3010 FIFTEEN FOURTEEN NINTEEN
-0.3010 FIFTY FORTY NINTY
-0.3010 FIVE FOUR NINE
-0.3010 FOR BED </s>
-0.3010 FOR ME </s>
-0.3010 FOR SURE? </s>
-0.3010 FOR WHAT? </s>
-0.3010 FORTY NINTY SEVENTY
-0.3010 FOUR NINE ONE
-0.3010 FOURTEEN NINTEEN SEVENTEEN
-0.3010 FREAK OUT </s>
-0.3010 FULL SCREEN </s>
-0.3010 GEE THANKS </s>
-0.3010 GET ME A
-0.3010 GETTING SMART </s>
-0.3010 GETTING SMARTER </s>
-0.3010 GETTING TIRED </s>
-0.3010 GO AWAY </s>
-0.6021 GO TO TERMINAL
-0.6021 GO TO THE
-0.3010 GOING GOOD </s>
-0.3010 GOING ON? </s>
-0.3010 GOOD ASSISTANT </s>
-0.3010 GOOD JOB </s>
-0.3010 GOOD MORNING </s>
-0.3010 GOOD POINT </s>
-0.3010 GOOD QUESTION </s>
-0.3010 GOOD WORK </s>
-0.3010 GOODBYE ASSISTANT </s>
-0.3010 GOODNIGHT ASSISTANT </s>
-0.3010 GOT IT WRONG
-0.3010 GREAT ASSISTANT </s>
-0.3010 GREAT JOB </s>
-0.3010 GREAT WORK </s>
-0.3010 GREETINGS ASSISTANT </s>
-0.3010 HAD ENOUGH? </s>
-0.3010 HAPPEN THEN? </s>
-0.3010 HATE YOU </s>
-0.3010 HAVE YOU HAD
-0.3010 HEAR YOU </s>
-0.3010 HELLO ASSISTANT </s>
-0.3010 HELLO HOW ARE
-0.3010 HELLO MACHINE </s>
-0.3010 HELLO THERE </s>
-0.3010 HELP ME? </s>
-0.3010 HEY ASSISTANT </s>
-0.3010 HEY STELLA </s>
-0.3010 HEY THERE </s>
-0.3010 HEY YOU </s>
-0.3010 HI ASSISTANT </s>
-0.3010 HI HOW ARE
-0.9031 HOW ARE THINGS?
-0.7270 HOW ARE YOU
-0.7270 HOW ARE YOU?
-0.3010 HOW DO YOU
-0.6021 HOW DOES IT
-0.6021 HOW DOES THIS
-0.3010 HOW MUCH WOOD?
-0.3010 HOW OLD ARE
-0.3010 HOW TO TALK
-0.3010 HOW'S IT GOING?
-0.3010 HUNDRED BILLION MILLION
-1.6812 I AM ALRIGHT
-1.6812 I AM ANGRY
-0.9031 I AM DOING
-1.6812 I AM FINE
-1.6812 I AM GETTING
-1.6812 I AM GOOD
-1.6812 I AM HUNGRY
-1.6812 I AM OK
-1.6812 I AM ONLY
-1.6812 I AM PISSED
-1.6812 I AM READY
-1.6812 I AM SORRY
-1.3802 I AM TALKING
-1.3802 I AM TEACHING
-1.6812 I AM TIRED
-1.6812 I AM UPSET
-1.6812 I AM WELL
-0.3010 I CAN HEAR
-0.3010 I DIDN'T SAY
-0.6021 I DON'T KNOW
-0.6021 I DON'T THINK
-1.0000 I FEEL ANGRY
-1.0000 I FEEL GOOD
-1.0000 I FEEL HAPPY
-1.0000 I FEEL MAD
-1.0000 I FEEL SAD
-0.3010 I GOOD </s>
-0.3010 I HATE YOU
-0.6021 I JUST BURPED
-0.6021 I JUST FARTED
-0.3010 I LIKE THAT
-0.3010 I LOVE YOU
-0.9031 I NEED </s>
-0.9031 I NEED COFFEE
-0.9031 I NEED SOMETHING
-0.9031 I NEED YOU
-0.3010 I SEE </s>
-0.3010 I THINK </s>
-1.0792 I WANT A
-1.0792 I WANT COFFEE
-0.7782 I WANT SOME
-0.7782 I WANT TO
-0.3010 I WOULD LIKE
-0.3010 INTERNET CONNECTION </s>
-0.3010 INTERNET SPEED </s>
-0.3010 IS ALOT </s>
-0.3010 IS BOB </s>
-0.3010 IS FANTASTIC </s>
-0.6021 IS GOING GOOD
-0.6021 IS GOING ON?
-0.3010 IS GREAT </s>
-0.3010 IS HAPPENING? </s>
-0.3010 IS IT? </s>
-0.6021 IS MY MIND?
-0.6021 IS MY NAME?
-0.7782 IS THE MATTER
-0.7782 IS THE TIME?
-0.7782 IS THE WEATHER
-0.3010 IS WONDERFUL </s>
-0.3010 IS WRONG </s>
-0.6021 IS YOUR DADDY?
-0.6021 IS YOUR NAME?
-0.3010 ISN'T THAT RIGHT
-0.3010 IT BE LIKE?
-0.3010 IT FEEL? </s>
-0.3010 IT GOING? </s>
-0.3010 IT IS </s>
-0.3010 IT WRONG </s>
-0.3010 IT'S ALRIGHT... </s>
-0.3010 IT'S OK... </s>
-0.3010 JUST BURPED </s>
-0.3010 JUST FARTED </s>
-0.3010 JUST SAID THAT
-0.3010 KNOW IT </s>
-0.3010 LEARNING ABOUT? </s>
-0.6990 LEARNING TO SPEAK
-0.6990 LEARNING TO SPEAK?
-1.0000 LEARNING TO TALK
-0.6021 LET'S TALK </s>
-0.6021 LET'S TALK ABOUT
-0.3010 LIKE EVERYTHING </s>
-0.3010 LIKE IT? </s>
-0.7782 LIKE LEARNING ABOUT?
-0.4771 LIKE LEARNING TO
-0.3010 LIKE LEARNING? </s>
-0.3010 LIKE ME? </s>
-0.3010 LIKE SEE REE
-0.3010 LIKE THAT </s>
-0.3010 LIKE THIS </s>
-0.3010 LIKE THIS? </s>
-0.9031 LIKE TO DO?
-1.2041 LIKE TO LEARN
-1.2041 LIKE TO SPEAK
-0.6021 LIKE TO TALK
-0.3010 LIKE WHAT? </s>
-0.3010 LIST BLOCK DEVICES
-0.3010 LIST MODULES </s>
-0.3010 LIST NETWORK DEVICES
-0.3010 LIST PROCESSES </s>
-0.3010 LISTEN ASSISTANT </s>
-0.3010 LOVE YOU </s>
-0.3010 MAKE ME A
-0.3010 MAXIMIZE WINDOW </s>
-0.3010 MAYBE LATER </s>
-1.0792 ME A BEER
-1.0792 ME A SANDWICH
-0.7782 ME A SONG
-0.7782 ME A STORY
-0.3010 ME ABOUT YOU
-0.3010 ME WHAT TO
-0.3010 MILLION THOUSAND AND
-0.3010 MINIMIZE WINDOW </s>
-0.3010 MINUTE TIMER </s>
-0.3010 MORNING ASSISTANT </s>
-0.3010 MOST RIGHTEOUS </s>
-0.3010 MUCH WOOD? </s>
-0.3010 MY MIND? </s>
-0.3010 MY NAME IS
-0.3010 MY NAME? </s>
-0.3010 NAME IS BOB
-0.3010 NEED COFFEE </s>
-0.3010 NEED SOMETHING </s>
-0.3010 NEED YOU </s>
-0.3010 NET CONNECTION </s>
-0.3010 NET SPEED </s>
-0.3010 NETWORK CONNECTION </s>
-0.3010 NETWORK DEVICES </s>
-0.3010 NETWORK SPEED </s>
-0.3010 NEW TAB </s>
-0.3010 NEXT TAB </s>
-0.3010 NICE JOB </s>
-0.3010 NICE WORK </s>
-0.3010 NICELY DONE </s>
-0.3010 NINE ONE SEVEN
-0.3010 NINTEEN SEVENTEEN SIXTEEN
-0.3010 NINTY SEVENTY SIXTY
-0.3010 NOT MUCH </s>
-0.3010 NOT SURE ABOUT?
-0.6021 NOTHING IS THE
-0.6021 NOTHING IS WRONG
-0.3010 NUMBERS PLUS </s>
-0.3010 OH ASSIST </s>
-0.3010 OH ASSISTANT </s>
-0.3010 OH GOD </s>
-0.3010 OK ASSISTANT </s>
-0.3010 OK FINE </s>
-0.3010 OLD ARE YOU?
-0.3010 ONE SEVEN SIX
-0.3010 ONLY TYPING </s>
-0.3010 OPEN ARCH WIKI
-0.3010 OPEN COMMANDS </s>
-0.3010 OPEN FACEBOOK </s>
-0.3010 OPEN PROJECT EM
-0.3010 OPEN STATUS </s>
-0.3010 OPEN TAB </s>
-0.3010 OPEN TERMINAL </s>
-0.3010 OPEN THE WEB
-0.3010 OPEN WEB </s>
-0.3010 OPEN YOUTUBE </s>
-0.3010 OTHER TABS </s>
-0.3010 PAGE DOWN </s>
-0.3010 PAGE UP </s>
-0.3010 PING WEBLIFE </s>
-0.3010 PLAY A SONG
-0.3010 PLAY AMBIENT MUSIC
-0.3010 PLAY ME A
-0.3010 PLEASE ASSISTANT </s>
-0.3010 PLEASE BE QUIET
-0.3010 PLEASE LISTEN </s>
-0.3010 PRETTY GOOD </s>
-0.3010 PRETTY WELL </s>
-0.3010 PREVIOUS TAB </s>
-0.3010 PROJECT EM </s>
-0.3010 PROJECT M </s>
-0.3010 QUIT STATUS </s>
-0.3010 QUIT THE WEB
-0.3010 QUIT THUNDERBIRD </s>
-0.3010 QUIT WEB </s>
-0.3010 READ ME A
-0.3010 READY FOR BED
-0.3010 REBOOT MACHINE </s>
-0.3010 RED ALERT </s>
-0.3010 RED PILL </s>
-0.3010 RIGHT ASSISTANT </s>
-0.3010 RIGHT ON </s>
-0.3010 SAID THAT </s>
-0.3010 SAVE DOCUMENT </s>
-0.3010 SAVE FILE </s>
-0.3010 SAY ANYTHING </s>
-0.3010 SAY SAD </s>
-0.6021 SAY SOMETHING </s>
-0.6021 SAY SOMETHING RANDOM
-0.3010 SAY THAT </s>
-0.3010 SCREWED UP </s>
-0.3010 SEARCH WEB </s>
-0.3010 SEE REE </s>
-0.3010 SEVEN SIX THREE
-0.3010 SEVENTEEN SIXTEEN TEN
-0.3010 SEVENTY SIXTY THIRTY
-0.3010 SHOW STATUS </s>
-0.4771 SHUT UP </s>
-0.7782 SHUT UP ASSISTANT
-0.3010 SING A SONG
-0.3010 SING FOR ME
-0.3010 SING ME A
-0.3010 SIX THREE TWO
-0.3010 SIXTEEN TEN THIRTEEN
-0.3010 SIXTY THIRTY TWENTY
-0.3010 SO COOL </s>
-0.3010 SO SMART </s>
-0.3010 SOME COFFEE </s>
-0.3010 SOME FOOD </s>
-0.3010 SOMETHING RANDOM </s>
-0.3010 SOUND GOOD </s>
-0.3010 SOUNDS GOOD </s>
-0.3010 START A MINUTE
-0.3010 START X </s>
-0.3010 STOP IT </s>
-0.3010 STOP MUSIC </s>
-0.3010 STOP READING </s>
-0.3010 STOP SINGING </s>
-0.3010 STOP SPEAKING </s>
-0.3010 STOP THE MUSIC
-0.3010 SURE ABOUT? </s>
-0.3010 SURE IS </s>
-0.3010 SUSPEND MACHINE </s>
-0.3010 SYSTEM STATUS </s>
-0.3010 TALK ABOUT YOU
-0.3010 TALK ABOUT? </s>
-0.3010 TALK DIRTY </s>
-0.3010 TALK TO ME
-0.3010 TALK WITH YOU
-0.3010 TALKING TO YOU
-0.6021 TEACHING YOU HOW
-0.6021 TEACHING YOU TO
-0.6021 TELL ME A
-0.6021 TELL ME ABOUT
-0.3010 TELLING ME WHAT
-0.3010 TEN THIRTEEN TWELVE
-0.6021 TEST INTERNET CONNECTION
-0.6021 TEST INTERNET SPEED
-0.6021 TEST NET CONNECTION
-0.6021 TEST NET SPEED
-0.6021 TEST NETWORK CONNECTION
-0.6021 TEST NETWORK SPEED
-0.3010 THANK YOU </s>
-0.3010 THANKS ASSISTANT </s>
-0.3010 THANKS YOU </s>
-0.3010 THAT MEAN? </s>
-0.3010 THAT RIGHT </s>
-0.3010 THAT'S GREAT </s>
-0.3010 THAT'S INCREDIBLE </s>
-0.3010 THAT'S NUTS </s>
-0.3010 THAT'S RIGHT </s>
-0.3010 THAT'S STUPID </s>
-0.3010 THAT'S TRUE </s>
-0.3010 THE MATTER </s>
-0.3010 THE MUSIC </s>
-0.3010 THE TIME? </s>
-0.3010 THE WEATHER TODAY?
-0.3010 THE WEB </s>
-0.7782 THINGS ARE FINE
-0.7782 THINGS ARE GOOD
-0.7782 THINGS ARE SCREWED
-0.3010 THINGS SUCK </s>
-0.3010 THINK ABOUT ANYTHING?
-0.3010 THINK SO </s>
-0.3010 THIRTEEN TWELVE EIGHTY
-0.3010 THIRTY TWENTY HUNDRED
-0.3010 THIS FEEL? </s>
-0.3010 THOUSAND AND </s>
-0.3010 THREE TWO EIGHTEEN
-0.3010 TIME IS IT?
-0.3010 TO DO? </s>
-0.3010 TO LEARN </s>
-0.3010 TO ME </s>
-0.3010 TO SPEAK </s>
-0.3010 TO SPEAK? </s>
-0.4559 TO TALK </s>
-1.3010 TO TALK ABOUT
-1.3010 TO TALK ABOUT?
-1.3010 TO TALK WITH
-0.3010 TO TERMINAL </s>
-0.3010 TO THE WEB
-0.3010 TO YOU </s>
-0.3010 TRUE THAT </s>
-0.3010 TRY HARDER </s>
-0.3010 TWELVE EIGHTY FIFTY
-0.3010 TWENTY HUNDRED BILLION
-0.3010 TWO EIGHTEEN ELEVEN
-0.3010 TYRELL CORPORATION </s>
-0.3010 UP ASSISTANT </s>
-0.3010 UP WITH YOU?
-0.3010 VERY COOL </s>
-0.3010 VERY FUNNY </s>
-0.3010 VERY GOOD </s>
-0.3010 VERY KIND </s>
-0.3010 VERY NICE </s>
-0.3010 VERY SWEET </s>
-0.3010 VOICE COULD BE
-0.3010 VOICE NOTE </s>
-0.3010 VOID COMP </s>
-0.3010 VOLUME DOWN </s>
-0.3010 VOLUME UP </s>
-0.3010 WAKE UP </s>
-0.3010 WANT A DRINK
-0.3010 WANT COFFEE </s>
-0.6021 WANT SOME COFFEE
-0.6021 WANT SOME FOOD
-0.9031 WANT TO DO?
-0.4260 WANT TO TALK
-0.3010 WE GOING? </s>
-0.3010 WE HERE? </s>
-0.3010 WE ONLINE? </s>
-0.3010 WEATHER TODAY? </s>
-0.3010 WELCOME ASSISTANT </s>
-0.3010 WELL DONE </s>
-0.6021 WHAT ARE YOU
-0.6021 WHAT ARE YOU?
-0.3010 WHAT CAN YOU
-0.3010 WHAT DAY IS
-0.3010 WHAT DO YOU
-0.3010 WHAT DOES THAT
-0.3010 WHAT HAPPENED? </s>
-1.0792 WHAT IS GOING
-1.0792 WHAT IS HAPPENING?
-1.0792 WHAT IS MY
-0.7782 WHAT IS THE
-1.0792 WHAT IS YOUR
-0.3010 WHAT IT BE
-0.6021 WHAT TIME </s>
-0.6021 WHAT TIME IS
-0.3010 WHAT TO DO?
-0.3010 WHAT WHAT? </s>
-0.7782 WHAT WOULD HAPPEN
-0.4771 WHAT WOULD YOU
-0.3010 WHAT'S ACTUALLY GOING
-0.3010 WHAT'S GOING ON?
-0.3010 WHAT'S HAPPENING? </s>
-0.3010 WHAT'S UP WITH
-0.3010 WHAT'S UP? </s>
-0.7782 WHERE ARE WE
-0.7782 WHERE ARE WE?
-0.7782 WHERE ARE YOU?
-0.3010 WHERE IS MY
-0.3010 WHO ARE YOU?
-0.3010 WHO ASKED YOU?
-0.3010 WHO IS YOUR
-0.6021 WHY ARE WE
-0.6021 WHY ARE YOU
-0.3010 WHY DON'T YOU
-0.3010 WITH YOU </s>
-0.3010 WITH YOU? </s>
-0.3010 WORKING GOOD </s>
-0.3010 WOULD HAPPEN THEN?
-0.3010 WOULD LIKE TO
-0.6021 WOULD YOU LIKE
-0.6021 WOULD YOU LIKE?
-0.3010 WRONG ASSISTANT </s>
-0.3010 YES BE QUIET
-0.3010 YO ASSISTANT </s>
-1.6628 YOU ARE ARTIFICIAL
-1.6628 YOU ARE BACK
-1.6628 YOU ARE CONFUSED
-1.0607 YOU ARE DOING
-1.3617 YOU ARE GETTING
-1.6628 YOU ARE GREAT
-1.6628 YOU ARE HERE
-1.6628 YOU ARE INCREDIBLE
-1.6628 YOU ARE LEARNING
-1.6628 YOU ARE RIGHT
-1.6628 YOU ARE SMART
-1.6628 YOU ARE SO
-1.6628 YOU ARE THERE
-1.3617 YOU ARE WELCOME
-1.6628 YOU ARE WONDERFUL
-1.3617 YOU ARE WORKING
-1.6628 YOU ARE WRONG
-0.3010 YOU ASSISTANT </s>
-0.3010 YOU CARE ABOUT?
-0.3010 YOU CONFUSED? </s>
-0.3010 YOU DO? </s>
-0.3010 YOU DOING? </s>
-0.6021 YOU DON'T KNOW
-0.6021 YOU DON'T UNDERSTAND
-0.3010 YOU FEEL? </s>
-0.3010 YOU FEELING? </s>
-0.3010 YOU GOOD </s>
-0.3010 YOU GOT IT
-0.3010 YOU HAD ENOUGH?
-0.3010 YOU HELP ME?
-0.3010 YOU HELP? </s>
-0.3010 YOU HERE? </s>
-0.3010 YOU HOW TO
-0.3010 YOU JUST SAID
-0.6021 YOU KNOW </s>
-0.6021 YOU KNOW IT
-1.4472 YOU LIKE IT?
-1.1461 YOU LIKE LEARNING
-1.4472 YOU LIKE LEARNING?
-1.4472 YOU LIKE ME?
-1.4472 YOU LIKE SEE
-1.4472 YOU LIKE THIS
-1.4472 YOU LIKE THIS?
-0.6690 YOU LIKE TO
-0.3010 YOU LIKE? </s>
-0.3010 YOU NOT SURE
-0.3010 YOU REAL? </s>
-0.3010 YOU RIGHT </s>
-0.3010 YOU SAID THAT
-0.3010 YOU SAY? </s>
-0.3010 YOU SORRY? </s>
-0.3010 YOU SOUND GOOD
-0.3010 YOU TELLING ME
-0.3010 YOU THERE? </s>
-0.7782 YOU THINK </s>
-0.7782 YOU THINK ABOUT
-0.7782 YOU THINK SO
-0.3010 YOU THINK? </s>
-0.3010 YOU TO TALK
-0.3010 YOU TODAY? </s>
-0.3010 YOU UNDERSTAND? </s>
-0.3010 YOU WANT TO
-0.3010 YOU WANT? </s>
-0.3010 YOU WORK </s>
-0.3010 YOUR DADDY? </s>
-0.3010 YOUR NAME? </s>
-0.3010 YOUR VOICE COULD
-0.3010 ZERO EIGHT FIVE

\end\
