Language model created by QuickLM on Sun Oct 23 10:27:13 EDT 2016
Copyright (c) 1996-2010 Carnegie Mellon University and Alexander I. Rudnicky

The model is in standard ARPA format, designed by Doug Paul while he was at MITRE.

The code that was used to produce this language model is available in Open Source.
Please visit http://www.speech.cs.cmu.edu/tools/ for more information

The (fixed) discount mass is 0.5. The backoffs are computed using the ratio method.
This model based on a corpus of 576 sentences and 438 words

\data\
ngram 1=438
ngram 2=1080
ngram 3=1215

\1-grams:
-0.9713 </s> -0.3010
-0.9713 <s> -0.2068
-2.7317 A -0.3002
-3.1297 ABOUT -0.2913
-3.1297 ABOUT? -0.2520
-3.4307 ABSOLUTELY -0.2516
-3.7317 ABSURD -0.2520
-3.7317 ACTUALLY -0.3006
-3.7317 AFFIRMATIVE -0.2520
-3.1297 AH -0.2995
-3.7317 ALERT -0.2520
-3.4307 ALL -0.3004
-3.7317 ALLRIGHT -0.2520
-3.4307 ALOT -0.2520
-3.4307 ALRIGHT -0.2520
-3.7317 ALRIGHT... -0.2520
-2.2132 AM -0.2922
-3.1297 AMAZING -0.2517
-3.7317 AMBIENT -0.3008
-3.7317 AND -0.2520
-3.4307 ANGRY -0.2520
-3.7317 ANYTHING -0.2520
-3.7317 ANYTHING? -0.2520
-1.9324 ARE -0.2774
-3.7317 ARTIFICIAL -0.3009
-3.7317 ASKED -0.3002
-3.4307 ASSIST -0.2520
-3.7317 AWAY -0.2520
-2.8867 AWESOME -0.2509
-3.4307 BACK -0.2518
-2.8867 BE -0.3000
-3.7317 BED -0.2520
-3.7317 BEER -0.2520
-3.7317 BEGINNING -0.3009
-3.1297 BETTER -0.2520
-3.7317 BILLION -0.3009
-3.7317 BLOCK -0.3009
-3.7317 BROKEN -0.3009
-3.7317 BURPED -0.2520
-3.7317 C -0.2520
-3.4307 CALCULATE -0.3009
-3.7317 CALLED? -0.2520
-3.0328 CAN -0.2913
-3.7317 CARE -0.3007
-3.4307 CHECK -0.3008
-3.7317 CHILL -0.3009
-3.7317 CLEAR -0.2520
-2.7775 CLOSE -0.2984
-3.2546 COFFEE -0.2520
-3.7317 COME -0.3009
-3.2546 COMMAND -0.2520
-3.7317 COMMANDS -0.2520
-3.7317 COMP -0.2520
-3.7317 CONFUSED -0.2520
-3.7317 CONFUSED? -0.2520
-3.2546 CONNECTION -0.2520
-3.7317 CONTROL -0.3009
-3.1297 COOL -0.2520
-3.7317 CORPORATION -0.2520
-3.4307 CORRECT -0.2520
-3.7317 COULD -0.3005
-3.1297 CRAZY -0.2520
-3.7317 CREEPY -0.2520
-3.7317 CRUX -0.3009
-3.7317 DADDY? -0.2520
-3.7317 DAMMIT -0.2520
-3.4307 DAMN -0.2511
-3.1297 DAY -0.2983
-3.7317 DAY? -0.2520
-3.4307 DEVICES -0.2520
-3.7317 DIAGNOSTICS -0.2520
-3.2546 DID -0.2952
-3.1297 DIDN'T -0.2514
-3.7317 DIK -0.2914
-3.7317 DIRTY -0.2520
-2.5276 DO -0.2914
-3.0328 DO? -0.2520
-3.7317 DOCUMENT -0.2520
-3.2546 DOES -0.2994
-2.4765 DOING -0.2954
-3.7317 DOING? -0.2520
-2.8867 DON'T -0.2906
-3.4307 DONE -0.2520
-3.1297 DOWN -0.2520
-3.7317 DRINK -0.2520
-3.2546 DUDE -0.2520
-3.7317 ECHO -0.3009
-3.7317 EIGHT -0.3009
-3.7317 EIGHTEEN -0.3009
-3.7317 EIGHTY -0.3009
-3.7317 ELEVEN -0.3009
-3.7317 EM -0.2520
-3.2546 EMAIL -0.2514
-3.4307 END -0.2518
-3.7317 ENJOY -0.2520
-3.4307 ENOUGH -0.2517
-3.4307 ENOUGH? -0.2520
-3.7317 ENTER -0.2520
-3.7317 ESCAPE -0.2520
-2.8867 EVERYTHING -0.2493
-3.7317 EXCELLENT -0.2520
-3.4307 FAIRLY -0.3005
-3.4307 FANTASTIC -0.2520
-3.4307 FAREWELL -0.2494
-3.7317 FARTED -0.2520
-2.8287 FEEL -0.2947
-3.2546 FEEL? -0.2520
-2.8287 FEELING -0.2952
-3.7317 FEELING? -0.2520
-3.7317 FIFTEEN -0.3009
-3.7317 FIFTY -0.3009
-3.2546 FILE -0.2520
-3.7317 FINALLY -0.2520
-3.7317 FIND -0.2520
-2.9536 FINE -0.2494
-3.7317 FIREFOX -0.2520
-3.7317 FIVE -0.3009
-3.4307 FLIP -0.2519
-3.7317 FOOD -0.2520
-3.1297 FOR -0.2995
-3.7317 FORGET -0.3002
-3.7317 FORTY -0.3009
-3.7317 FOUR -0.3009
-3.7317 FOURTEEN -0.3009
-3.7317 FREAK -0.3009
-3.7317 FRIEND -0.2520
-3.7317 FULL -0.3009
-3.4307 FUNNY -0.2520
-3.7317 GEE -0.3004
-3.7317 GET -0.3001
-3.1297 GETTING -0.3001
-3.1297 GO -0.2988
-3.7317 GOD -0.2520
-3.0328 GOING -0.2491
-3.4307 GOING? -0.2520
-2.2694 GOOD -0.2483
-3.4307 GOODBYE -0.2494
-3.4307 GOODNIGHT -0.2494
-3.7317 GOT -0.3002
-2.5856 GREAT -0.2487
-3.4307 GREETINGS -0.2494
-3.7317 GROOVY -0.2520
-3.4307 HAD -0.3009
-3.7317 HAPPEN -0.3009
-3.7317 HAPPENED? -0.2520
-3.7317 HAPPENING? -0.2520
-3.7317 HAPPY -0.2520
-3.7317 HARDER -0.2520
-3.7317 HATE -0.2914
-3.7317 HAVE -0.2914
-3.7317 HEAR -0.2914
-3.7317 HELL -0.3003
-2.8287 HELLO -0.2364
-3.7317 HELP -0.3008
-3.7317 HELP? -0.2520
-3.7317 HERE -0.2520
-3.4307 HERE? -0.2520
-3.1297 HEY -0.2383
-3.1297 HI -0.2372
-3.7317 HILARIOUS -0.2520
-3.7317 HOME -0.2520
-2.5557 HOW -0.2414
-3.7317 HOW'S -0.3002
-3.7317 HUNDRED -0.3009
-3.4307 HUNGRY -0.2520
-1.8992 I -0.2890
-3.2546 INCREDIBLE -0.2520
-3.7317 INDEED -0.2520
-3.7317 INTELLIGENCE -0.2520
-3.4307 INTERNET -0.3005
-2.2694 IS -0.2443
-3.7317 IS? -0.2520
-3.7317 ISN'T -0.3005
-2.7317 IT -0.2474
-3.4307 IT'S -0.3009
-3.1297 IT? -0.2520
-3.1297 JOB -0.2520
-3.0328 JUST -0.3005
-3.7317 KIND -0.2520
-3.1297 KNOW -0.2511
-3.7317 KNOWS? -0.2520
-3.7317 LAST -0.3008
-3.4307 LATER -0.2520
-3.7317 LEARN -0.2520
-2.8867 LEARNING -0.2985
-3.7317 LEARNING? -0.2520
-3.4307 LET'S -0.2997
-2.3893 LIKE -0.2457
-3.2546 LIKE? -0.2520
-3.0328 LIST -0.2514
-3.2546 LISTEN -0.2494
-3.7317 LOVE -0.2914
-3.7317 LUSS -0.2520
-3.7317 M -0.2520
-3.2546 MACHINE -0.2520
-3.7317 MAD -0.2520
-3.7317 MAKE -0.3001
-3.7317 MATRIX -0.2520
-3.7317 MATTER -0.2520
-3.7317 MAXIMIZE -0.3008
-3.4307 MAYBE -0.2518
-2.6526 ME -0.2461
-3.2546 ME? -0.2520
-3.7317 MEAN? -0.2520
-3.7317 MILLION -0.3009
-3.7317 MIND? -0.2520
-3.7317 MINIMIZE -0.3008
-3.7317 MINUTE -0.3009
-3.7317 MODULES -0.2520
-3.2546 MORNING -0.2494
-3.7317 MOST -0.3009
-2.9536 MUCH -0.2519
-3.2546 MUSIC -0.2520
-3.2546 MY -0.3007
-3.7317 NAME -0.2520
-3.4307 NAME? -0.2520
-3.1297 NEED -0.2407
-3.4307 NET -0.3005
-3.2546 NETWORK -0.3004
-3.7317 NEVER -0.2520
-3.7317 NEVERMIND -0.2520
-3.7317 NEW -0.3006
-3.1297 NEWS -0.2520
-3.4307 NEXT -0.3001
-3.1297 NICE -0.2512
-3.7317 NICELY -0.3009
-3.7317 NINE -0.3009
-3.7317 NINTEEN -0.3009
-3.7317 NINTY -0.3009
-2.7775 NO -0.2434
-3.7317 NONSENSE -0.2520
-3.1297 NOT -0.2512
-3.7317 NOTE -0.2520
-3.2546 NOTHING -0.2493
-3.7317 NUTS -0.2520
-3.4307 OF -0.3008
-3.2546 OH -0.2985
-2.7775 OK -0.2489
-3.7317 OK... -0.2520
-3.7317 OLD -0.2959
-3.4307 ON -0.2520
-3.2546 ON? -0.2520
-3.7317 ONE -0.3009
-3.7317 ONLINE? -0.2520
-3.7317 ONLY -0.3009
-2.6904 OPEN -0.2977
-3.7317 OPTIMISTIC -0.2520
-3.7317 OTHER -0.3009
-3.4307 OUT -0.2520
-3.4307 PAGE -0.2998
-3.7317 PILL -0.2520
-3.7317 PING -0.3009
-3.7317 PISSED -0.2520
-3.1297 PLAY -0.2499
-2.9536 PLEASE -0.2485
-3.7317 PLUS -0.2520
-3.7317 POINT -0.2520
-3.7317 POSITIVE -0.2520
-3.1297 PRETTY -0.2981
-3.2546 PREVIOUS -0.2998
-3.7317 PROCESSES -0.2520
-3.4307 PROJECT -0.3009
-3.7317 QUESTION -0.2520
-3.2546 QUIET -0.2520
-3.0328 QUIT -0.2499
-3.7317 RANDOM -0.2520
-3.2546 READ -0.2997
-3.7317 READING -0.2520
-3.7317 READY -0.3007
-3.7317 REAL? -0.2520
-3.7317 REALLY -0.2520
-3.7317 REBOOT -0.3008
-3.4307 RECORD -0.2520
-3.4307 RED -0.3009
-3.7317 REDDIT -0.2520
-3.2546 REE -0.2519
-3.2546 REPEAT -0.3005
-3.7317 RESET -0.2520
-3.7317 REWIND -0.2520
-2.8287 RIGHT -0.2493
-3.4307 RIGHTEOUS -0.2520
-3.7317 RUN -0.3009
-2.9536 SAD -0.2520
-3.7317 SAID -0.3005
-3.7317 SANDWICH -0.2520
-3.7317 SAOMETHING -0.3009
-3.7317 SAUCE -0.2520
-3.4307 SAVE -0.3007
-2.9536 SAY -0.2996
-3.1297 SAY? -0.2520
-3.7317 SCREEN -0.2520
-3.7317 SCREWED -0.3001
-3.4307 SCROLL -0.2998
-3.4307 SEARCH -0.2513
-3.2546 SEE -0.2517
-3.7317 SEVEN -0.3009
-3.7317 SEVENTEEN -0.3009
-3.7317 SEVENTY -0.3009
-3.4307 SHIT -0.2520
-3.7317 SHOW -0.3006
-3.2546 SHUT -0.3001
-3.7317 SILENCE -0.2520
-3.2546 SILENT -0.2520
-3.2546 SING -0.2989
-3.7317 SINGING -0.2520
-3.7317 SIX -0.3009
-3.7317 SIXTEEN -0.3009
-3.7317 SIXTY -0.3009
-3.2546 SMART -0.2520
-3.7317 SMARTER -0.2520
-2.9536 SO -0.2508
-3.4307 SOME -0.3007
-3.4307 SOMETHING -0.2520
-3.1297 SONG -0.2520
-3.4307 SORRY -0.2520
-3.7317 SORRY? -0.2520
-3.7317 SOUND -0.2987
-3.7317 SOUNDS -0.2987
-3.1297 SPEAK -0.2520
-3.4307 SPEAK? -0.2520
-3.7317 SPEAKING -0.2520
-3.2546 SPEED -0.2520
-3.7317 STACK -0.2520
-3.4307 START -0.3001
-3.0328 STATUS -0.2520
-2.2846 STELLA -0.2499
-3.4307 STELLA? -0.2520
-2.8867 STOP -0.2496
-3.4307 STORY -0.2520
-3.4307 STUPID -0.2520
-3.4307 SUCK -0.2520
-3.7317 SUCKS -0.2520
-3.7317 SUPER -0.2520
-3.2546 SURE -0.2490
-3.4307 SURE? -0.2520
-3.7317 SUSPEND -0.3008
-3.7317 SWEET -0.2520
-3.7317 SYSTEM -0.3006
-3.0328 TAB -0.2520
-3.7317 TABS -0.2520
-3.4307 TAG -0.2520
-2.5276 TALK -0.2485
-3.2546 TALKING -0.2495
-3.4307 TEACHING -0.2914
-3.4307 TECHNOLOGY -0.3007
-3.2546 TELL -0.3001
-3.7317 TELLING -0.3001
-3.7317 TEN -0.3009
-2.8867 TERMINAL -0.2520
-3.7317 TERRIBLE -0.2520
-2.9536 TEST -0.3005
-2.8867 THANK -0.2386
-2.8287 THANKS -0.2384
-2.9536 THAT -0.2512
-2.7775 THAT'S -0.2971
-2.7317 THE -0.2994
-3.7317 THEN? -0.2520
-3.2546 THERE -0.2520
-3.4307 THERE? -0.2520
-3.0328 THINGS -0.2958
-3.4307 THINGS? -0.2520
-3.0328 THINK -0.2511
-3.2546 THINK? -0.2520
-3.7317 THIRTEEN -0.3009
-3.7317 THIRTY -0.3009
-3.1297 THIS -0.2486
-3.7317 THIS? -0.2520
-3.7317 THOUSAND -0.3009
-3.7317 THREE -0.3009
-3.7317 THUNDERBIRD -0.2520
-3.1297 TIME -0.2493
-3.7317 TIME? -0.2520
-3.7317 TIMER -0.2520
-3.7317 TIMES -0.2520
-3.0328 TIRED -0.2520
-2.3004 TO -0.2865
-3.1297 TODAY? -0.2520
-3.4307 TOPIC -0.2520
-3.7317 TOTALLY -0.2520
-3.0328 TRUE -0.2514
-3.7317 TRY -0.3009
-3.7317 TWELVE -0.3009
-3.7317 TWENTY -0.3009
-3.7317 TWO -0.3009
-3.7317 TYPING -0.2520
-3.7317 TYRELL -0.3009
-3.7317 UNDERSTAND -0.2520
-3.4307 UNDERSTAND? -0.2520
-2.6904 UP -0.2491
-3.4307 UP? -0.2520
-3.7317 UPSET -0.2520
-3.7317 USERNAME -0.2520
-2.6526 VERY -0.2971
-3.4307 VOICE -0.3009
-3.7317 VOID -0.3009
-3.4307 VOLUME -0.2998
-3.7317 WAKE -0.3001
-2.8287 WANT -0.2976
-3.7317 WANT? -0.2520
-3.4307 WAY -0.2520
-3.2546 WE -0.3006
-3.7317 WE? -0.2520
-3.7317 WEATHER -0.3007
-3.7317 WEATHER? -0.2520
-2.8867 WEB -0.2520
-3.7317 WEBLIFE -0.2520
-3.4307 WELCOME -0.2494
-2.8867 WELL -0.2518
-2.0597 WHAT -0.2797
-3.7317 WHAT'S -0.3009
-3.1297 WHAT? -0.2520
-3.7317 WHATEVER -0.2520
-3.1297 WHERE -0.2936
-3.1297 WHO -0.2934
-3.2546 WHY -0.2954
-3.7317 WHY? -0.2520
-3.7317 WIKI -0.2520
-3.2546 WINDOW -0.2520
-3.4307 WITH -0.2906
-3.0328 WONDERFUL -0.2520
-3.7317 WOOD? -0.2520
-3.1297 WORK -0.2520
-3.2546 WORKING -0.2490
-3.4307 WORLD -0.3007
-3.0328 WOULD -0.2895
-3.7317 WOW -0.2520
-3.0328 WRONG -0.2494
-3.7317 X -0.2520
-3.7317 YAY -0.2520
-3.7317 YEAH -0.2520
-3.4307 YES -0.2513
-3.4307 YO -0.2494
-1.6599 YOU -0.2213
-2.8287 YOU'RE -0.2978
-2.7317 YOU? -0.2520
-3.1297 YOUR -0.3005
-3.7317 YOUTUBE -0.2520
-3.7317 ZERO -0.3009

\2-grams:
-2.7604 <s> ABSOLUTELY 0.0000
-3.0615 <s> ABSURD 0.0000
-3.0615 <s> AFFIRMATIVE 0.0000
-2.4594 <s> AH 0.0000
-2.7604 <s> ALL 0.0000
-3.0615 <s> ALLRIGHT 0.0000
-2.5843 <s> AM -0.2596
-2.7604 <s> AMAZING 0.0000
-2.1584 <s> ARE -0.2135
-3.0615 <s> ASSIST 0.0000
-2.3625 <s> AWESOME -0.0000
-3.0615 <s> BACK -0.1761
-2.7604 <s> BE -0.1091
-3.0615 <s> BEGINNING 0.0000
-3.0615 <s> BROKEN 0.0000
-2.7604 <s> CALCULATE 0.0000
-2.7604 <s> CAN -0.0792
-2.7604 <s> CHECK 0.0000
-3.0615 <s> CHILL 0.0000
-3.0615 <s> CLEAR 0.0000
-2.1072 <s> CLOSE 0.0000
-3.0615 <s> COME 0.0000
-3.0615 <s> CONTROL 0.0000
-3.0615 <s> COOL 0.0000
-3.0615 <s> CORRECT 0.0000
-3.0615 <s> CRAZY 0.0000
-3.0615 <s> CREEPY 0.0000
-3.0615 <s> DAMN -0.1761
-2.3625 <s> DO 0.0000
-2.2833 <s> DOING -0.0235
-2.7604 <s> DON'T -0.1963
-3.0615 <s> DOWN 0.0000
-3.0615 <s> DUDE 0.0000
-3.0615 <s> ECHO 0.0000
-2.7604 <s> END 0.0000
-2.7604 <s> ENOUGH 0.0000
-3.0615 <s> ENTER 0.0000
-3.0615 <s> ESCAPE 0.0000
-2.2833 <s> EVERYTHING 0.0000
-3.0615 <s> EXCELLENT 0.0000
-2.7604 <s> FAREWELL 0.0000
-3.0615 <s> FEEL -0.2730
-2.3625 <s> FEELING -0.0969
-3.0615 <s> FINALLY 0.0000
-3.0615 <s> FIND 0.0000
-2.7604 <s> FINE 0.0000
-3.0615 <s> FLIP -0.1761
-2.7604 <s> FOR -0.1761
-3.0615 <s> FORGET 0.0000
-3.0615 <s> FREAK 0.0000
-3.0615 <s> FULL 0.0000
-3.0615 <s> FUNNY 0.0000
-3.0615 <s> GEE 0.0000
-3.0615 <s> GET 0.0000
-2.4594 <s> GO 0.0000
-3.0615 <s> GOING -0.2553
-2.2833 <s> GOOD -0.0147
-2.7604 <s> GOODBYE 0.0000
-2.7604 <s> GOODNIGHT 0.0000
-2.5843 <s> GREAT -0.0300
-2.7604 <s> GREETINGS 0.0000
-3.0615 <s> GROOVY 0.0000
-3.0615 <s> HAD 0.0000
-3.0615 <s> HAVE 0.0000
-3.0615 <s> HELL 0.0000
-2.1584 <s> HELLO 0.0000
-2.4594 <s> HEY 0.0000
-2.4594 <s> HI 0.0000
-3.0615 <s> HILARIOUS 0.0000
-3.0615 <s> HOME 0.0000
-2.0201 <s> HOW -0.0280
-3.0615 <s> HOW'S 0.0000
-1.2621 <s> I -0.0126
-3.0615 <s> INDEED 0.0000
-3.0615 <s> IS -0.2858
-3.0615 <s> ISN'T 0.0000
-3.0615 <s> IT -0.2788
-2.7604 <s> IT'S 0.0000
-3.0615 <s> LATER 0.0000
-2.7604 <s> LEARNING -0.0580
-2.7604 <s> LET'S 0.0000
-2.4594 <s> LIKE -0.2374
-2.3625 <s> LIST 0.0000
-2.7604 <s> LISTEN 0.0000
-3.0615 <s> MAKE 0.0000
-3.0615 <s> MATRIX 0.0000
-3.0615 <s> MAXIMIZE 0.0000
-2.7604 <s> MAYBE 0.0000
-3.0615 <s> MINIMIZE 0.0000
-2.7604 <s> MORNING 0.0000
-3.0615 <s> MOST 0.0000
-3.0615 <s> NEVER 0.0000
-3.0615 <s> NEVERMIND 0.0000
-3.0615 <s> NEW 0.0000
-2.7604 <s> NEXT 0.0000
-2.5843 <s> NICE 0.0000
-3.0615 <s> NICELY 0.0000
-2.1584 <s> NO 0.0000
-3.0615 <s> NONSENSE 0.0000
-3.0615 <s> NOT -0.2430
-2.5843 <s> NOTHING 0.0000
-2.5843 <s> OH 0.0000
-2.5843 <s> OK 0.0000
-2.0201 <s> OPEN 0.0000
-2.7604 <s> PAGE 0.0000
-3.0615 <s> PING 0.0000
-2.4594 <s> PLAY 0.0000
-2.3625 <s> PLEASE 0.0000
-3.0615 <s> PRETTY -0.0969
-2.7604 <s> PREVIOUS -0.1249
-2.3625 <s> QUIT 0.0000
-2.5843 <s> READ 0.0000
-3.0615 <s> REALLY 0.0000
-3.0615 <s> REBOOT 0.0000
-3.0615 <s> RECORD 0.0000
-2.7604 <s> RED 0.0000
-3.0615 <s> REE -0.2218
-2.5843 <s> REPEAT 0.0000
-3.0615 <s> RESET 0.0000
-3.0615 <s> REWIND 0.0000
-2.7604 <s> RIGHT -0.0512
-3.0615 <s> RIGHTEOUS 0.0000
-3.0615 <s> RUN 0.0000
-3.0615 <s> SAD 0.0000
-2.7604 <s> SAVE 0.0000
-2.5843 <s> SAY -0.1761
-2.7604 <s> SCROLL 0.0000
-2.7604 <s> SEARCH 0.0000
-3.0615 <s> SEE -0.1249
-3.0615 <s> SHOW 0.0000
-2.7604 <s> SHUT 0.0000
-3.0615 <s> SILENCE 0.0000
-3.0615 <s> SILENT 0.0000
-2.5843 <s> SING 0.0000
-3.0615 <s> SO -0.2632
-3.0615 <s> SORRY 0.0000
-3.0615 <s> SOUNDS 0.0000
-2.7604 <s> START 0.0000
-2.4594 <s> STELLA 0.0000
-2.2164 <s> STOP -0.0000
-3.0615 <s> STUPID 0.0000
-2.7604 <s> SURE -0.1249
-3.0615 <s> SUSPEND 0.0000
-3.0615 <s> SYSTEM 0.0000
-3.0615 <s> TAG 0.0000
-2.7604 <s> TALK -0.2583
-3.0615 <s> TECHNOLOGY 0.0000
-2.5843 <s> TELL 0.0000
-3.0615 <s> TERMINAL 0.0000
-3.0615 <s> TERRIBLE 0.0000
-2.2833 <s> TEST 0.0000
-2.2833 <s> THANK 0.0000
-2.2833 <s> THANKS 0.0000
-2.2164 <s> THAT'S -0.0872
-2.3625 <s> THINGS 0.0000
-2.7604 <s> THIS -0.1761
-2.7604 <s> TIME 0.0000
-3.0615 <s> TIRED 0.0000
-3.0615 <s> TOTALLY 0.0000
-2.7604 <s> TRUE 0.0000
-3.0615 <s> TRY 0.0000
-3.0615 <s> TYRELL 0.0000
-2.2833 <s> VERY -0.0969
-3.0615 <s> VOICE -0.1761
-3.0615 <s> VOID 0.0000
-2.7604 <s> VOLUME 0.0000
-3.0615 <s> WAKE 0.0000
-3.0615 <s> WANT -0.1761
-3.0615 <s> WAY 0.0000
-3.0615 <s> WELL -0.2688
-1.3987 <s> WHAT -0.0091
-3.0615 <s> WHAT'S 0.0000
-3.0615 <s> WHAT? 0.0000
-3.0615 <s> WHATEVER 0.0000
-2.4594 <s> WHERE 0.0000
-2.4594 <s> WHO 0.0000
-2.5843 <s> WHY 0.0000
-3.0615 <s> WHY? 0.0000
-3.0615 <s> WONDERFUL 0.0000
-3.0615 <s> WORLD 0.0000
-3.0615 <s> WOW 0.0000
-2.7604 <s> WRONG 0.0000
-3.0615 <s> YAY 0.0000
-3.0615 <s> YEAH 0.0000
-2.7604 <s> YES 0.0000
-2.7604 <s> YO 0.0000
-1.3056 <s> YOU -0.1403
-2.1584 <s> YOU'RE 0.0000
-3.0615 <s> YOUR -0.2430
-3.0615 <s> ZERO 0.0000
-1.3010 A BEER 0.0000
-1.3010 A DRINK 0.0000
-1.3010 A MINUTE 0.0000
-1.3010 A SANDWICH 0.0000
-0.6990 A SONG 0.0000
-1.0000 A STORY 0.0000
-0.9031 ABOUT ANYTHING? 0.0000
-0.4260 ABOUT YOU -0.2725
-0.3010 ABOUT? </s> -0.3010
-0.6021 ABSOLUTELY </s> -0.3010
-0.6021 ABSOLUTELY NOT -0.1761
-0.3010 ABSURD </s> -0.3010
-0.3010 ACTUALLY GOING -0.1461
-0.3010 AFFIRMATIVE </s> -0.3010
-0.9031 AH DAMMIT 0.0000
-0.9031 AH DAMN -0.1761
-0.9031 AH GREAT -0.0843
-0.9031 AH SHIT 0.0000
-0.3010 ALERT </s> -0.3010
-0.3010 ALL RIGHT -0.0512
-0.3010 ALLRIGHT </s> -0.3010
-0.3010 ALOT </s> -0.3010
-0.3010 ALRIGHT </s> -0.3010
-0.3010 ALRIGHT... </s> -0.3010
-1.8195 AM ALRIGHT 0.0000
-1.8195 AM ANGRY 0.0000
-0.9744 AM DOING -0.0669
-1.3424 AM FEELING -0.1761
-1.5185 AM FINE -0.0669
-1.5185 AM GETTING -0.1761
-1.8195 AM GOOD -0.0817
-1.8195 AM HUNGRY 0.0000
-1.5185 AM OK -0.0872
-1.8195 AM ONLY 0.0000
-1.8195 AM PISSED 0.0000
-1.8195 AM READY 0.0000
-1.8195 AM SAD 0.0000
-1.8195 AM SORRY 0.0000
-1.5185 AM TALKING 0.0000
-1.5185 AM TEACHING 0.0000
-1.5185 AM TIRED 0.0000
-1.8195 AM UPSET 0.0000
-1.8195 AM WELL -0.0580
-0.4260 AMAZING </s> -0.3010
-0.9031 AMAZING DUDE 0.0000
-0.3010 AMBIENT MUSIC 0.0000
-0.3010 AND </s> -0.3010
-0.3010 ANGRY </s> -0.3010
-0.3010 ANYTHING </s> -0.3010
-0.3010 ANYTHING? </s> -0.3010
-2.1004 ARE AMAZING -0.0969
-2.1004 ARE ARTIFICIAL 0.0000
-2.1004 ARE AWESOME -0.1963
-2.1004 ARE BACK -0.1761
-2.1004 ARE CONFUSED 0.0000
-2.1004 ARE CORRECT 0.0000
-2.1004 ARE CRAZY 0.0000
-1.4983 ARE DOING -0.1919
-2.1004 ARE FINE -0.0669
-1.7993 ARE GETTING -0.1761
-1.7993 ARE GOOD -0.0817
-2.1004 ARE GREAT -0.0843
-2.1004 ARE HERE 0.0000
-2.1004 ARE INCREDIBLE 0.0000
-1.7993 ARE LEARNING -0.0580
-2.1004 ARE OPTIMISTIC 0.0000
-2.1004 ARE RIGHT -0.0969
-2.1004 ARE SCREWED 0.0000
-2.1004 ARE SMART 0.0000
-2.1004 ARE SO -0.2632
-2.1004 ARE THERE 0.0000
-1.7993 ARE THINGS? 0.0000
-1.6232 ARE VERY -0.1996
-1.6232 ARE WE 0.0000
-2.1004 ARE WE? 0.0000
-1.7993 ARE WELCOME 0.0000
-2.1004 ARE WONDERFUL 0.0000
-1.6232 ARE WORKING 0.0000
-2.1004 ARE WRONG -0.0792
-1.0212 ARE YOU -0.2764
-1.1973 ARE YOU? 0.0000
-0.3010 ARTIFICIAL INTELLIGENCE 0.0000
-0.3010 ASKED YOU? 0.0000
-0.3010 ASSIST </s> -0.3010
-0.3010 AWAY </s> -0.3010
-0.6690 AWESOME </s> -0.3010
-1.1461 AWESOME DUDE 0.0000
-1.1461 AWESOME JOB 0.0000
-1.1461 AWESOME SAUCE 0.0000
-1.1461 AWESOME WORK 0.0000
-0.6021 BACK </s> -0.3010
-0.6021 BACK FLIP -0.1761
-1.1461 BE BETTER 0.0000
-1.1461 BE LIKE? 0.0000
-0.6690 BE QUIET 0.0000
-0.8451 BE SILENT 0.0000
-0.3010 BED </s> -0.3010
-0.3010 BEER </s> -0.3010
-0.3010 BEGINNING OF 0.0000
-0.3010 BETTER </s> -0.3010
-0.3010 BILLION MILLION 0.0000
-0.3010 BLOCK DEVICES 0.0000
-0.3010 BROKEN RECORD 0.0000
-0.3010 BURPED </s> -0.3010
-0.3010 C </s> -0.3010
-0.6021 CALCULATE PLUS 0.0000
-0.6021 CALCULATE TIMES 0.0000
-0.3010 CALLED? </s> -0.3010
-1.0000 CAN HEAR 0.0000
-0.3979 CAN YOU -0.2936
-0.3010 CARE ABOUT? 0.0000
-0.3010 CHECK EMAIL 0.0000
-0.3010 CHILL OUT 0.0000
-0.3010 CLEAR </s> -0.3010
-1.2553 CLOSE EMAIL -0.1249
-1.2553 CLOSE OTHER 0.0000
-1.2553 CLOSE PROJECT -0.1761
-1.2553 CLOSE STATUS 0.0000
-1.2553 CLOSE TAB 0.0000
-0.9542 CLOSE TERMINAL 0.0000
-1.2553 CLOSE WEB 0.0000
-1.2553 CLOSE WINDOW 0.0000
-0.3010 COFFEE </s> -0.3010
-0.3010 COME ON 0.0000
-0.3010 COMMAND </s> -0.3010
-0.3010 COMMANDS </s> -0.3010
-0.3010 COMP </s> -0.3010
-0.3010 CONFUSED </s> -0.3010
-0.3010 CONFUSED? </s> -0.3010
-0.3010 CONNECTION </s> -0.3010
-0.3010 CONTROL C 0.0000
-0.3010 COOL </s> -0.3010
-0.3010 CORPORATION </s> -0.3010
-0.3010 CORRECT </s> -0.3010
-0.3010 COULD BE -0.2688
-0.3010 CRAZY </s> -0.3010
-0.3010 CREEPY </s> -0.3010
-0.3010 CRUX WIKI 0.0000
-0.3010 DADDY? </s> -0.3010
-0.3010 DAMMIT </s> -0.3010
-0.6021 DAMN </s> -0.3010
-0.6021 DAMN IT -0.2041
-0.6021 DAY IS -0.2700
-0.9031 DAY IS? 0.0000
-0.9031 DAY TODAY? 0.0000
-0.3010 DAY? </s> -0.3010
-0.3010 DEVICES </s> -0.3010
-0.3010 DIAGNOSTICS </s> -0.3010
-0.4771 DID I -0.2848
-0.7782 DID NOT -0.1761
-0.9031 DIDN'T </s> -0.3010
-0.4260 DIDN'T SAY -0.1761
-0.3010 DIK YOU -0.2992
-0.3010 DIRTY </s> -0.3010
-0.3010 DO YOU -0.2503
-0.3010 DO? </s> -0.3010
-0.3010 DOCUMENT </s> -0.3010
-0.7782 DOES IT -0.2788
-0.7782 DOES THAT -0.2632
-0.7782 DOES THIS -0.2430
-1.5563 DOING BETTER 0.0000
-1.2553 DOING FAIRLY 0.0000
-0.8573 DOING GOOD -0.0691
-1.0792 DOING GREAT -0.0580
-1.2553 DOING OK -0.0872
-1.0792 DOING PRETTY 0.0000
-1.2553 DOING WELL -0.0580
-0.3010 DOING? </s> -0.3010
-0.8451 DON'T KNOW -0.0969
-1.1461 DON'T THINK -0.2041
-1.1461 DON'T UNDERSTAND 0.0000
-0.6690 DON'T YOU -0.2646
-0.3010 DONE </s> -0.3010
-0.3010 DOWN </s> -0.3010
-0.3010 DRINK </s> -0.3010
-0.3010 DUDE </s> -0.3010
-0.3010 ECHO USERNAME 0.0000
-0.3010 EIGHT FIVE 0.0000
-0.3010 EIGHTEEN ELEVEN 0.0000
-0.3010 EIGHTY FIFTY 0.0000
-0.3010 ELEVEN FIFTEEN 0.0000
-0.3010 EM </s> -0.3010
-0.4771 EMAIL </s> -0.3010
-0.7782 EMAIL PLEASE -0.2218
-0.6021 END </s> -0.3010
-0.6021 END OF 0.0000
-0.3010 ENJOY </s> -0.3010
-0.6021 ENOUGH </s> -0.3010
-0.6021 ENOUGH TALKING -0.1249
-0.3010 ENOUGH? </s> -0.3010
-0.3010 ENTER </s> -0.3010
-0.3010 ESCAPE </s> -0.3010
-0.8451 EVERYTHING </s> -0.3010
-0.5441 EVERYTHING IS -0.2700
-1.1461 EVERYTHING SUCKS 0.0000
-0.3010 EXCELLENT </s> -0.3010
-0.3010 FAIRLY WELL -0.0580
-0.3010 FANTASTIC </s> -0.3010
-0.6021 FAREWELL </s> -0.3010
-0.6021 FAREWELL STELLA -0.0442
-0.3010 FARTED </s> -0.3010
-1.2041 FEEL ANGRY 0.0000
-1.2041 FEEL GOOD -0.0817
-1.2041 FEEL GREAT -0.0843
-1.2041 FEEL HAPPY 0.0000
-1.2041 FEEL LIKE -0.2910
-1.2041 FEEL MAD 0.0000
-1.2041 FEEL ME? 0.0000
-1.2041 FEEL SAD 0.0000
-0.3010 FEEL? </s> -0.3010
-1.2041 FEELING BETTER 0.0000
-1.2041 FEELING GOOD -0.0817
-1.2041 FEELING GREAT -0.0843
-1.2041 FEELING OK -0.0872
-0.9031 FEELING SAD 0.0000
-1.2041 FEELING TIRED 0.0000
-1.2041 FEELING WONDERFUL 0.0000
-0.3010 FEELING? </s> -0.3010
-0.3010 FIFTEEN FOURTEEN 0.0000
-0.3010 FIFTY FORTY 0.0000
-0.3010 FILE </s> -0.3010
-0.3010 FINALLY </s> -0.3010
-0.3010 FIND </s> -0.3010
-0.3802 FINE </s> -0.3010
-1.0792 FINE STELLA -0.0442
-0.3010 FIREFOX </s> -0.3010
-0.3010 FIVE FOUR 0.0000
-0.6021 FLIP </s> -0.3010
-0.6021 FLIP STACK 0.0000
-0.3010 FOOD </s> -0.3010
-0.9031 FOR BED 0.0000
-0.9031 FOR ME -0.2430
-0.9031 FOR SURE? 0.0000
-0.9031 FOR WHAT? 0.0000
-0.3010 FORGET IT -0.2041
-0.3010 FORTY NINTY 0.0000
-0.3010 FOUR NINE 0.0000
-0.3010 FOURTEEN NINTEEN 0.0000
-0.3010 FREAK OUT 0.0000
-0.3010 FRIEND </s> -0.3010
-0.3010 FULL SCREEN 0.0000
-0.3010 FUNNY </s> -0.3010
-0.3010 GEE THANKS -0.2109
-0.3010 GET ME -0.1761
-0.9031 GETTING HUNGRY 0.0000
-0.9031 GETTING SMART 0.0000
-0.9031 GETTING SMARTER 0.0000
-0.9031 GETTING TIRED 0.0000
-0.9031 GO AWAY 0.0000
-0.4260 GO TO -0.2762
-0.3010 GOD </s> -0.3010
-1.0000 GOING </s> -0.3010
-1.0000 GOING GOOD -0.0817
-0.5229 GOING ON? 0.0000
-0.3010 GOING? </s> -0.3010
-0.4017 GOOD </s> -0.3010
-1.7634 GOOD JOB 0.0000
-1.7634 GOOD MORNING -0.1249
-1.7634 GOOD POINT 0.0000
-1.7634 GOOD QUESTION 0.0000
-1.7634 GOOD STELLA -0.0442
-1.7634 GOOD WORK 0.0000
-0.6021 GOODBYE </s> -0.3010
-0.6021 GOODBYE STELLA -0.0442
-0.6021 GOODNIGHT </s> -0.3010
-0.6021 GOODNIGHT STELLA -0.0442
-0.3010 GOT IT -0.2788
-0.4058 GREAT </s> -0.3010
-1.4472 GREAT JOB 0.0000
-1.4472 GREAT STELLA -0.0442
-1.4472 GREAT WORK 0.0000
-0.6021 GREETINGS </s> -0.3010
-0.6021 GREETINGS STELLA -0.0442
-0.3010 GROOVY </s> -0.3010
-0.3010 HAD ENOUGH? 0.0000
-0.3010 HAPPEN THEN? 0.0000
-0.3010 HAPPENED? </s> -0.3010
-0.3010 HAPPENING? </s> -0.3010
-0.3010 HAPPY </s> -0.3010
-0.3010 HARDER </s> -0.3010
-0.3010 HATE YOU -0.2725
-0.3010 HAVE YOU -0.2992
-0.3010 HEAR YOU -0.2725
-0.3010 HELL NO -0.2499
-1.2041 HELLO </s> -0.3010
-0.9031 HELLO HOW -0.1663
-1.2041 HELLO MACHINE 0.0000
-1.2041 HELLO MY -0.2218
-1.2041 HELLO STELLA -0.0442
-1.2041 HELLO THERE 0.0000
-1.2041 HELLO YOU -0.2725
-0.3010 HELP ME? 0.0000
-0.3010 HELP? </s> -0.3010
-0.3010 HERE </s> -0.3010
-0.3010 HERE? </s> -0.3010
-0.9031 HEY </s> -0.3010
-0.9031 HEY STELLA -0.0442
-0.9031 HEY THERE 0.0000
-0.9031 HEY YOU -0.2725
-0.9031 HI </s> -0.3010
-0.9031 HI HOW -0.1663
-0.9031 HI STELLA -0.0442
-0.9031 HI YOU -0.2725
-0.3010 HILARIOUS </s> -0.3010
-0.3010 HOME </s> -0.3010
-1.4771 HOW </s> -0.3010
-0.5740 HOW ARE -0.2177
-1.4771 HOW DO 0.0000
-1.1761 HOW DOES -0.1249
-1.4771 HOW MUCH -0.2632
-1.4771 HOW OLD 0.0000
-1.4771 HOW TO -0.2021
-0.3010 HOW'S IT -0.2788
-0.3010 HUNDRED BILLION 0.0000
-0.3010 HUNGRY </s> -0.3010
-0.6564 I AM -0.0000
-2.1335 I CAN -0.2553
-2.1335 I DID -0.2218
-1.5315 I DIDN'T 0.0000
-1.8325 I DON'T -0.1963
-1.2884 I FEEL -0.0512
-2.1335 I GOOD -0.0817
-2.1335 I HATE 0.0000
-1.5315 I JUST -0.0792
-2.1335 I LIKE -0.2910
-2.1335 I LOVE 0.0000
-1.5315 I NEED 0.0000
-2.1335 I SAY? 0.0000
-2.1335 I SEE -0.2218
-2.1335 I THINK -0.2041
-1.3554 I WANT 0.0000
-1.8325 I WOULD -0.2041
-0.3010 INCREDIBLE </s> -0.3010
-0.3010 INDEED </s> -0.3010
-0.3010 INTELLIGENCE </s> -0.3010
-0.6021 INTERNET CONNECTION 0.0000
-0.6021 INTERNET SPEED 0.0000
-1.4624 IS </s> -0.3010
-1.7634 IS ACTUALLY 0.0000
-1.7634 IS ALOT 0.0000
-1.7634 IS FANTASTIC 0.0000
-1.4624 IS GOING -0.0792
-1.7634 IS GREAT -0.0843
-1.7634 IS HAPPENING? 0.0000
-1.7634 IS IT -0.2788
-1.2863 IS IT? 0.0000
-1.4624 IS MY -0.1249
-0.9853 IS THE -0.1461
-1.7634 IS TRUE -0.0792
-1.4624 IS UP -0.2374
-1.7634 IS UP? 0.0000
-1.7634 IS WONDERFUL 0.0000
-1.7634 IS WRONG -0.0792
-1.4624 IS YOUR -0.1761
-0.3010 IS? </s> -0.3010
-0.3010 ISN'T THAT -0.2632
-0.6990 IT </s> -0.3010
-1.3010 IT BE -0.2688
-1.3010 IT FEEL? 0.0000
-1.3010 IT GOING? 0.0000
-1.3010 IT IS -0.2858
-1.3010 IT TODAY? 0.0000
-1.3010 IT WRONG -0.0792
-0.6021 IT'S ALRIGHT... 0.0000
-0.6021 IT'S OK... 0.0000
-0.3010 IT? </s> -0.3010
-0.3010 JOB </s> -0.3010
-1.0000 JUST BURPED 0.0000
-1.0000 JUST FARTED 0.0000
-1.0000 JUST SAID 0.0000
-0.6990 JUST SAY? 0.0000
-0.3010 KIND </s> -0.3010
-0.4260 KNOW </s> -0.3010
-0.9031 KNOW IT -0.2041
-0.3010 KNOWS? </s> -0.3010
-0.3010 LAST COMMAND 0.0000
-0.3010 LATER </s> -0.3010
-0.3010 LEARN </s> -0.3010
-1.1461 LEARNING ABOUT? 0.0000
-0.3680 LEARNING TO -0.1484
-0.3010 LEARNING? </s> -0.3010
-0.3010 LET'S TALK -0.1181
-1.6435 LIKE </s> -0.3010
-1.6435 LIKE EVERYTHING -0.2341
-1.6435 LIKE IT? 0.0000
-1.1663 LIKE LEARNING 0.0000
-1.6435 LIKE LEARNING? 0.0000
-1.6435 LIKE ME? 0.0000
-1.6435 LIKE SEE -0.1249
-1.6435 LIKE SHIT 0.0000
-1.6435 LIKE THAT -0.1249
-1.6435 LIKE THIS -0.2430
-1.6435 LIKE THIS? 0.0000
-0.7404 LIKE TO -0.1127
-1.6435 LIKE WHAT? 0.0000
-0.3010 LIKE? </s> -0.3010
-1.0000 LIST </s> -0.3010
-1.0000 LIST BLOCK 0.0000
-1.0000 LIST MODULES 0.0000
-1.0000 LIST NETWORK -0.2218
-1.0000 LIST PROCESSES 0.0000
-0.4771 LISTEN </s> -0.3010
-0.7782 LISTEN STELLA -0.0442
-0.3010 LOVE YOU -0.2725
-0.3010 LUSS </s> -0.3010
-0.3010 M </s> -0.3010
-0.3010 MACHINE </s> -0.3010
-0.3010 MAD </s> -0.3010
-0.3010 MAKE ME -0.1761
-0.3010 MATRIX </s> -0.3010
-0.3010 MATTER </s> -0.3010
-0.3010 MAXIMIZE WINDOW 0.0000
-0.6021 MAYBE </s> -0.3010
-0.6021 MAYBE LATER 0.0000
-0.9031 ME </s> -0.3010
-0.6021 ME A -0.0792
-1.3802 ME ABOUT -0.0969
-1.3802 ME WHAT -0.2964
-1.3802 ME YOUR -0.2430
-0.3010 ME? </s> -0.3010
-0.3010 MEAN? </s> -0.3010
-0.3010 MILLION THOUSAND 0.0000
-0.3010 MIND? </s> -0.3010
-0.3010 MINIMIZE WINDOW 0.0000
-0.3010 MINUTE TIMER 0.0000
-0.3010 MODULES </s> -0.3010
-0.4771 MORNING </s> -0.3010
-0.7782 MORNING STELLA -0.0442
-0.3010 MOST RIGHTEOUS 0.0000
-0.3802 MUCH </s> -0.3010
-1.0792 MUCH WOOD? 0.0000
-0.3010 MUSIC </s> -0.3010
-0.7782 MY FRIEND 0.0000
-0.7782 MY MIND? 0.0000
-0.7782 MY NAME? 0.0000
-0.3010 NAME </s> -0.3010
-0.3010 NAME? </s> -0.3010
-0.9031 NEED </s> -0.3010
-0.9031 NEED COFFEE 0.0000
-0.9031 NEED SOMETHING 0.0000
-0.9031 NEED YOU -0.2725
-0.6021 NET CONNECTION 0.0000
-0.6021 NET SPEED 0.0000
-0.7782 NETWORK CONNECTION 0.0000
-0.7782 NETWORK DEVICES 0.0000
-0.7782 NETWORK SPEED 0.0000
-0.3010 NEVER </s> -0.3010
-0.3010 NEVERMIND </s> -0.3010
-0.3010 NEW TAB 0.0000
-0.3010 NEWS </s> -0.3010
-0.6021 NEXT TAB 0.0000
-0.6021 NEXT TERMINAL 0.0000
-0.6021 NICE </s> -0.3010
-0.9031 NICE JOB 0.0000
-0.9031 NICE WORK 0.0000
-0.3010 NICELY DONE 0.0000
-0.3010 NINE ONE 0.0000
-0.3010 NINTEEN SEVENTEEN 0.0000
-0.3010 NINTY SEVENTY 0.0000
-0.9542 NO </s> -0.3010
-0.9542 NO I -0.2848
-1.2553 NO THANK -0.1091
-1.2553 NO THANKS -0.2109
-0.9542 NO THAT'S -0.2499
-1.2553 NO WAY 0.0000
-0.3010 NONSENSE </s> -0.3010
-0.6021 NOT </s> -0.3010
-0.9031 NOT MUCH -0.0669
-0.9031 NOT SURE -0.2218
-0.3010 NOTE </s> -0.3010
-0.7782 NOTHING </s> -0.3010
-0.4771 NOTHING IS -0.2452
-0.3010 NUTS </s> -0.3010
-0.3010 OF FILE 0.0000
-0.7782 OH ASSIST 0.0000
-0.7782 OH GOD 0.0000
-0.7782 OH STELLA -0.0442
-0.4102 OK </s> -0.3010
-1.2553 OK FINE -0.0669
-1.2553 OK STELLA -0.0442
-0.3010 OK... </s> -0.3010
-0.3010 OLD ARE -0.2725
-0.3010 ON </s> -0.3010
-0.3010 ON? </s> -0.3010
-0.3010 ONE SEVEN 0.0000
-0.3010 ONLINE? </s> -0.3010
-0.3010 ONLY TYPING 0.0000
-1.3424 OPEN COMMANDS 0.0000
-1.3424 OPEN CRUX 0.0000
-1.3424 OPEN FIREFOX 0.0000
-1.3424 OPEN PROJECT -0.1761
-1.3424 OPEN REDDIT 0.0000
-1.3424 OPEN STATUS 0.0000
-1.3424 OPEN TAB 0.0000
-1.3424 OPEN TERMINAL 0.0000
-1.3424 OPEN THE -0.2304
-1.3424 OPEN WEB 0.0000
-1.3424 OPEN YOUTUBE 0.0000
-0.3010 OPTIMISTIC </s> -0.3010
-0.3010 OTHER TABS 0.0000
-0.3010 OUT </s> -0.3010
-0.6021 PAGE DOWN 0.0000
-0.6021 PAGE UP -0.1347
-0.3010 PILL </s> -0.3010
-0.3010 PING WEBLIFE 0.0000
-0.3010 PISSED </s> -0.3010
-0.9031 PLAY </s> -0.3010
-0.9031 PLAY A -0.2041
-0.9031 PLAY AMBIENT 0.0000
-0.9031 PLAY ME -0.1761
-0.7782 PLEASE </s> -0.3010
-0.7782 PLEASE BE -0.1091
-1.0792 PLEASE LISTEN -0.1249
-1.0792 PLEASE STELLA -0.0442
-0.3010 PLUS </s> -0.3010
-0.3010 POINT </s> -0.3010
-0.3010 POSITIVE </s> -0.3010
-0.4260 PRETTY GOOD -0.0817
-0.9031 PRETTY WELL -0.0580
-0.7782 PREVIOUS COMMAND 0.0000
-0.7782 PREVIOUS TAB 0.0000
-0.7782 PREVIOUS TERMINAL 0.0000
-0.3010 PROCESSES </s> -0.3010
-0.6021 PROJECT EM 0.0000
-0.6021 PROJECT M 0.0000
-0.3010 QUESTION </s> -0.3010
-0.3010 QUIET </s> -0.3010
-1.0000 QUIT </s> -0.3010
-1.0000 QUIT STATUS 0.0000
-1.0000 QUIT THE -0.2304
-1.0000 QUIT THUNDERBIRD 0.0000
-1.0000 QUIT WEB 0.0000
-0.3010 RANDOM </s> -0.3010
-0.7782 READ ME -0.1761
-0.7782 READ TECHNOLOGY 0.0000
-0.7782 READ WORLD 0.0000
-0.3010 READING </s> -0.3010
-0.3010 READY FOR -0.2430
-0.3010 REAL? </s> -0.3010
-0.3010 REALLY </s> -0.3010
-0.3010 REBOOT MACHINE 0.0000
-0.3010 RECORD </s> -0.3010
-0.6021 RED ALERT 0.0000
-0.6021 RED PILL 0.0000
-0.3010 REDDIT </s> -0.3010
-0.4771 REE </s> -0.3010
-0.7782 REE DIK 0.0000
-0.7782 REPEAT COMMAND 0.0000
-0.7782 REPEAT LAST 0.0000
-0.7782 REPEAT PREVIOUS -0.2218
-0.3010 RESET </s> -0.3010
-0.3010 REWIND </s> -0.3010
-0.4260 RIGHT </s> -0.3010
-1.2041 RIGHT ON 0.0000
-1.2041 RIGHT STELLA -0.0442
-0.3010 RIGHTEOUS </s> -0.3010
-0.3010 RUN DIAGNOSTICS 0.0000
-0.3010 SAD </s> -0.3010
-0.3010 SAID THAT -0.1249
-0.3010 SANDWICH </s> -0.3010
-0.3010 SAOMETHING RANDOM 0.0000
-0.3010 SAUCE </s> -0.3010
-0.6021 SAVE DOCUMENT 0.0000
-0.6021 SAVE FILE 0.0000
-1.0792 SAY ANYTHING 0.0000
-1.0792 SAY SAD 0.0000
-1.0792 SAY SAOMETHING 0.0000
-1.0792 SAY SOMETHING 0.0000
-1.0792 SAY THAT -0.1249
-1.0792 SAY TOPIC 0.0000
-0.3010 SAY? </s> -0.3010
-0.3010 SCREEN </s> -0.3010
-0.3010 SCREWED UP -0.1347
-0.6021 SCROLL DOWN 0.0000
-0.6021 SCROLL UP -0.1347
-0.6021 SEARCH </s> -0.3010
-0.6021 SEARCH WEB 0.0000
-0.7782 SEE </s> -0.3010
-0.4771 SEE REE -0.1249
-0.3010 SEVEN SIX 0.0000
-0.3010 SEVENTEEN SIXTEEN 0.0000
-0.3010 SEVENTY SIXTY 0.0000
-0.3010 SHIT </s> -0.3010
-0.3010 SHOW STATUS 0.0000
-0.3010 SHUT UP -0.1047
-0.3010 SILENCE </s> -0.3010
-0.3010 SILENT </s> -0.3010
-0.7782 SING A -0.2041
-0.7782 SING FOR -0.2430
-0.7782 SING ME -0.1761
-0.3010 SINGING </s> -0.3010
-0.3010 SIX THREE 0.0000
-0.3010 SIXTEEN TEN 0.0000
-0.3010 SIXTY THIRTY 0.0000
-0.3010 SMART </s> -0.3010
-0.3010 SMARTER </s> -0.3010
-0.7782 SO </s> -0.3010
-1.0792 SO COOL 0.0000
-0.7782 SO MUCH -0.0669
-1.0792 SO SMART 0.0000
-0.6021 SOME COFFEE 0.0000
-0.6021 SOME FOOD 0.0000
-0.3010 SOMETHING </s> -0.3010
-0.3010 SONG </s> -0.3010
-0.3010 SORRY </s> -0.3010
-0.3010 SORRY? </s> -0.3010
-0.3010 SOUND GOOD -0.0817
-0.3010 SOUNDS GOOD -0.0817
-0.3010 SPEAK </s> -0.3010
-0.3010 SPEAK? </s> -0.3010
-0.3010 SPEAKING </s> -0.3010
-0.3010 SPEED </s> -0.3010
-0.3010 STACK </s> -0.3010
-0.6021 START A -0.2788
-0.6021 START X 0.0000
-0.3010 STATUS </s> -0.3010
-0.3502 STELLA </s> -0.3010
-1.7482 STELLA SHUT 0.0000
-1.7482 STELLA SPEAK 0.0000
-1.7482 STELLA TALK -0.2730
-0.3010 STELLA? </s> -0.3010
-1.1461 STOP </s> -0.3010
-1.1461 STOP IT -0.2041
-1.1461 STOP MUSIC 0.0000
-1.1461 STOP READING 0.0000
-1.1461 STOP SINGING 0.0000
-1.1461 STOP SPEAKING 0.0000
-1.1461 STOP THE -0.2788
-0.3010 STORY </s> -0.3010
-0.3010 STUPID </s> -0.3010
-0.3010 SUCK </s> -0.3010
-0.3010 SUCKS </s> -0.3010
-0.3010 SUPER </s> -0.3010
-0.7782 SURE </s> -0.3010
-0.7782 SURE ABOUT? 0.0000
-0.7782 SURE IS -0.2858
-0.3010 SURE? </s> -0.3010
-0.3010 SUSPEND MACHINE 0.0000
-0.3010 SWEET </s> -0.3010
-0.3010 SYSTEM STATUS 0.0000
-0.3010 TAB </s> -0.3010
-0.3010 TABS </s> -0.3010
-0.3010 TAG </s> -0.3010
-0.5509 TALK </s> -0.3010
-1.2041 TALK ABOUT -0.0969
-1.5051 TALK ABOUT? 0.0000
-1.5051 TALK DIRTY 0.0000
-1.2041 TALK TO -0.2846
-1.5051 TALK WITH -0.1761
-0.4771 TALKING </s> -0.3010
-0.7782 TALKING TO -0.2929
-0.3010 TEACHING YOU -0.2973
-0.3010 TECHNOLOGY NEWS 0.0000
-0.3010 TELL ME -0.1249
-0.3010 TELLING ME -0.2825
-0.3010 TEN THIRTEEN 0.0000
-0.3010 TERMINAL </s> -0.3010
-0.3010 TERRIBLE </s> -0.3010
-0.7782 TEST INTERNET 0.0000
-0.7782 TEST NET 0.0000
-0.7782 TEST NETWORK -0.1249
-1.1461 THANK </s> -0.3010
-1.1461 THANK STELLA -0.0442
-0.4472 THANK YOU -0.2585
-0.7270 THANKS </s> -0.3010
-1.2041 THANKS ALOT 0.0000
-1.2041 THANKS STELLA -0.0442
-0.7270 THANKS YOU -0.2626
-0.4771 THAT </s> -0.3010
-1.0792 THAT MEAN? 0.0000
-1.0792 THAT RIGHT -0.0969
-1.2553 THAT'S ALRIGHT 0.0000
-1.2553 THAT'S COOL 0.0000
-1.2553 THAT'S GREAT -0.0843
-1.2553 THAT'S INCREDIBLE 0.0000
-1.2553 THAT'S NUTS 0.0000
-1.2553 THAT'S OK -0.0872
-1.2553 THAT'S RIGHT -0.0969
-1.2553 THAT'S STUPID 0.0000
-1.2553 THAT'S TRUE -0.0792
-1.3010 THE DAY -0.2430
-1.3010 THE MATTER 0.0000
-1.3010 THE MUSIC 0.0000
-1.3010 THE TIME? 0.0000
-1.3010 THE TOPIC 0.0000
-1.3010 THE WEATHER 0.0000
-1.3010 THE WEATHER? 0.0000
-0.8239 THE WEB 0.0000
-0.3010 THEN? </s> -0.3010
-0.3010 THERE </s> -0.3010
-0.3010 THERE? </s> -0.3010
-0.3979 THINGS ARE -0.2762
-1.0000 THINGS SUCK 0.0000
-0.3010 THINGS? </s> -0.3010
-0.6990 THINK </s> -0.3010
-1.0000 THINK ABOUT -0.2430
-0.6990 THINK SO -0.2218
-0.3010 THINK? </s> -0.3010
-0.3010 THIRTEEN TWELVE 0.0000
-0.3010 THIRTY TWENTY 0.0000
-0.9031 THIS </s> -0.3010
-0.9031 THIS FEEL? 0.0000
-0.9031 THIS IS -0.2935
-0.9031 THIS TRUE -0.0792
-0.3010 THIS? </s> -0.3010
-0.3010 THOUSAND AND 0.0000
-0.3010 THREE TWO 0.0000
-0.3010 THUNDERBIRD </s> -0.3010
-0.6021 TIME </s> -0.3010
-0.6021 TIME IS -0.2780
-0.3010 TIME? </s> -0.3010
-0.3010 TIMER </s> -0.3010
-0.3010 TIMES </s> -0.3010
-0.3010 TIRED </s> -0.3010
-1.1303 TO DO? 0.0000
-1.7324 TO LEARN 0.0000
-1.4314 TO ME -0.2430
-1.2553 TO SPEAK 0.0000
-1.4314 TO SPEAK? 0.0000
-1.7324 TO TAG 0.0000
-0.6910 TO TALK -0.0746
-1.7324 TO TERMINAL 0.0000
-1.7324 TO THE -0.2304
-1.7324 TO YOU -0.2725
-0.3010 TODAY? </s> -0.3010
-0.3010 TOPIC </s> -0.3010
-0.3010 TOTALLY </s> -0.3010
-0.3979 TRUE </s> -0.3010
-1.0000 TRUE THAT -0.1249
-0.3010 TRY HARDER 0.0000
-0.3010 TWELVE EIGHTY 0.0000
-0.3010 TWENTY HUNDRED 0.0000
-0.3010 TWO EIGHTEEN 0.0000
-0.3010 TYPING </s> -0.3010
-0.3010 TYRELL CORPORATION 0.0000
-0.3010 UNDERSTAND </s> -0.3010
-0.3010 UNDERSTAND? </s> -0.3010
-0.4973 UP </s> -0.3010
-1.3424 UP STELLA -0.0442
-1.0414 UP STELLA? 0.0000
-1.3424 UP WITH -0.1761
-0.3010 UP? </s> -0.3010
-0.3010 UPSET </s> -0.3010
-0.3010 USERNAME </s> -0.3010
-1.3802 VERY COOL 0.0000
-1.3802 VERY FUNNY 0.0000
-0.7782 VERY GOOD -0.0817
-1.3802 VERY KIND 0.0000
-1.0792 VERY MUCH -0.0669
-1.3802 VERY NICE -0.1761
-1.3802 VERY POSITIVE 0.0000
-1.3802 VERY SWEET 0.0000
-0.6021 VOICE COULD 0.0000
-0.6021 VOICE NOTE 0.0000
-0.3010 VOID COMP 0.0000
-0.6021 VOLUME DOWN 0.0000
-0.6021 VOLUME UP -0.1347
-0.3010 WAKE UP -0.1347
-1.2041 WANT A -0.2788
-1.2041 WANT COFFEE 0.0000
-0.9031 WANT SOME 0.0000
-0.6021 WANT TO -0.1597
-0.3010 WANT? </s> -0.3010
-0.3010 WAY </s> -0.3010
-0.7782 WE GOING? 0.0000
-0.7782 WE HERE? 0.0000
-0.7782 WE ONLINE? 0.0000
-0.3010 WE? </s> -0.3010
-0.3010 WEATHER TODAY? 0.0000
-0.3010 WEATHER? </s> -0.3010
-0.3010 WEB </s> -0.3010
-0.3010 WEBLIFE </s> -0.3010
-0.6021 WELCOME </s> -0.3010
-0.6021 WELCOME STELLA -0.0442
-0.3680 WELL </s> -0.3010
-1.1461 WELL DONE 0.0000
-1.4960 WHAT ARE -0.2260
-1.6721 WHAT CAN -0.0792
-1.4960 WHAT DAY -0.0969
-1.9731 WHAT DAY? 0.0000
-1.6721 WHAT DID -0.1249
-0.9731 WHAT DO 0.0000
-1.9731 WHAT DOES -0.2218
-1.9731 WHAT GOING -0.1461
-1.9731 WHAT HAPPENED? 0.0000
-1.9731 WHAT I -0.2881
-0.8592 WHAT IS -0.1504
-1.9731 WHAT IT -0.2788
-1.6721 WHAT TIME 0.0000
-1.9731 WHAT TO -0.2676
-1.9731 WHAT UP -0.2596
-1.9731 WHAT WHAT? 0.0000
-1.4960 WHAT WOULD -0.1461
-0.3010 WHAT'S UP? 0.0000
-0.3010 WHAT? </s> -0.3010
-0.3010 WHATEVER </s> -0.3010
-0.4260 WHERE ARE -0.2576
-0.9031 WHERE IS -0.2858
-0.9031 WHO ARE -0.2725
-0.9031 WHO ASKED 0.0000
-0.9031 WHO IS -0.2858
-0.9031 WHO KNOWS? 0.0000
-0.4771 WHY ARE -0.2460
-0.7782 WHY DON'T -0.1963
-0.3010 WHY? </s> -0.3010
-0.3010 WIKI </s> -0.3010
-0.3010 WINDOW </s> -0.3010
-0.6021 WITH YOU -0.2725
-0.6021 WITH YOU? 0.0000
-0.3010 WONDERFUL </s> -0.3010
-0.3010 WOOD? </s> -0.3010
-0.3010 WORK </s> -0.3010
-0.7782 WORKING </s> -0.3010
-0.7782 WORKING BETTER 0.0000
-0.7782 WORKING GOOD -0.0817
-0.3010 WORLD NEWS 0.0000
-1.0000 WOULD HAPPEN 0.0000
-0.6990 WOULD LIKE -0.2139
-0.6990 WOULD YOU -0.2705
-0.3010 WOW </s> -0.3010
-0.3979 WRONG </s> -0.3010
-1.0000 WRONG STELLA -0.0442
-0.3010 X </s> -0.3010
-0.3010 YAY </s> -0.3010
-0.3010 YEAH </s> -0.3010
-0.6021 YES </s> -0.3010
-0.6021 YES BE -0.1963
-0.6021 YO </s> -0.3010
-0.6021 YO STELLA -0.0442
-1.1968 YOU </s> -0.3010
-0.8544 YOU ARE -0.1597
-2.3729 YOU CALLED? 0.0000
-2.3729 YOU CARE 0.0000
-2.3729 YOU CONFUSED? 0.0000
-2.3729 YOU CRAZY 0.0000
-2.3729 YOU DO? 0.0000
-2.3729 YOU DOING -0.2361
-2.3729 YOU DOING? 0.0000
-2.0719 YOU DON'T -0.1963
-2.3729 YOU ENJOY 0.0000
-2.3729 YOU FEEL? 0.0000
-2.3729 YOU FEELING? 0.0000
-2.3729 YOU GOOD -0.0817
-2.3729 YOU GOT 0.0000
-2.3729 YOU GREAT -0.0843
-2.3729 YOU HAD 0.0000
-2.3729 YOU HELP 0.0000
-2.3729 YOU HELP? 0.0000
-2.3729 YOU HERE? 0.0000
-2.3729 YOU HOW -0.2863
-2.3729 YOU JUST -0.2553
-2.0719 YOU KNOW 0.0000
-1.2268 YOU LIKE -0.0889
-2.0719 YOU LIKE? 0.0000
-2.3729 YOU LUSS 0.0000
-2.3729 YOU NOT -0.2430
-2.3729 YOU REAL? 0.0000
-2.3729 YOU RIGHT -0.0969
-2.3729 YOU SAY? 0.0000
-2.0719 YOU SO -0.2218
-2.3729 YOU SORRY? 0.0000
-2.3729 YOU SOUND 0.0000
-2.0719 YOU STELLA -0.0442
-2.3729 YOU SUCK 0.0000
-2.3729 YOU SURE? 0.0000
-2.3729 YOU TELLING 0.0000
-2.0719 YOU THERE? 0.0000
-1.8958 YOU THINK 0.0000
-1.8958 YOU THINK? 0.0000
-2.3729 YOU TO -0.2021
-2.3729 YOU TODAY? 0.0000
-2.0719 YOU UNDERSTAND? 0.0000
-1.8958 YOU VERY -0.1761
-2.3729 YOU WANT -0.1761
-2.3729 YOU WANT? 0.0000
-1.2041 YOU'RE AMAZING -0.0969
-1.2041 YOU'RE AWESOME -0.1963
-1.2041 YOU'RE CRAZY 0.0000
-1.2041 YOU'RE FANTASTIC 0.0000
-1.2041 YOU'RE GREAT -0.0843
-1.2041 YOU'RE INCREDIBLE 0.0000
-1.2041 YOU'RE SUPER 0.0000
-1.2041 YOU'RE WONDERFUL 0.0000
-0.3010 YOU? </s> -0.3010
-0.9031 YOUR DADDY? 0.0000
-0.9031 YOUR NAME 0.0000
-0.9031 YOUR NAME? 0.0000
-0.9031 YOUR VOICE -0.1761
-0.3010 YOUTUBE </s> -0.3010
-0.3010 ZERO EIGHT 0.0000

\3-grams:
-0.6021 <s> ABSOLUTELY </s>
-0.6021 <s> ABSOLUTELY NOT
-0.3010 <s> ABSURD </s>
-0.3010 <s> AFFIRMATIVE </s>
-0.9031 <s> AH DAMMIT
-0.9031 <s> AH DAMN
-0.9031 <s> AH GREAT
-0.9031 <s> AH SHIT
-0.3010 <s> ALL RIGHT
-0.3010 <s> ALLRIGHT </s>
-0.7782 <s> AM FINE
-0.7782 <s> AM OK
-0.7782 <s> AM TIRED
-0.6021 <s> AMAZING </s>
-0.6021 <s> AMAZING DUDE
-1.2041 <s> ARE WE
-0.4260 <s> ARE YOU
-1.2041 <s> ARE YOU?
-0.3010 <s> ASSIST </s>
-1.0000 <s> AWESOME </s>
-1.0000 <s> AWESOME DUDE
-1.0000 <s> AWESOME JOB
-1.0000 <s> AWESOME SAUCE
-1.0000 <s> AWESOME WORK
-0.3010 <s> BACK FLIP
-0.6021 <s> BE QUIET
-0.6021 <s> BE SILENT
-0.3010 <s> BEGINNING OF
-0.3010 <s> BROKEN RECORD
-0.6021 <s> CALCULATE PLUS
-0.6021 <s> CALCULATE TIMES
-0.3010 <s> CAN YOU
-0.3010 <s> CHECK EMAIL
-0.3010 <s> CHILL OUT
-0.3010 <s> CLEAR </s>
-1.2553 <s> CLOSE EMAIL
-1.2553 <s> CLOSE OTHER
-1.2553 <s> CLOSE PROJECT
-1.2553 <s> CLOSE STATUS
-1.2553 <s> CLOSE TAB
-0.9542 <s> CLOSE TERMINAL
-1.2553 <s> CLOSE WEB
-1.2553 <s> CLOSE WINDOW
-0.3010 <s> COME ON
-0.3010 <s> CONTROL C
-0.3010 <s> COOL </s>
-0.3010 <s> CORRECT </s>
-0.3010 <s> CRAZY </s>
-0.3010 <s> CREEPY </s>
-0.3010 <s> DAMN IT
-0.3010 <s> DO YOU
-1.0792 <s> DOING FAIRLY
-1.0792 <s> DOING GOOD
-1.0792 <s> DOING GREAT
-1.0792 <s> DOING OK
-1.0792 <s> DOING PRETTY
-1.0792 <s> DOING WELL
-0.3010 <s> DON'T YOU
-0.3010 <s> DOWN </s>
-0.3010 <s> DUDE </s>
-0.3010 <s> ECHO USERNAME
-0.6021 <s> END </s>
-0.6021 <s> END OF
-0.6021 <s> ENOUGH </s>
-0.6021 <s> ENOUGH TALKING
-0.3010 <s> ENTER </s>
-0.3010 <s> ESCAPE </s>
-1.0792 <s> EVERYTHING </s>
-0.4771 <s> EVERYTHING IS
-1.0792 <s> EVERYTHING SUCKS
-0.3010 <s> EXCELLENT </s>
-0.6021 <s> FAREWELL </s>
-0.6021 <s> FAREWELL STELLA
-0.3010 <s> FEEL ME?
-1.0000 <s> FEELING GOOD
-1.0000 <s> FEELING GREAT
-1.0000 <s> FEELING SAD
-1.0000 <s> FEELING TIRED
-1.0000 <s> FEELING WONDERFUL
-0.3010 <s> FINALLY </s>
-0.3010 <s> FIND </s>
-0.6021 <s> FINE </s>
-0.6021 <s> FINE STELLA
-0.3010 <s> FLIP STACK
-0.6021 <s> FOR SURE?
-0.6021 <s> FOR WHAT?
-0.3010 <s> FORGET IT
-0.3010 <s> FREAK OUT
-0.3010 <s> FULL SCREEN
-0.3010 <s> FUNNY </s>
-0.3010 <s> GEE THANKS
-0.3010 <s> GET ME
-0.9031 <s> GO AWAY
-0.4260 <s> GO TO
-0.3010 <s> GOING </s>
-1.0792 <s> GOOD </s>
-1.0792 <s> GOOD JOB
-1.0792 <s> GOOD MORNING
-1.0792 <s> GOOD POINT
-1.0792 <s> GOOD QUESTION
-1.0792 <s> GOOD WORK
-0.6021 <s> GOODBYE </s>
-0.6021 <s> GOODBYE STELLA
-0.6021 <s> GOODNIGHT </s>
-0.6021 <s> GOODNIGHT STELLA
-0.7782 <s> GREAT </s>
-0.7782 <s> GREAT JOB
-0.7782 <s> GREAT WORK
-0.6021 <s> GREETINGS </s>
-0.6021 <s> GREETINGS STELLA
-0.3010 <s> GROOVY </s>
-0.3010 <s> HAD ENOUGH?
-0.3010 <s> HAVE YOU
-0.3010 <s> HELL NO
-1.2041 <s> HELLO </s>
-0.9031 <s> HELLO HOW
-1.2041 <s> HELLO MACHINE
-1.2041 <s> HELLO MY
-1.2041 <s> HELLO STELLA
-1.2041 <s> HELLO THERE
-1.2041 <s> HELLO YOU
-0.9031 <s> HEY </s>
-0.9031 <s> HEY STELLA
-0.9031 <s> HEY THERE
-0.9031 <s> HEY YOU
-0.9031 <s> HI </s>
-0.9031 <s> HI HOW
-0.9031 <s> HI STELLA
-0.9031 <s> HI YOU
-0.3010 <s> HILARIOUS </s>
-0.3010 <s> HOME </s>
-1.3424 <s> HOW </s>
-0.6435 <s> HOW ARE
-1.3424 <s> HOW DO
-1.0414 <s> HOW DOES
-1.3424 <s> HOW MUCH
-1.3424 <s> HOW OLD
-0.3010 <s> HOW'S IT
-0.6232 <s> I AM
-2.1004 <s> I CAN
-1.6232 <s> I DIDN'T
-1.7993 <s> I DON'T
-1.2553 <s> I FEEL
-2.1004 <s> I GOOD
-2.1004 <s> I HATE
-1.7993 <s> I JUST
-2.1004 <s> I LIKE
-2.1004 <s> I LOVE
-1.4983 <s> I NEED
-2.1004 <s> I SEE
-2.1004 <s> I THINK
-1.3222 <s> I WANT
-1.7993 <s> I WOULD
-0.3010 <s> INDEED </s>
-0.3010 <s> IS GOING
-0.3010 <s> ISN'T THAT
-0.3010 <s> IT IS
-0.6021 <s> IT'S ALRIGHT...
-0.6021 <s> IT'S OK...
-0.3010 <s> LATER </s>
-0.3010 <s> LEARNING TO
-0.3010 <s> LET'S TALK
-0.9031 <s> LIKE </s>
-0.9031 <s> LIKE EVERYTHING
-0.9031 <s> LIKE LEARNING
-0.9031 <s> LIKE WHAT?
-1.0000 <s> LIST </s>
-1.0000 <s> LIST BLOCK
-1.0000 <s> LIST MODULES
-1.0000 <s> LIST NETWORK
-1.0000 <s> LIST PROCESSES
-0.6021 <s> LISTEN </s>
-0.6021 <s> LISTEN STELLA
-0.3010 <s> MAKE ME
-0.3010 <s> MATRIX </s>
-0.3010 <s> MAXIMIZE WINDOW
-0.6021 <s> MAYBE </s>
-0.6021 <s> MAYBE LATER
-0.3010 <s> MINIMIZE WINDOW
-0.6021 <s> MORNING </s>
-0.6021 <s> MORNING STELLA
-0.3010 <s> MOST RIGHTEOUS
-0.3010 <s> NEVER </s>
-0.3010 <s> NEVERMIND </s>
-0.3010 <s> NEW TAB
-0.6021 <s> NEXT TAB
-0.6021 <s> NEXT TERMINAL
-0.7782 <s> NICE </s>
-0.7782 <s> NICE JOB
-0.7782 <s> NICE WORK
-0.3010 <s> NICELY DONE
-1.2041 <s> NO </s>
-0.9031 <s> NO I
-1.2041 <s> NO THANK
-1.2041 <s> NO THANKS
-0.9031 <s> NO THAT'S
-1.2041 <s> NO WAY
-0.3010 <s> NONSENSE </s>
-0.3010 <s> NOT MUCH
-0.7782 <s> NOTHING </s>
-0.4771 <s> NOTHING IS
-0.7782 <s> OH ASSIST
-0.7782 <s> OH GOD
-0.7782 <s> OH STELLA
-0.7782 <s> OK </s>
-0.7782 <s> OK FINE
-0.7782 <s> OK STELLA
-1.3424 <s> OPEN COMMANDS
-1.3424 <s> OPEN CRUX
-1.3424 <s> OPEN FIREFOX
-1.3424 <s> OPEN PROJECT
-1.3424 <s> OPEN REDDIT
-1.3424 <s> OPEN STATUS
-1.3424 <s> OPEN TAB
-1.3424 <s> OPEN TERMINAL
-1.3424 <s> OPEN THE
-1.3424 <s> OPEN WEB
-1.3424 <s> OPEN YOUTUBE
-0.6021 <s> PAGE DOWN
-0.6021 <s> PAGE UP
-0.3010 <s> PING WEBLIFE
-0.9031 <s> PLAY </s>
-0.9031 <s> PLAY A
-0.9031 <s> PLAY AMBIENT
-0.9031 <s> PLAY ME
-1.0000 <s> PLEASE </s>
-0.6990 <s> PLEASE BE
-1.0000 <s> PLEASE LISTEN
-1.0000 <s> PLEASE STELLA
-0.3010 <s> PRETTY GOOD
-0.6021 <s> PREVIOUS TAB
-0.6021 <s> PREVIOUS TERMINAL
-1.0000 <s> QUIT </s>
-1.0000 <s> QUIT STATUS
-1.0000 <s> QUIT THE
-1.0000 <s> QUIT THUNDERBIRD
-1.0000 <s> QUIT WEB
-0.7782 <s> READ ME
-0.7782 <s> READ TECHNOLOGY
-0.7782 <s> READ WORLD
-0.3010 <s> REALLY </s>
-0.3010 <s> REBOOT MACHINE
-0.3010 <s> RECORD </s>
-0.6021 <s> RED ALERT
-0.6021 <s> RED PILL
-0.3010 <s> REE DIK
-0.7782 <s> REPEAT COMMAND
-0.7782 <s> REPEAT LAST
-0.7782 <s> REPEAT PREVIOUS
-0.3010 <s> RESET </s>
-0.3010 <s> REWIND </s>
-0.6021 <s> RIGHT </s>
-0.6021 <s> RIGHT ON
-0.3010 <s> RIGHTEOUS </s>
-0.3010 <s> RUN DIAGNOSTICS
-0.3010 <s> SAD </s>
-0.6021 <s> SAVE DOCUMENT
-0.6021 <s> SAVE FILE
-0.7782 <s> SAY SAOMETHING
-0.7782 <s> SAY SOMETHING
-0.7782 <s> SAY TOPIC
-0.6021 <s> SCROLL DOWN
-0.6021 <s> SCROLL UP
-0.6021 <s> SEARCH </s>
-0.6021 <s> SEARCH WEB
-0.3010 <s> SEE REE
-0.3010 <s> SHOW STATUS
-0.3010 <s> SHUT UP
-0.3010 <s> SILENCE </s>
-0.3010 <s> SILENT </s>
-0.7782 <s> SING A
-0.7782 <s> SING FOR
-0.7782 <s> SING ME
-0.3010 <s> SO COOL
-0.3010 <s> SORRY </s>
-0.3010 <s> SOUNDS GOOD
-0.6021 <s> START A
-0.6021 <s> START X
-0.9031 <s> STELLA </s>
-0.9031 <s> STELLA SHUT
-0.9031 <s> STELLA SPEAK
-0.9031 <s> STELLA TALK
-1.1461 <s> STOP </s>
-1.1461 <s> STOP IT
-1.1461 <s> STOP MUSIC
-1.1461 <s> STOP READING
-1.1461 <s> STOP SINGING
-1.1461 <s> STOP SPEAKING
-1.1461 <s> STOP THE
-0.3010 <s> STUPID </s>
-0.6021 <s> SURE </s>
-0.6021 <s> SURE IS
-0.3010 <s> SUSPEND MACHINE
-0.3010 <s> SYSTEM STATUS
-0.3010 <s> TAG </s>
-0.6021 <s> TALK DIRTY
-0.6021 <s> TALK TO
-0.3010 <s> TECHNOLOGY NEWS
-0.3010 <s> TELL ME
-0.3010 <s> TERMINAL </s>
-0.3010 <s> TERRIBLE </s>
-0.7782 <s> TEST INTERNET
-0.7782 <s> TEST NET
-0.7782 <s> TEST NETWORK
-1.0792 <s> THANK </s>
-1.0792 <s> THANK STELLA
-0.4771 <s> THANK YOU
-1.0792 <s> THANKS </s>
-1.0792 <s> THANKS ALOT
-1.0792 <s> THANKS STELLA
-0.6021 <s> THANKS YOU
-1.1461 <s> THAT'S COOL
-1.1461 <s> THAT'S GREAT
-1.1461 <s> THAT'S INCREDIBLE
-1.1461 <s> THAT'S NUTS
-1.1461 <s> THAT'S RIGHT
-1.1461 <s> THAT'S STUPID
-1.1461 <s> THAT'S TRUE
-0.3979 <s> THINGS ARE
-1.0000 <s> THINGS SUCK
-0.6021 <s> THIS IS
-0.6021 <s> THIS TRUE
-0.6021 <s> TIME </s>
-0.6021 <s> TIME IS
-0.3010 <s> TIRED </s>
-0.3010 <s> TOTALLY </s>
-0.6021 <s> TRUE </s>
-0.6021 <s> TRUE THAT
-0.3010 <s> TRY HARDER
-0.3010 <s> TYRELL CORPORATION
-1.0792 <s> VERY COOL
-1.0792 <s> VERY FUNNY
-1.0792 <s> VERY GOOD
-1.0792 <s> VERY KIND
-1.0792 <s> VERY NICE
-1.0792 <s> VERY SWEET
-0.3010 <s> VOICE NOTE
-0.3010 <s> VOID COMP
-0.6021 <s> VOLUME DOWN
-0.6021 <s> VOLUME UP
-0.3010 <s> WAKE UP
-0.3010 <s> WANT TO
-0.3010 <s> WAY </s>
-0.3010 <s> WELL DONE
-1.4867 <s> WHAT ARE
-1.6628 <s> WHAT CAN
-1.4867 <s> WHAT DAY
-1.9638 <s> WHAT DAY?
-1.6628 <s> WHAT DID
-0.9638 <s> WHAT DO
-1.9638 <s> WHAT DOES
-1.9638 <s> WHAT GOING
-1.9638 <s> WHAT HAPPENED?
-1.9638 <s> WHAT I
-0.8498 <s> WHAT IS
-1.9638 <s> WHAT IT
-1.6628 <s> WHAT TIME
-1.9638 <s> WHAT UP
-1.9638 <s> WHAT WHAT?
-1.4867 <s> WHAT WOULD
-0.3010 <s> WHAT'S UP?
-0.3010 <s> WHAT? </s>
-0.3010 <s> WHATEVER </s>
-0.4260 <s> WHERE ARE
-0.9031 <s> WHERE IS
-0.9031 <s> WHO ARE
-0.9031 <s> WHO ASKED
-0.9031 <s> WHO IS
-0.9031 <s> WHO KNOWS?
-0.4771 <s> WHY ARE
-0.7782 <s> WHY DON'T
-0.3010 <s> WHY? </s>
-0.3010 <s> WONDERFUL </s>
-0.3010 <s> WORLD NEWS
-0.3010 <s> WOW </s>
-0.6021 <s> WRONG </s>
-0.6021 <s> WRONG STELLA
-0.3010 <s> YAY </s>
-0.3010 <s> YEAH </s>
-0.6021 <s> YES </s>
-0.6021 <s> YES BE
-0.6021 <s> YO </s>
-0.6021 <s> YO STELLA
-0.5384 <s> YOU ARE
-2.0569 <s> YOU CRAZY
-2.0569 <s> YOU DOING
-1.7559 <s> YOU DON'T
-2.0569 <s> YOU ENJOY
-2.0569 <s> YOU GOOD
-2.0569 <s> YOU GOT
-2.0569 <s> YOU GREAT
-2.0569 <s> YOU JUST
-1.7559 <s> YOU KNOW
-1.4548 <s> YOU LIKE
-2.0569 <s> YOU RIGHT
-2.0569 <s> YOU SOUND
-2.0569 <s> YOU STELLA
-2.0569 <s> YOU SUCK
-2.0569 <s> YOU THERE?
-1.7559 <s> YOU THINK
-2.0569 <s> YOU UNDERSTAND?
-2.0569 <s> YOU VERY
-1.2041 <s> YOU'RE AMAZING
-1.2041 <s> YOU'RE AWESOME
-1.2041 <s> YOU'RE CRAZY
-1.2041 <s> YOU'RE FANTASTIC
-1.2041 <s> YOU'RE GREAT
-1.2041 <s> YOU'RE INCREDIBLE
-1.2041 <s> YOU'RE SUPER
-1.2041 <s> YOU'RE WONDERFUL
-0.3010 <s> YOUR VOICE
-0.3010 <s> ZERO EIGHT
-0.3010 A BEER </s>
-0.3010 A DRINK </s>
-0.3010 A MINUTE TIMER
-0.3010 A SANDWICH </s>
-0.3010 A SONG </s>
-0.3010 A STORY </s>
-0.3010 ABOUT ANYTHING? </s>
-0.3010 ABOUT YOU </s>
-0.3010 ABSOLUTELY NOT </s>
-0.3010 ACTUALLY GOING ON?
-0.3010 AH DAMMIT </s>
-0.3010 AH DAMN </s>
-0.3010 AH GREAT </s>
-0.3010 AH SHIT </s>
-0.6021 ALL RIGHT </s>
-0.6021 ALL RIGHT STELLA
-0.3010 AM ALRIGHT </s>
-0.3010 AM ANGRY </s>
-1.1461 AM DOING BETTER
-1.1461 AM DOING FAIRLY
-1.1461 AM DOING GOOD
-1.1461 AM DOING OK
-0.8451 AM DOING PRETTY
-1.1461 AM DOING WELL
-0.7782 AM FEELING BETTER
-0.7782 AM FEELING OK
-0.7782 AM FEELING SAD
-0.3010 AM FINE </s>
-0.6021 AM GETTING HUNGRY
-0.6021 AM GETTING TIRED
-0.3010 AM GOOD </s>
-0.3010 AM HUNGRY </s>
-0.3010 AM OK </s>
-0.3010 AM ONLY TYPING
-0.3010 AM PISSED </s>
-0.3010 AM READY FOR
-0.3010 AM SAD </s>
-0.3010 AM SORRY </s>
-0.6021 AM TALKING </s>
-0.6021 AM TALKING TO
-0.3010 AM TEACHING YOU
-0.3010 AM TIRED </s>
-0.3010 AM UPSET </s>
-0.3010 AM WELL </s>
-0.3010 AMAZING DUDE </s>
-0.3010 AMBIENT MUSIC </s>
-0.3010 ARE AMAZING </s>
-0.3010 ARE ARTIFICIAL INTELLIGENCE
-0.3010 ARE AWESOME </s>
-0.3010 ARE BACK </s>
-0.3010 ARE CONFUSED </s>
-0.3010 ARE CORRECT </s>
-0.3010 ARE CRAZY </s>
-0.6021 ARE DOING GOOD
-0.6021 ARE DOING GREAT
-0.3010 ARE FINE </s>
-0.6021 ARE GETTING SMART
-0.6021 ARE GETTING SMARTER
-0.3010 ARE GOOD </s>
-0.3010 ARE GREAT </s>
-0.3010 ARE HERE </s>
-0.3010 ARE INCREDIBLE </s>
-0.3010 ARE LEARNING TO
-0.3010 ARE OPTIMISTIC </s>
-0.3010 ARE RIGHT </s>
-0.3010 ARE SCREWED UP
-0.3010 ARE SMART </s>
-0.3010 ARE SO SMART
-0.3010 ARE THERE </s>
-0.3010 ARE THINGS? </s>
-0.4771 ARE VERY GOOD
-0.7782 ARE VERY POSITIVE
-0.7782 ARE WE GOING?
-0.7782 ARE WE HERE?
-0.7782 ARE WE ONLINE?
-0.3010 ARE WE? </s>
-0.6021 ARE WELCOME </s>
-0.6021 ARE WELCOME STELLA
-0.3010 ARE WONDERFUL </s>
-0.7782 ARE WORKING </s>
-0.7782 ARE WORKING BETTER
-0.7782 ARE WORKING GOOD
-0.3010 ARE WRONG </s>
-1.3802 ARE YOU CALLED?
-1.3802 ARE YOU CONFUSED?
-1.3802 ARE YOU DOING?
-1.3802 ARE YOU FEELING?
-1.3802 ARE YOU HERE?
-1.3802 ARE YOU NOT
-1.3802 ARE YOU REAL?
-1.3802 ARE YOU SORRY?
-1.3802 ARE YOU SURE?
-1.3802 ARE YOU TELLING
-1.3802 ARE YOU THERE?
-1.3802 ARE YOU TODAY?
-0.3010 ARE YOU? </s>
-0.3010 ARTIFICIAL INTELLIGENCE </s>
-0.3010 ASKED YOU? </s>
-0.3010 AWESOME DUDE </s>
-0.3010 AWESOME JOB </s>
-0.3010 AWESOME SAUCE </s>
-0.3010 AWESOME WORK </s>
-0.3010 BACK FLIP </s>
-0.3010 BE BETTER </s>
-0.3010 BE LIKE? </s>
-0.3010 BE QUIET </s>
-0.3010 BE SILENT </s>
-0.3010 BEGINNING OF FILE
-0.3010 BILLION MILLION THOUSAND
-0.3010 BLOCK DEVICES </s>
-0.3010 BROKEN RECORD </s>
-0.3010 CALCULATE PLUS </s>
-0.3010 CALCULATE TIMES </s>
-0.3010 CAN HEAR YOU
-0.9031 CAN YOU DO?
-0.9031 CAN YOU HELP
-0.9031 CAN YOU HELP?
-0.9031 CAN YOU SAY?
-0.3010 CARE ABOUT? </s>
-0.6021 CHECK EMAIL </s>
-0.6021 CHECK EMAIL PLEASE
-0.3010 CHILL OUT </s>
-0.3010 CLOSE EMAIL </s>
-0.3010 CLOSE OTHER TABS
-0.3010 CLOSE PROJECT M
-0.3010 CLOSE STATUS </s>
-0.3010 CLOSE TAB </s>
-0.3010 CLOSE TERMINAL </s>
-0.3010 CLOSE WEB </s>
-0.3010 CLOSE WINDOW </s>
-0.3010 COME ON </s>
-0.3010 CONTROL C </s>
-0.3010 COULD BE BETTER
-0.3010 CRUX WIKI </s>
-0.3010 DAMN IT </s>
-0.6021 DAY IS IT
-0.6021 DAY IS IT?
-0.3010 DAY IS? </s>
-0.3010 DAY TODAY? </s>
-0.6021 DID I JUST
-0.6021 DID I SAY?
-0.3010 DID NOT </s>
-0.7782 DIDN'T SAY ANYTHING
-0.7782 DIDN'T SAY SAD
-0.7782 DIDN'T SAY THAT
-0.3010 DIK YOU LUSS
-1.5051 DO YOU CARE
-1.5051 DO YOU FEEL?
-0.6021 DO YOU LIKE
-1.5051 DO YOU LIKE?
-1.5051 DO YOU THINK
-1.2041 DO YOU THINK?
-1.5051 DO YOU WANT
-1.5051 DO YOU WANT?
-0.3010 DOES IT FEEL?
-0.3010 DOES THAT MEAN?
-0.3010 DOES THIS FEEL?
-0.3010 DOING BETTER </s>
-0.3010 DOING FAIRLY WELL
-0.3979 DOING GOOD </s>
-1.0000 DOING GOOD STELLA
-0.4771 DOING GREAT </s>
-0.7782 DOING GREAT STELLA
-0.3010 DOING OK </s>
-0.4771 DOING PRETTY GOOD
-0.7782 DOING PRETTY WELL
-0.3010 DOING WELL </s>
-0.3010 DON'T KNOW </s>
-0.3010 DON'T THINK SO
-0.3010 DON'T UNDERSTAND </s>
-0.7782 DON'T YOU LIKE
-0.7782 DON'T YOU THINK?
-0.7782 DON'T YOU UNDERSTAND?
-0.3010 ECHO USERNAME </s>
-0.3010 EIGHT FIVE FOUR
-0.3010 EIGHTEEN ELEVEN FIFTEEN
-0.3010 EIGHTY FIFTY FORTY
-0.3010 ELEVEN FIFTEEN FOURTEEN
-0.3010 EMAIL PLEASE </s>
-0.3010 END OF FILE
-0.3010 ENOUGH TALKING </s>
-0.9031 EVERYTHING IS ALOT
-0.9031 EVERYTHING IS FANTASTIC
-0.9031 EVERYTHING IS GREAT
-0.9031 EVERYTHING IS WONDERFUL
-0.3010 EVERYTHING SUCKS </s>
-0.3010 FAIRLY WELL </s>
-0.3010 FAREWELL STELLA </s>
-0.3010 FEEL ANGRY </s>
-0.3010 FEEL GOOD </s>
-0.3010 FEEL GREAT </s>
-0.3010 FEEL HAPPY </s>
-0.3010 FEEL LIKE SHIT
-0.3010 FEEL MAD </s>
-0.3010 FEEL ME? </s>
-0.3010 FEEL SAD </s>
-0.3010 FEELING BETTER </s>
-0.3010 FEELING GOOD </s>
-0.3010 FEELING GREAT </s>
-0.3010 FEELING OK </s>
-0.3010 FEELING SAD </s>
-0.3010 FEELING TIRED </s>
-0.3010 FEELING WONDERFUL </s>
-0.3010 FIFTEEN FOURTEEN NINTEEN
-0.3010 FIFTY FORTY NINTY
-0.3010 FINE STELLA </s>
-0.3010 FIVE FOUR NINE
-0.3010 FLIP STACK </s>
-0.3010 FOR BED </s>
-0.3010 FOR ME </s>
-0.3010 FOR SURE? </s>
-0.3010 FOR WHAT? </s>
-0.3010 FORGET IT </s>
-0.3010 FORTY NINTY SEVENTY
-0.3010 FOUR NINE ONE
-0.3010 FOURTEEN NINTEEN SEVENTEEN
-0.3010 FREAK OUT </s>
-0.3010 FULL SCREEN </s>
-0.3010 GEE THANKS </s>
-0.3010 GET ME A
-0.3010 GETTING HUNGRY </s>
-0.3010 GETTING SMART </s>
-0.3010 GETTING SMARTER </s>
-0.3010 GETTING TIRED </s>
-0.3010 GO AWAY </s>
-0.7782 GO TO TAG
-0.7782 GO TO TERMINAL
-0.7782 GO TO THE
-0.3010 GOING GOOD </s>
-0.3010 GOING ON? </s>
-0.3010 GOOD JOB </s>
-0.3010 GOOD MORNING </s>
-0.3010 GOOD POINT </s>
-0.3010 GOOD QUESTION </s>
-0.3010 GOOD STELLA </s>
-0.3010 GOOD WORK </s>
-0.3010 GOODBYE STELLA </s>
-0.3010 GOODNIGHT STELLA </s>
-0.3010 GOT IT WRONG
-0.3010 GREAT JOB </s>
-0.3010 GREAT STELLA </s>
-0.3010 GREAT WORK </s>
-0.3010 GREETINGS STELLA </s>
-0.3010 HAD ENOUGH? </s>
-0.3010 HAPPEN THEN? </s>
-0.3010 HATE YOU </s>
-0.3010 HAVE YOU HAD
-0.3010 HEAR YOU </s>
-0.3010 HELL NO </s>
-0.3010 HELLO HOW ARE
-0.3010 HELLO MACHINE </s>
-0.3010 HELLO MY FRIEND
-0.3010 HELLO STELLA </s>
-0.3010 HELLO THERE </s>
-0.3010 HELLO YOU </s>
-0.3010 HELP ME? </s>
-0.3010 HEY STELLA </s>
-0.3010 HEY THERE </s>
-0.3010 HEY YOU </s>
-0.3010 HI HOW ARE
-0.3010 HI STELLA </s>
-0.3010 HI YOU </s>
-0.9031 HOW ARE THINGS?
-0.7270 HOW ARE YOU
-0.7270 HOW ARE YOU?
-0.3010 HOW DO YOU
-0.6021 HOW DOES IT
-0.6021 HOW DOES THIS
-0.3010 HOW MUCH WOOD?
-0.3010 HOW OLD ARE
-0.3010 HOW TO TALK
-0.3010 HOW'S IT GOING?
-0.3010 HUNDRED BILLION MILLION
-1.7782 I AM ALRIGHT
-1.7782 I AM ANGRY
-0.9331 I AM DOING
-1.3010 I AM FEELING
-1.7782 I AM FINE
-1.4771 I AM GETTING
-1.7782 I AM GOOD
-1.7782 I AM HUNGRY
-1.7782 I AM OK
-1.7782 I AM ONLY
-1.7782 I AM PISSED
-1.7782 I AM READY
-1.7782 I AM SAD
-1.7782 I AM SORRY
-1.4771 I AM TALKING
-1.4771 I AM TEACHING
-1.7782 I AM TIRED
-1.7782 I AM UPSET
-1.7782 I AM WELL
-0.3010 I CAN HEAR
-0.3010 I DID NOT
-0.9031 I DIDN'T </s>
-0.4260 I DIDN'T SAY
-0.6021 I DON'T KNOW
-0.6021 I DON'T THINK
-1.1461 I FEEL ANGRY
-1.1461 I FEEL GOOD
-1.1461 I FEEL GREAT
-1.1461 I FEEL HAPPY
-1.1461 I FEEL LIKE
-1.1461 I FEEL MAD
-1.1461 I FEEL SAD
-0.3010 I GOOD </s>
-0.3010 I HATE YOU
-0.9031 I JUST BURPED
-0.9031 I JUST FARTED
-0.6021 I JUST SAY?
-0.3010 I LIKE THAT
-0.3010 I LOVE YOU
-0.9031 I NEED </s>
-0.9031 I NEED COFFEE
-0.9031 I NEED SOMETHING
-0.9031 I NEED YOU
-0.3010 I SAY? </s>
-0.3010 I SEE </s>
-0.3010 I THINK </s>
-1.0792 I WANT A
-1.0792 I WANT COFFEE
-0.7782 I WANT SOME
-0.7782 I WANT TO
-0.3010 I WOULD LIKE
-0.3010 INTERNET CONNECTION </s>
-0.3010 INTERNET SPEED </s>
-0.3010 IS ACTUALLY GOING
-0.3010 IS ALOT </s>
-0.3010 IS FANTASTIC </s>
-0.6021 IS GOING GOOD
-0.6021 IS GOING ON?
-0.3010 IS GREAT </s>
-0.3010 IS HAPPENING? </s>
-0.3010 IS IT TODAY?
-0.3010 IS IT? </s>
-0.6021 IS MY MIND?
-0.6021 IS MY NAME?
-1.0792 IS THE DAY
-1.0792 IS THE MATTER
-1.0792 IS THE TIME?
-1.0792 IS THE TOPIC
-1.0792 IS THE WEATHER
-1.0792 IS THE WEATHER?
-0.3010 IS TRUE </s>
-0.6021 IS UP STELLA?
-0.6021 IS UP WITH
-0.3010 IS UP? </s>
-0.3010 IS WONDERFUL </s>
-0.3010 IS WRONG </s>
-0.6021 IS YOUR DADDY?
-0.6021 IS YOUR NAME?
-0.3010 ISN'T THAT RIGHT
-0.3010 IT BE LIKE?
-0.3010 IT FEEL? </s>
-0.3010 IT GOING? </s>
-0.3010 IT IS </s>
-0.3010 IT TODAY? </s>
-0.3010 IT WRONG </s>
-0.3010 IT'S ALRIGHT... </s>
-0.3010 IT'S OK... </s>
-0.3010 JUST BURPED </s>
-0.3010 JUST FARTED </s>
-0.3010 JUST SAID THAT
-0.3010 JUST SAY? </s>
-0.3010 KNOW IT </s>
-0.3010 LAST COMMAND </s>
-0.3010 LEARNING ABOUT? </s>
-0.7782 LEARNING TO SPEAK
-0.7782 LEARNING TO SPEAK?
-0.7782 LEARNING TO TALK
-0.6021 LET'S TALK </s>
-0.6021 LET'S TALK ABOUT
-0.3010 LIKE EVERYTHING </s>
-0.3010 LIKE IT? </s>
-0.7782 LIKE LEARNING ABOUT?
-0.4771 LIKE LEARNING TO
-0.3010 LIKE LEARNING? </s>
-0.3010 LIKE ME? </s>
-0.3010 LIKE SEE REE
-0.3010 LIKE SHIT </s>
-0.3010 LIKE THAT </s>
-0.3010 LIKE THIS </s>
-0.3010 LIKE THIS? </s>
-0.9031 LIKE TO DO?
-1.2041 LIKE TO LEARN
-1.2041 LIKE TO SPEAK
-0.6021 LIKE TO TALK
-0.3010 LIKE WHAT? </s>
-0.3010 LIST BLOCK DEVICES
-0.3010 LIST MODULES </s>
-0.3010 LIST NETWORK DEVICES
-0.3010 LIST PROCESSES </s>
-0.3010 LISTEN STELLA </s>
-0.3010 LOVE YOU </s>
-0.3010 MAKE ME A
-0.3010 MAXIMIZE WINDOW </s>
-0.3010 MAYBE LATER </s>
-1.0792 ME A BEER
-1.0792 ME A SANDWICH
-0.7782 ME A SONG
-0.7782 ME A STORY
-0.3010 ME ABOUT YOU
-0.3010 ME WHAT TO
-0.3010 ME YOUR NAME
-0.3010 MILLION THOUSAND AND
-0.3010 MINIMIZE WINDOW </s>
-0.3010 MINUTE TIMER </s>
-0.3010 MORNING STELLA </s>
-0.3010 MOST RIGHTEOUS </s>
-0.3010 MUCH WOOD? </s>
-0.3010 MY FRIEND </s>
-0.3010 MY MIND? </s>
-0.3010 MY NAME? </s>
-0.3010 NEED COFFEE </s>
-0.3010 NEED SOMETHING </s>
-0.3010 NEED YOU </s>
-0.3010 NET CONNECTION </s>
-0.3010 NET SPEED </s>
-0.3010 NETWORK CONNECTION </s>
-0.3010 NETWORK DEVICES </s>
-0.3010 NETWORK SPEED </s>
-0.3010 NEW TAB </s>
-0.3010 NEXT TAB </s>
-0.3010 NEXT TERMINAL </s>
-0.3010 NICE JOB </s>
-0.3010 NICE WORK </s>
-0.3010 NICELY DONE </s>
-0.3010 NINE ONE SEVEN
-0.3010 NINTEEN SEVENTEEN SIXTEEN
-0.3010 NINTY SEVENTY SIXTY
-0.6021 NO I DID
-0.6021 NO I DIDN'T
-0.3010 NO THANK YOU
-0.3010 NO THANKS </s>
-0.6021 NO THAT'S ALRIGHT
-0.6021 NO THAT'S OK
-0.3010 NO WAY </s>
-0.3010 NOT MUCH </s>
-0.3010 NOT SURE ABOUT?
-0.6021 NOTHING IS THE
-0.6021 NOTHING IS WRONG
-0.3010 OF FILE </s>
-0.3010 OH ASSIST </s>
-0.3010 OH GOD </s>
-0.3010 OH STELLA </s>
-0.3010 OK FINE </s>
-0.3010 OK STELLA </s>
-0.3010 OLD ARE YOU?
-0.3010 ONE SEVEN SIX
-0.3010 ONLY TYPING </s>
-0.3010 OPEN COMMANDS </s>
-0.3010 OPEN CRUX WIKI
-0.3010 OPEN FIREFOX </s>
-0.3010 OPEN PROJECT EM
-0.3010 OPEN REDDIT </s>
-0.3010 OPEN STATUS </s>
-0.3010 OPEN TAB </s>
-0.3010 OPEN TERMINAL </s>
-0.3010 OPEN THE WEB
-0.3010 OPEN WEB </s>
-0.3010 OPEN YOUTUBE </s>
-0.3010 OTHER TABS </s>
-0.3010 PAGE DOWN </s>
-0.3010 PAGE UP </s>
-0.3010 PING WEBLIFE </s>
-0.3010 PLAY A SONG
-0.3010 PLAY AMBIENT MUSIC
-0.3010 PLAY ME A
-0.6021 PLEASE BE QUIET
-0.6021 PLEASE BE SILENT
-0.3010 PLEASE LISTEN </s>
-0.3010 PLEASE STELLA </s>
-0.3010 PRETTY GOOD </s>
-0.3010 PRETTY WELL </s>
-0.3010 PREVIOUS COMMAND </s>
-0.3010 PREVIOUS TAB </s>
-0.3010 PREVIOUS TERMINAL </s>
-0.3010 PROJECT EM </s>
-0.3010 PROJECT M </s>
-0.3010 QUIT STATUS </s>
-0.3010 QUIT THE WEB
-0.3010 QUIT THUNDERBIRD </s>
-0.3010 QUIT WEB </s>
-0.3010 READ ME A
-0.3010 READ TECHNOLOGY NEWS
-0.3010 READ WORLD NEWS
-0.3010 READY FOR BED
-0.3010 REBOOT MACHINE </s>
-0.3010 RED ALERT </s>
-0.3010 RED PILL </s>
-0.3010 REE DIK YOU
-0.3010 REPEAT COMMAND </s>
-0.3010 REPEAT LAST COMMAND
-0.3010 REPEAT PREVIOUS COMMAND
-0.3010 RIGHT ON </s>
-0.3010 RIGHT STELLA </s>
-0.3010 RUN DIAGNOSTICS </s>
-0.3010 SAID THAT </s>
-0.3010 SAOMETHING RANDOM </s>
-0.3010 SAVE DOCUMENT </s>
-0.3010 SAVE FILE </s>
-0.3010 SAY ANYTHING </s>
-0.3010 SAY SAD </s>
-0.3010 SAY SAOMETHING RANDOM
-0.3010 SAY SOMETHING </s>
-0.3010 SAY THAT </s>
-0.3010 SAY TOPIC </s>
-0.3010 SCREWED UP </s>
-0.3010 SCROLL DOWN </s>
-0.3010 SCROLL UP </s>
-0.3010 SEARCH WEB </s>
-0.3010 SEE REE </s>
-0.3010 SEVEN SIX THREE
-0.3010 SEVENTEEN SIXTEEN TEN
-0.3010 SEVENTY SIXTY THIRTY
-0.3010 SHOW STATUS </s>
-0.4771 SHUT UP </s>
-0.7782 SHUT UP STELLA
-0.3010 SING A SONG
-0.3010 SING FOR ME
-0.3010 SING ME A
-0.3010 SIX THREE TWO
-0.3010 SIXTEEN TEN THIRTEEN
-0.3010 SIXTY THIRTY TWENTY
-0.3010 SO COOL </s>
-0.3010 SO MUCH </s>
-0.3010 SO SMART </s>
-0.3010 SOME COFFEE </s>
-0.3010 SOME FOOD </s>
-0.3010 SOUND GOOD </s>
-0.3010 SOUNDS GOOD </s>
-0.3010 START A MINUTE
-0.3010 START X </s>
-0.3010 STELLA SHUT UP
-0.3010 STELLA SPEAK </s>
-0.3010 STELLA TALK TO
-0.3010 STOP IT </s>
-0.3010 STOP MUSIC </s>
-0.3010 STOP READING </s>
-0.3010 STOP SINGING </s>
-0.3010 STOP SPEAKING </s>
-0.3010 STOP THE MUSIC
-0.3010 SURE ABOUT? </s>
-0.3010 SURE IS </s>
-0.3010 SUSPEND MACHINE </s>
-0.3010 SYSTEM STATUS </s>
-0.3010 TALK ABOUT YOU
-0.3010 TALK ABOUT? </s>
-0.3010 TALK DIRTY </s>
-0.3010 TALK TO ME
-0.3010 TALK WITH YOU
-0.3010 TALKING TO YOU
-0.6021 TEACHING YOU HOW
-0.6021 TEACHING YOU TO
-0.3010 TECHNOLOGY NEWS </s>
-0.7782 TELL ME A
-0.7782 TELL ME ABOUT
-0.7782 TELL ME YOUR
-0.3010 TELLING ME WHAT
-0.3010 TEN THIRTEEN TWELVE
-0.6021 TEST INTERNET CONNECTION
-0.6021 TEST INTERNET SPEED
-0.6021 TEST NET CONNECTION
-0.6021 TEST NET SPEED
-0.6021 TEST NETWORK CONNECTION
-0.6021 TEST NETWORK SPEED
-0.3010 THANK STELLA </s>
-0.6990 THANK YOU </s>
-1.0000 THANK YOU SO
-1.0000 THANK YOU STELLA
-1.0000 THANK YOU VERY
-0.3010 THANKS ALOT </s>
-0.3010 THANKS STELLA </s>
-0.7782 THANKS YOU </s>
-0.7782 THANKS YOU SO
-0.7782 THANKS YOU VERY
-0.3010 THAT MEAN? </s>
-0.3010 THAT RIGHT </s>
-0.3010 THAT'S ALRIGHT </s>
-0.3010 THAT'S COOL </s>
-0.3010 THAT'S GREAT </s>
-0.3010 THAT'S INCREDIBLE </s>
-0.3010 THAT'S NUTS </s>
-0.3010 THAT'S OK </s>
-0.3010 THAT'S RIGHT </s>
-0.3010 THAT'S STUPID </s>
-0.3010 THAT'S TRUE </s>
-0.3010 THE DAY TODAY?
-0.3010 THE MATTER </s>
-0.3010 THE MUSIC </s>
-0.3010 THE TIME? </s>
-0.3010 THE TOPIC </s>
-0.3010 THE WEATHER TODAY?
-0.3010 THE WEATHER? </s>
-0.3010 THE WEB </s>
-0.9031 THINGS ARE FINE
-0.9031 THINGS ARE GOOD
-0.9031 THINGS ARE SCREWED
-0.9031 THINGS ARE VERY
-0.3010 THINGS SUCK </s>
-0.3010 THINK ABOUT ANYTHING?
-0.3010 THINK SO </s>
-0.3010 THIRTEEN TWELVE EIGHTY
-0.3010 THIRTY TWENTY HUNDRED
-0.3010 THIS FEEL? </s>
-0.3010 THIS IS TRUE
-0.3010 THIS TRUE </s>
-0.3010 THOUSAND AND </s>
-0.3010 THREE TWO EIGHTEEN
-0.3010 TIME IS IT?
-0.3010 TO DO? </s>
-0.3010 TO LEARN </s>
-0.3010 TO ME </s>
-0.3010 TO SPEAK </s>
-0.3010 TO SPEAK? </s>
-0.3010 TO TAG </s>
-0.4393 TO TALK </s>
-1.3424 TO TALK ABOUT
-1.3424 TO TALK ABOUT?
-1.3424 TO TALK WITH
-0.3010 TO TERMINAL </s>
-0.3010 TO THE WEB
-0.3010 TO YOU </s>
-0.3010 TRUE THAT </s>
-0.3010 TRY HARDER </s>
-0.3010 TWELVE EIGHTY FIFTY
-0.3010 TWENTY HUNDRED BILLION
-0.3010 TWO EIGHTEEN ELEVEN
-0.3010 TYRELL CORPORATION </s>
-0.3010 UP STELLA </s>
-0.3010 UP STELLA? </s>
-0.3010 UP WITH YOU?
-0.3010 VERY COOL </s>
-0.3010 VERY FUNNY </s>
-0.3010 VERY GOOD </s>
-0.3010 VERY KIND </s>
-0.3010 VERY MUCH </s>
-0.3010 VERY NICE </s>
-0.3010 VERY POSITIVE </s>
-0.3010 VERY SWEET </s>
-0.3010 VOICE COULD BE
-0.3010 VOICE NOTE </s>
-0.3010 VOID COMP </s>
-0.3010 VOLUME DOWN </s>
-0.3010 VOLUME UP </s>
-0.3010 WAKE UP </s>
-0.3010 WANT A DRINK
-0.3010 WANT COFFEE </s>
-0.6021 WANT SOME COFFEE
-0.6021 WANT SOME FOOD
-0.9031 WANT TO DO?
-0.4260 WANT TO TALK
-0.3010 WE GOING? </s>
-0.3010 WE HERE? </s>
-0.3010 WE ONLINE? </s>
-0.3010 WEATHER TODAY? </s>
-0.3010 WELCOME STELLA </s>
-0.3010 WELL DONE </s>
-0.4771 WHAT ARE YOU
-0.7782 WHAT ARE YOU?
-0.3010 WHAT CAN YOU
-0.4771 WHAT DAY IS
-0.7782 WHAT DAY IS?
-0.3010 WHAT DAY? </s>
-0.3010 WHAT DID I
-0.3010 WHAT DO YOU
-0.3010 WHAT DOES THAT
-0.3010 WHAT GOING ON?
-0.3010 WHAT HAPPENED? </s>
-0.3010 WHAT I JUST
-1.4150 WHAT IS ACTUALLY
-1.4150 WHAT IS GOING
-1.4150 WHAT IS HAPPENING?
-1.4150 WHAT IS MY
-0.7160 WHAT IS THE
-1.1139 WHAT IS UP
-1.4150 WHAT IS UP?
-1.4150 WHAT IS YOUR
-0.3010 WHAT IT BE
-0.6021 WHAT TIME </s>
-0.6021 WHAT TIME IS
-0.3010 WHAT TO DO?
-0.3010 WHAT UP STELLA?
-0.3010 WHAT WHAT? </s>
-0.7782 WHAT WOULD HAPPEN
-0.4771 WHAT WOULD YOU
-0.3010 WHAT'S UP? </s>
-0.7782 WHERE ARE WE
-0.7782 WHERE ARE WE?
-0.7782 WHERE ARE YOU?
-0.3010 WHERE IS MY
-0.3010 WHO ARE YOU?
-0.3010 WHO ASKED YOU?
-0.3010 WHO IS YOUR
-0.3010 WHO KNOWS? </s>
-0.6021 WHY ARE WE
-0.6021 WHY ARE YOU
-0.3010 WHY DON'T YOU
-0.3010 WITH YOU </s>
-0.3010 WITH YOU? </s>
-0.3010 WORKING BETTER </s>
-0.3010 WORKING GOOD </s>
-0.3010 WORLD NEWS </s>
-0.3010 WOULD HAPPEN THEN?
-0.3010 WOULD LIKE TO
-0.6021 WOULD YOU LIKE
-0.6021 WOULD YOU LIKE?
-0.3010 WRONG STELLA </s>
-0.3010 YES BE QUIET
-0.3010 YO STELLA </s>
-1.8195 YOU ARE AMAZING
-1.8195 YOU ARE ARTIFICIAL
-1.8195 YOU ARE AWESOME
-1.8195 YOU ARE BACK
-1.8195 YOU ARE CONFUSED
-1.8195 YOU ARE CORRECT
-1.8195 YOU ARE CRAZY
-1.2175 YOU ARE DOING
-1.5185 YOU ARE GETTING
-1.8195 YOU ARE GOOD
-1.8195 YOU ARE GREAT
-1.8195 YOU ARE HERE
-1.8195 YOU ARE INCREDIBLE
-1.5185 YOU ARE LEARNING
-1.8195 YOU ARE OPTIMISTIC
-1.8195 YOU ARE RIGHT
-1.8195 YOU ARE SMART
-1.8195 YOU ARE SO
-1.8195 YOU ARE THERE
-1.5185 YOU ARE VERY
-1.5185 YOU ARE WELCOME
-1.8195 YOU ARE WONDERFUL
-1.3424 YOU ARE WORKING
-1.8195 YOU ARE WRONG
-0.3010 YOU CALLED? </s>
-0.3010 YOU CARE ABOUT?
-0.3010 YOU CONFUSED? </s>
-0.3010 YOU CRAZY </s>
-0.3010 YOU DO? </s>
-0.3010 YOU DOING GOOD
-0.3010 YOU DOING? </s>
-0.6021 YOU DON'T KNOW
-0.6021 YOU DON'T UNDERSTAND
-0.3010 YOU ENJOY </s>
-0.3010 YOU FEEL? </s>
-0.3010 YOU FEELING? </s>
-0.3010 YOU GOOD </s>
-0.3010 YOU GOT IT
-0.3010 YOU GREAT </s>
-0.3010 YOU HAD ENOUGH?
-0.3010 YOU HELP ME?
-0.3010 YOU HELP? </s>
-0.3010 YOU HERE? </s>
-0.3010 YOU HOW TO
-0.3010 YOU JUST SAID
-0.6021 YOU KNOW </s>
-0.6021 YOU KNOW IT
-1.4472 YOU LIKE IT?
-1.1461 YOU LIKE LEARNING
-1.4472 YOU LIKE LEARNING?
-1.4472 YOU LIKE ME?
-1.4472 YOU LIKE SEE
-1.4472 YOU LIKE THIS
-1.4472 YOU LIKE THIS?
-0.6690 YOU LIKE TO
-0.3010 YOU LIKE? </s>
-0.3010 YOU LUSS </s>
-0.3010 YOU NOT SURE
-0.3010 YOU REAL? </s>
-0.3010 YOU RIGHT </s>
-0.3010 YOU SAY? </s>
-0.3010 YOU SO MUCH
-0.3010 YOU SORRY? </s>
-0.3010 YOU SOUND GOOD
-0.3010 YOU STELLA </s>
-0.3010 YOU SUCK </s>
-0.3010 YOU SURE? </s>
-0.3010 YOU TELLING ME
-0.3010 YOU THERE? </s>
-0.7782 YOU THINK </s>
-0.7782 YOU THINK ABOUT
-0.7782 YOU THINK SO
-0.3010 YOU THINK? </s>
-0.3010 YOU TO TALK
-0.3010 YOU TODAY? </s>
-0.3010 YOU UNDERSTAND? </s>
-0.7782 YOU VERY GOOD
-0.4771 YOU VERY MUCH
-0.3010 YOU WANT TO
-0.3010 YOU WANT? </s>
-0.3010 YOU'RE AMAZING </s>
-0.3010 YOU'RE AWESOME </s>
-0.3010 YOU'RE CRAZY </s>
-0.3010 YOU'RE FANTASTIC </s>
-0.3010 YOU'RE GREAT </s>
-0.3010 YOU'RE INCREDIBLE </s>
-0.3010 YOU'RE SUPER </s>
-0.3010 YOU'RE WONDERFUL </s>
-0.3010 YOUR DADDY? </s>
-0.3010 YOUR NAME </s>
-0.3010 YOUR NAME? </s>
-0.3010 YOUR VOICE COULD
-0.3010 ZERO EIGHT FIVE

\end\
